{"version":"0.7.0","architecture":"SlimmableContainer","config":{"submodels":[{"max_value":0.5,"model":{"version":"0.7.0","metadata":{"date":{"year":2026,"month":5,"day":14,"hour":18,"minute":24,"second":26},"loudness":-15.15871810913086,"gain":0.7958985576315248},"architecture":"WaveNet","config":{"layers":[{"input_size":1,"condition_size":1,"head":{"out_channels":1,"kernel_size":16,"bias":true},"channels":3,"kernel_sizes":[6,6,6,6,6,6,6,6,6,6,6,6,6,6,15,15,6,6,6,6,6,6,6],"dilations":[1,3,7,17,41,101,239,1,3,7,17,41,101,239,1,13,1,3,7,17,41,101,239],"activation":[{"type":"LeakyReLU","negative_slope":0.01},{"type":"LeakyReLU","negative_slope":0.01},{"type":"LeakyReLU","negative_slope":0.01},{"type":"LeakyReLU","negative_slope":0.01},{"type":"LeakyReLU","negative_slope":0.01},{"type":"LeakyReLU","negative_slope":0.01},{"type":"LeakyReLU","negative_slope":0.01},{"type":"LeakyReLU","negative_slope":0.01},{"type":"LeakyReLU","negative_slope":0.01},{"type":"LeakyReLU","negative_slope":0.01},{"type":"LeakyReLU","negative_slope":0.01},{"type":"LeakyReLU","negative_slope":0.01},{"type":"LeakyReLU","negative_slope":0.01},{"type":"LeakyReLU","negative_slope":0.01},{"type":"LeakyReLU","negative_slope":0.01},{"type":"LeakyReLU","negative_slope":0.01},{"type":"LeakyReLU","negative_slope":0.01},{"type":"LeakyReLU","negative_slope":0.01},{"type":"LeakyReLU","negative_slope":0.01},{"type":"LeakyReLU","negative_slope":0.01},{"type":"LeakyReLU","negative_slope":0.01},{"type":"LeakyReLU","negative_slope":0.01},{"type":"LeakyReLU","negative_slope":0.01}],"bottleneck":3,"head1x1":{"active":false,"out_channels":1,"groups":1},"layer1x1":{"active":true,"groups":1},"groups_input":1,"groups_input_mixin":1,"conv_pre_film":{"active":false,"shift":true,"groups":1},"conv_post_film":{"active":false,"shift":true,"groups":1},"input_mixin_pre_film":{"active":false,"shift":true,"groups":1},"input_mixin_post_film":{"active":false,"shift":true,"groups":1},"activation_pre_film":{"active":false,"shift":true,"groups":1},"activation_post_film":{"active":false,"shift":true,"groups":1},"layer1x1_post_film":{"active":false,"shift":true,"groups":1},"head1x1_post_film":{"active":false,"shift":true,"groups":1},"gating_mode":["none","none","none","none","none","none","none","none","none","none","none","none","none","none","none","none","none","none","none","none","none","none","none"],"secondary_activation":[null,null,null,null,null,null,null,null,null,null,null,null,null,null,null,null,null,null,null,null,null,null,null],"slimmable":null}],"head":null,"head_scale":0.014687061132506313},"weights":[4.645288944244385,-4.765640735626221,-6.346629619598389,0.455130934715271,-0.8458346128463745,-1.6350808143615723,-2.4483890533447266,-3.089393377304077,-3.1983485221862793,-0.448845773935318,0.3556040823459625,0.8807061910629272,1.5859378576278687,2.043117046356201,2.163923501968384,-0.4436205327510834,0.9216641783714294,1.6494476795196533,2.7165653705596924,3.3623597621917725,3.567478895187378,-0.02750280871987343,0.962306022644043,1.226528525352478,1.936988115310669,2.3999247550964355,2.032027244567871,-0.09563694149255753,-0.45313745737075806,-0.5980566143989563,-0.94275963306427,-1.2333439588546753,-1.0777660608291626,0.07549139857292175,-0.9067586064338684,-1.4182311296463013,-2.089857816696167,-2.53200364112854,-2.0811822414398193,-0.1892416775226593,0.5016418695449829,0.9065678119659424,1.4822953939437866,2.0564892292022705,2.1959640979766846,0.09227471053600311,-0.28269946575164795,-0.6133880615234375,-0.9105294346809387,-1.2548328638076782,-1.4399389028549194,0.33653080463409424,-0.46145060658454895,-1.0818661451339722,-1.7302075624465942,-2.368706464767456,-2.479513168334961,10.044330596923828,6.1333746910095215,8.970709800720215,-1.0460093021392822,0.7323119044303894,0.6407037973403931,0.17057235538959503,-1.102376103401184,-0.03933859243988991,1.1836861371994019,-1.0962446928024292,-0.8486161231994629,0.4700041711330414,-0.3059663772583008,-2.1220719814300537,0.16266490519046783,1.4069569110870361,-2.121990919113159,-0.3923810124397278,-0.09306703507900238,-0.15250614285469055,-0.26209893822669983,-0.14242619276046753,0.32352685928344727,-0.37935179471969604,-0.06262543797492981,-0.40129202604293823,-0.16415010392665863,0.4210323393344879,1.2327054738998413,-0.1076468750834465,-0.12085600942373276,-0.2883298993110657,-0.14113661646842957,-0.035872526466846466,0.24297550320625305,-0.12112747877836227,0.2802610695362091,-0.24335792660713196,-0.47796547412872314,-0.24119611084461212,-0.14802929759025574,-0.36674249172210693,-0.12957650423049927,-0.5022662281990051,-0.31889715790748596,0.11008591949939728,0.8571327328681946,-0.223676860332489,-0.07593453675508499,-0.08292340487241745,0.08853121846914291,0.3134364187717438,0.79576176404953,0.06687173247337341,-0.1008664071559906,0.062440261244773865,0.05797041580080986,0.16564014554023743,0.45933079719543457,0.48186808824539185,0.5184699296951294,0.5638983249664307,0.4539451003074646,0.08780457824468613,0.3457568287849426,-0.6237030625343323,-0.48783761262893677,-0.611355721950531,-0.40137484669685364,-0.024432910606265068,0.31376615166664124,0.02519947849214077,-0.6091118454933167,1.7982357740402222,-2.847419261932373,0.1581600308418274,0.8707480430603027,0.4446926414966583,-0.4022570252418518,-0.18901975452899933,0.9055373668670654,-0.9777053594589233,-0.4187980592250824,0.47148677706718445,-0.421268105506897,-0.19721755385398865,0.0984749048948288,0.2144160121679306,-0.5743409395217896,0.1926468014717102,0.33631178736686707,0.07482614368200302,0.21842342615127563,0.07951401174068451,0.259412944316864,-0.1375848650932312,-0.1608106940984726,-0.21497026085853577,0.1492740660905838,0.324128121137619,0.9102025628089905,-0.07317010313272476,-0.2201022505760193,-0.28022485971450806,-0.4643753170967102,-0.506831169128418,-0.33020415902137756,-0.6585052013397217,-0.34066241979599,-0.19537702202796936,-0.0013691169442608953,-0.14588217437267303,-0.11000145971775055,0.17215238511562347,-0.008503973484039307,-0.1648302525281906,-0.04932315647602081,-0.07032933831214905,0.08788671344518661,0.09832370281219482,0.040623996406793594,0.2293822318315506,0.07416732609272003,-0.07611067593097687,-0.4227326214313507,0.08460067957639694,-0.02444544807076454,-0.4109591543674469,-0.5924361348152161,0.058455925434827805,0.24467888474464417,-0.16550390422344208,-0.19389913976192474,-0.13710591197013855,0.054446060210466385,-0.05452987924218178,0.5089648962020874,-0.11375262588262558,-0.033016785979270935,-0.06777084618806839,-0.03193426877260208,-0.05642303079366684,0.3592727482318878,0.31062066555023193,-0.029079115018248558,0.29030752182006836,-0.7115911841392517,-0.206688791513443,-0.23737365007400513,-0.0072847711853682995,0.5020112991333008,0.43659478425979614,0.6143577694892883,0.13862396776676178,0.5371496081352234,0.8701786994934082,0.4299384653568268,0.6855495572090149,0.023610297590494156,-0.2871765196323395,-0.15296252071857452,0.07883431017398834,-0.07852815836668015,-0.2644246518611908,-0.18506553769111633,-0.16029079258441925,-0.6317670941352844,-0.06189124658703804,0.14947329461574554,0.06130833551287651,-0.13936124742031097,-0.00023275184503290802,-0.028269806876778603,0.05605484917759895,-0.1110597774386406,0.03745212033390999,0.11768285185098648,0.04972541332244873,0.17932364344596863,-0.07655041664838791,0.011105408892035484,0.05147159472107887,-0.47404345870018005,-1.245396375656128,-0.3406619727611542,-0.0371604859828949,0.06559514254331589,0.1722525656223297,0.2863849699497223,0.29775434732437134,0.059176258742809296,0.03502414748072624,-0.015157208777964115,-0.14422331750392914,-0.01659250818192959,0.20819324254989624,-0.1735224574804306,-0.16448742151260376,-0.19546470046043396,-0.39568063616752625,-1.0187968015670776,0.016681481152772903,-0.6384477615356445,0.05885058268904686,0.11232546716928482,0.16022582352161407,-0.11924050003290176,-0.016190383583307266,-0.20592856407165527,0.04255283996462822,0.00767650967463851,0.04051189869642258,-0.24876831471920013,0.03627118840813637,0.38441744446754456,0.12999336421489716,-0.1270335614681244,0.05122433230280876,0.07090358436107635,-0.07756256312131882,0.35651907324790955,0.5741406679153442,-0.28807294368743896,0.42849165201187134,-0.1553448736667633,-0.4177301824092865,0.24639752507209778,-0.31010884046554565,-0.7773967385292053,-0.5601691603660583,-0.43353399634361267,0.29650282859802246,-0.20740415155887604,-0.08737403154373169,-0.09822260588407516,-0.05799994617700577,-0.01791442185640335,-0.00920732133090496,-0.5994830131530762,0.07978232204914093,0.08440293371677399,0.013542642816901207,0.007654416840523481,0.21670112013816833,-0.035181280225515366,-0.04254639148712158,-0.056865792721509933,-0.01654127985239029,-0.044610388576984406,0.09154587984085083,0.2043258249759674,0.07110001891851425,0.05944857373833656,0.04903818666934967,0.17027974128723145,0.09900686889886856,-0.4825560748577118,0.05903642624616623,0.053620316088199615,0.07761018723249435,-0.0112798772752285,0.4179302155971527,0.776332437992096,-0.06169353052973747,-0.0563201941549778,-0.0800471156835556,-0.0640687346458435,0.17757774889469147,-0.5097613334655762,0.027548281475901604,-0.00017755433509591967,-0.093164823949337,-0.022688165307044983,-0.0369342602789402,0.16098469495773315,0.08521271497011185,0.10503257811069489,0.19759531319141388,0.16554243862628937,-0.011372686363756657,-0.24144677817821503,-0.07625260949134827,-0.08487116545438766,-0.1263682246208191,-0.0986299067735672,-0.26300495862960815,0.1710963249206543,0.29898419976234436,-0.042560264468193054,0.2708645761013031,0.45360809564590454,0.1929936558008194,-0.22078190743923187,-0.28155502676963806,0.2900888919830322,-0.3481256663799286,-0.6262263655662537,-0.5917442440986633,0.6636207699775696,-0.32922282814979553,0.17296773195266724,-0.29274994134902954,-0.5618197321891785,-0.4919270873069763,-0.12880480289459229,-0.11741933971643448,-0.06697001308202744,-0.07982753217220306,-0.021805454045534134,-0.028719088062644005,-1.2449009418487549,0.0009732231264933944,0.007577748037874699,0.01799207739531994,0.008277368731796741,-0.004367547575384378,-0.47900745272636414,0.03747028484940529,0.0031681337859481573,-0.007555137388408184,-0.022217856720089912,-0.016193974763154984,-0.3820423483848572,-0.006820067763328552,-0.0033779919613152742,0.0030661476776003838,0.004313797689974308,0.01602068357169628,-0.4824795722961426,0.0005288116517476737,0.002660982310771942,0.004859921056777239,0.0004804680065717548,-0.0006733940099366009,-0.16012050211429596,-0.00012362515553832054,-0.0007536319317296147,-0.009092089720070362,-0.0048981946893036366,-0.005759133491665125,-0.16128993034362793,0.0027147578075528145,-0.0033696836326271296,-0.003989454358816147,0.0021644870284944773,-0.009316139854490757,0.001320425420999527,-0.0005465289577841759,-0.0012382300337776542,0.0014315719017758965,0.004284139256924391,0.0005420626839622855,0.030603012070059776,0.0005506525048986077,4.584396447171457e-05,-0.0024680295027792454,-0.006725488230586052,-0.05678252503275871,-0.03308820351958275,-0.23557120561599731,0.09931338578462601,0.5282270312309265,-0.049988459795713425,0.6135164499282837,-0.05201026424765587,-0.033908355981111526,0.658745288848877,-0.11162132024765015,0.24478435516357422,0.44901561737060547,-0.6875039935112,0.2704753875732422,0.559159517288208,0.28888484835624695,-0.4192439615726471,-0.3145594894886017,0.43472379446029663,-0.06266505271196365,-0.0823504775762558,-0.04254317656159401,-0.003137423889711499,-0.08966896682977676,-0.20553798973560333,-0.009665192104876041,0.003318442264571786,-0.024366891011595726,-0.012831260450184345,-0.00533759081736207,0.005624307785183191,0.021110381931066513,0.04442211240530014,0.0432305671274662,0.01930171437561512,0.028694691136479378,0.014646688476204872,0.014919237233698368,0.0056695942766964436,0.056820787489414215,0.048766929656267166,0.006656029261648655,0.8845289349555969,0.004503525793552399,-0.0011651575332507491,0.001810526242479682,0.002505084965378046,0.013433290645480156,0.4588492214679718,-0.002672906732186675,0.0016948769334703684,-0.010794196277856827,-0.009130001999437809,-0.013508905656635761,0.6366793513298035,-0.049080077558755875,-0.069499671459198,-0.12414471060037613,-0.0736132487654686,-0.048031315207481384,-0.936227023601532,-0.0020804053638130426,0.005992359481751919,-0.0036574823316186666,0.000828633492346853,-0.006174755282700062,-0.45527520775794983,-0.010846395045518875,-0.0019440118921920657,0.011776826344430447,-0.003278323682025075,0.007198221981525421,-0.5766397714614868,0.40643274784088135,0.017031950876116753,0.23980700969696045,-0.34139031171798706,-0.9249138236045837,0.0945051833987236,-0.05349685996770859,-0.2459963709115982,0.02949395589530468,-0.6391502022743225,-0.7160901427268982,0.4049050509929657,-0.6341364979743958,-0.8222330212593079,0.43124404549598694,-0.2938980460166931,-0.11603233218193054,-0.08939188718795776,0.19537001848220825,0.260764479637146,0.28642818331718445,0.049178048968315125,0.013852723874151707,-0.0936981812119484,0.041670724749565125,0.12414660304784775,0.01854645274579525,0.14631010591983795,-0.0023318331222981215,-0.09302608668804169,-0.12156770378351212,-0.016525911167263985,-0.04709917679429054,-0.21788880228996277,0.023635443300008774,0.15632139146327972,0.004902448505163193,-0.04492245614528656,0.16626419126987457,-0.12668843567371368,-0.2264319211244583,-0.36376821994781494,0.2880556583404541,0.0826827809214592,-0.29343754053115845,0.2161405086517334,0.034441422671079636,-0.11037401854991913,-0.08682660013437271,0.006579598877578974,-0.17577999830245972,-0.04737978056073189,0.10935523360967636,0.08926043659448624,0.44604775309562683,0.06428994983434677,0.10467832535505295,-0.06718960404396057,-0.1734955757856369,-0.3239595293998718,0.1614755541086197,0.0693524181842804,0.067001111805439,0.19279547035694122,-0.080668605864048,-0.3996182680130005,-0.18140117824077606,-0.21012011170387268,0.13216224312782288,-0.07558265328407288,0.12046147137880325,0.11984363943338394,0.747245728969574,-1.9632600545883179,0.5634916424751282,0.9250723123550415,0.444977343082428,0.02575954794883728,-0.3487996459007263,0.6965638399124146,0.29875484108924866,0.5292575359344482,-0.3533843159675598,0.43938717246055603,-0.43933263421058655,-0.7238355875015259,-0.6943432688713074,-0.5917237997055054,-0.6130500435829163,0.02079053968191147,-0.02195759117603302,0.1900423914194107,-0.15846145153045654,0.09160938113927841,-0.061137013137340546,-0.27105867862701416,-0.047764018177986145,-0.03731312230229378,-0.12117926776409149,0.02997719496488571,-0.052520763128995895,-0.638356626033783,-0.044390417635440826,0.041309911757707596,0.032627351582050323,-0.04753999412059784,-0.44055798649787903,-0.4163491129875183,0.2261536717414856,-0.18905800580978394,-0.032235100865364075,-0.20790673792362213,0.0633796751499176,0.5611603856086731,0.05268915370106697,-0.05396198853850365,-0.011249451898038387,-0.06918493658304214,-0.14436151087284088,0.28423231840133667,0.00757274404168129,-0.02955961599946022,-8.057642844505608e-05,0.18993480503559113,0.0009526325156912208,-0.1129937469959259,0.038052354007959366,-0.009075528010725975,-0.24825726449489594,-0.19159981608390808,-0.31121209263801575,-0.24296051263809204,0.04200564697384834,-0.011803247965872288,0.031051255762577057,-0.19016771018505096,-0.13609538972377777,0.15182462334632874,-0.020249199122190475,0.04877644404768944,-0.02569734863936901,0.26366448402404785,-0.04668557643890381,0.035396914929151535,0.12761731445789337,0.6396486163139343,-0.28296005725860596,1.566083312034607,-0.3444252908229828,0.645799458026886,-0.0060557834804058075,-0.7310284972190857,0.2741840183734894,0.46191728115081787,-0.288163959980011,-0.46292924880981445,0.347502738237381,0.5880854725837708,0.40133151412010193,-1.1995925903320312,0.3287738561630249,-0.06654299050569534,0.011005381122231483,-0.6314067840576172,-0.3602619171142578,-0.43177950382232666,-0.45299625396728516,-0.08297450095415115,0.04596873000264168,0.020208274945616722,0.21527479588985443,0.2519562244415283,-0.04965211823582649,-0.33325815200805664,-0.2966282367706299,0.20516055822372437,0.13744859397411346,0.037300918251276016,0.10551213473081589,-0.16350677609443665,-0.10570187121629715,-0.04843415692448616,-0.148920476436615,0.020044853910803795,0.03121875412762165,0.4185851216316223,-0.12993063032627106,-0.020578142255544662,-0.02786591835319996,0.04839957132935524,0.2122473120689392,0.31641191244125366,-0.13793830573558807,-0.037989579141139984,0.08751288056373596,0.1919780820608139,0.04755523055791855,-0.027601946145296097,-0.15927182137966156,-0.28202566504478455,-0.14105097949504852,-0.05237552523612976,-0.2941424548625946,0.205293208360672,-0.11189412325620651,-0.12379646301269531,-0.055370498448610306,-0.06643234938383102,-0.15843522548675537,0.09118717908859253,-0.2351718246936798,-0.27219828963279724,-0.15950442850589752,-0.24277694523334503,-0.2501595914363861,0.26491016149520874,0.3282536268234253,0.28468063473701477,0.06950589269399643,0.3418186604976654,-0.0715976431965828,-0.89081871509552,0.08959504216909409,-0.42237579822540283,0.006509444676339626,-0.20287546515464783,0.17944708466529846,-0.41489529609680176,0.24082687497138977,-0.007660520728677511,-0.5538941621780396,-1.6860754489898682,0.1889793574810028,0.26310425996780396,0.017876477912068367,-0.041703321039676666,-0.0024886184837669134,0.18577171862125397,0.015116467140614986,0.2942083477973938,0.01551833190023899,-0.01872844062745571,-0.01560908555984497,0.06392335146665573,-0.04560163989663124,0.2510705590248108,0.03518344461917877,0.0036475099623203278,-0.0291418619453907,0.10026487708091736,0.09457232058048248,-0.09373866766691208,0.04279244318604469,0.034084685146808624,0.13550125062465668,0.18715302646160126,0.28516989946365356,0.06384655088186264,0.020314833149313927,-0.0009895135881379247,0.04022630304098129,0.051709335297346115,0.1390797346830368,-0.4226822257041931,-0.007982669398188591,-0.031683456152677536,-0.005838779732584953,-0.10949335247278214,-0.05578125640749931,0.24931535124778748,0.011433040723204613,-0.012703042477369308,0.03185493126511574,0.04772507771849632,0.025579866021871567,-0.10377751290798187,0.005293089896440506,-0.01991092413663864,0.00036461447598412633,0.04325808957219124,0.0031007432844489813,0.6030719876289368,0.01552017591893673,-0.025649866089224815,-0.01496746763586998,0.06542287766933441,-0.008159013465046883,-0.23157323896884918,-2.023446798324585,-0.9177239537239075,-0.813604474067688,-0.6664749979972839,0.52680903673172,0.006512928754091263,0.21871118247509003,-0.21705126762390137,0.0644160732626915,-0.6360570192337036,1.0596809387207031,-0.7564831376075745,1.36379075050354,-0.3905331492424011,0.38927149772644043,-1.0677202939987183,0.13740593194961548,0.10246511548757553,0.004698391072452068,0.07897329330444336,0.214427649974823,0.1438581347465515,0.1964813619852066,-0.5532107949256897,-0.06667296588420868,-0.07746358960866928,-0.02843000926077366,-0.056602150201797485,-0.07391837984323502,-0.435189813375473,-0.05655183270573616,-0.08841326087713242,-0.07311715930700302,-0.04477059468626976,-0.08410719037055969,0.19636507332324982,-0.08700704574584961,-0.06577428430318832,0.027989385649561882,-0.09955582022666931,-0.06932414323091507,-0.2486264556646347,-0.08628803491592407,-0.12095871567726135,-0.10104373842477798,-0.14200438559055328,-0.22086384892463684,-0.03220177814364433,-0.14453646540641785,-0.24106350541114807,-0.2775554358959198,-0.3966720998287201,-0.5769245028495789,0.39221060276031494,-0.05909044295549393,-0.14615659415721893,-0.13877081871032715,-0.2069365531206131,-0.22154676914215088,0.19903095066547394,0.09649132192134857,0.061836015433073044,0.12361273914575577,0.10398761928081512,0.11150312423706055,0.04857894033193588,0.1644994467496872,0.09136737138032913,0.13020828366279602,0.11477325111627579,-0.010396571829915047,0.07683299481868744,-0.17655688524246216,0.19578036665916443,-0.05656023323535919,0.7847347259521484,-1.4226607084274292,-0.2835342586040497,0.26859477162361145,0.09385048598051071,-0.40093719959259033,0.39556989073753357,-0.4478111267089844,-0.25246497988700867,0.27498659491539,-1.0392827987670898,0.10814176499843597,-0.23643343150615692,0.5607572197914124,0.723421037197113,0.07374217361211777,0.07140848785638809,0.09112800657749176,0.07260401546955109,0.06199430301785469,-0.6768372654914856,0.032917167991399765,0.030733434483408928,0.04256150498986244,0.029874397441744804,0.04081910103559494,-0.2917388379573822,0.0075800251215696335,0.014389906078577042,0.002621700055897236,0.006614367477595806,0.057238951325416565,-0.5973363518714905,-0.11249895393848419,-0.09051015973091125,-0.18003322184085846,-0.14535394310951233,-0.15231142938137054,-0.03185243532061577,0.0854087546467781,0.04385566711425781,0.10293149948120117,0.1042458713054657,0.0730186402797699,-0.07377070933580399,0.1714744120836258,0.18123389780521393,0.132296621799469,0.20668001472949982,-0.0036183525808155537,-0.19960226118564606,-0.05923355743288994,-0.07750651985406876,-0.13433153927326202,-0.09622643887996674,-0.1369515210390091,-0.4481064975261688,-0.01890677958726883,-0.018578283488750458,-0.02858116291463375,0.004622758366167545,-0.007483552675694227,1.1739709377288818,0.007535219192504883,0.03395518660545349,0.07939110696315765,0.10205824673175812,0.16781291365623474,-0.16472835838794708,-0.5483194589614868,-0.0654904842376709,0.20799954235553741,0.659961462020874,-0.1866828352212906,0.2887582778930664,0.19912755489349365,0.062457650899887085,-0.011973238550126553,0.4739490747451782,-0.02963433973491192,0.5271438956260681,0.6826671957969666,-0.29272374510765076,-0.008314394392073154,-1.5178072452545166,-0.5141919255256653,-0.028911270201206207,0.02614329382777214,-0.009921223856508732,-0.012255378067493439,0.025595612823963165,0.13160166144371033,-0.18085643649101257,0.012806160375475883,-0.008224818855524063,-0.008331751450896263,0.01841963827610016,0.06374954432249069,0.512217104434967,0.034065257757902145,-0.01684165559709072,0.002978857606649399,0.0748397633433342,0.2175862044095993,-0.5695716142654419,-0.061984505504369736,-0.04538838937878609,-0.08335129171609879,-0.08271404355764389,-0.017541876062750816,-0.1674014925956726,-0.02080126665532589,-0.019718287512660027,-0.024284308776259422,-0.0031574538443237543,0.03693504258990288,0.5402120351791382,-0.023391248658299446,-0.0368354469537735,-0.0253248680382967,0.0856536254286766,0.27083417773246765,0.6388714909553528,0.03300771862268448,0.041684120893478394,0.05527690798044205,0.06586635112762451,0.06933102756738663,-0.2842841148376465,0.009145624935626984,0.016295582056045532,0.023089786991477013,0.02840004675090313,0.029280884191393852,-0.7177091836929321,-0.0013631702167913318,0.022021686658263206,0.03457004204392433,0.04415931925177574,0.036510955542325974,-0.1755949854850769,0.23299472033977509,0.11234211176633835,-1.1352715492248535,0.32754752039909363,0.23773515224456787,-0.4488266706466675,-0.4869765341281891,-0.23809561133384705,0.011529587209224701,0.1623464822769165,0.6087270975112915,1.0505611896514893,1.0451076030731201,0.2993974983692169,0.4132685363292694,-1.7983158826828003,-0.5061521530151367,-0.8867363333702087,-0.10714271664619446,-0.08052638173103333,-0.117491215467453,0.005344988778233528,-0.11908463388681412,-0.09937451034784317,-0.1189013421535492,-0.1320938766002655,-0.06124698743224144,-0.04557874798774719,-0.1984807252883911,0.18919581174850464,0.042031120508909225,0.38725531101226807,0.44343340396881104,-0.22084714472293854,-0.006917305290699005,-0.1037374958395958,0.023601630702614784,-0.029690098017454147,-0.03678193688392639,-0.18300260603427887,-0.2600761651992798,-0.27990469336509705,-0.09280155599117279,-0.1737246811389923,-0.4181915819644928,-0.4905579388141632,-0.34699442982673645,-0.9705700874328613,-0.06925270706415176,0.05887093022465706,-0.11479782313108444,0.01847425289452076,-0.05760406330227852,-0.060846976935863495,-0.16867980360984802,0.012371513992547989,-0.0363045260310173,-0.13030996918678284,-0.055381402373313904,0.09782502800226212,0.014151710085570812,0.007145688869059086,0.22536952793598175,0.03759123012423515,0.0398353636264801,-0.043194107711315155,-0.00940781645476818,0.030528761446475983,-0.025750521570444107,0.001215273980051279,-0.1638956516981125,-0.0783269926905632,-0.009578797966241837,-0.13196909427642822,0.14162304997444153,-0.18266601860523224,0.2738402485847473,0.30839791893959045,0.14082084596157074,0.08140677958726883,-0.07961839437484741,-0.06064574792981148,-0.00783933699131012,-0.013194098137319088,0.04639945924282074,-0.17327240109443665,-0.12125569581985474,-0.20828427374362946,-0.20617669820785522,-0.41500890254974365,-0.4568168520927429,-0.21116876602172852,-0.046856388449668884,-0.015375363640487194,-0.06974666565656662,-0.0958092212677002,-0.033331248909235,0.06787070631980896,-0.006868750788271427,0.0709632933139801,0.10340526700019836,0.03517153486609459,0.04631872475147247,-0.024144992232322693,-0.27517011761665344,-0.15377038717269897,-0.15614590048789978,-0.034591857343912125,-0.14272285997867584,-0.1338549107313156,-0.02250695414841175,-0.10606865584850311,-0.12237849831581116,-0.03339100256562233,-0.239507794380188,-0.22183652222156525,-0.26058119535446167,-0.14283287525177002,-0.21857571601867676,0.07872012257575989,0.33622732758522034,0.09199336916208267,0.254305899143219,-0.0736314207315445,-0.18450011312961578,0.00043054623529314995,0.0044625913724303246,-0.12563669681549072,-0.016250815242528915,-0.174003005027771,-0.39002394676208496,-0.5321120619773865,-0.3545154929161072,-0.4501282572746277,-0.7501487731933594,-0.7642213106155396,-0.8290858268737793,-1.0113821029663086,-0.1058567613363266,0.07296229898929596,-0.12377744913101196,-0.04678694158792496,0.005338622722774744,-0.17979416251182556,0.012188970111310482,0.04806668311357498,-0.08577478677034378,-0.017559807747602463,-0.190767303109169,0.004532515071332455,-0.20038719475269318,-0.19051863253116608,-0.4425468444824219,-1.1928319931030273,-0.8639673590660095,0.9439399838447571,-0.04092460498213768,0.15209224820137024,-0.22353968024253845,-0.670656681060791,-0.6499003767967224,0.614828884601593,1.0659804344177246,0.11337456852197647,-0.8143970370292664,-0.7260990142822266,-0.5115203261375427,0.6994287967681885,-0.9576832056045532,-1.1824886798858643,-0.1740257740020752,-0.07489562779664993,-0.07593277096748352,-0.09738723933696747,-0.07955607771873474,-0.10312990099191666,-0.0669809952378273,-0.11476325243711472,-0.029081298038363457,-0.10930471122264862,-0.09497448056936264,-0.07733988016843796,-0.07567182183265686,-0.05004432424902916,0.16193917393684387,1.1319561004638672,-0.04459138587117195,-0.059699155390262604,-0.05955129489302635,-0.05412193760275841,-0.0588337704539299,-0.047791216522455215,-0.07304535806179047,-0.00808689370751381,-0.0604839101433754,-0.04649696499109268,-0.042006246745586395,-0.04514680057764053,-0.02240828052163124,0.029467180371284485,-0.11817700415849686,-0.014680260792374611,-0.019568301737308502,-0.027411308139562607,-0.009256042540073395,-0.05514203757047653,-0.017958948388695717,-0.027835749089717865,-0.025726206600666046,0.003262607380747795,-0.04896778613328934,-0.036626268178224564,0.026450183242559433,0.033512186259031296,-0.03732609376311302,1.0750788450241089,-0.1593858152627945,-0.16476626694202423,-0.17524483799934387,-0.06106896325945854,0.03273630887269974,-0.10569385439157486,-0.07939894497394562,-0.1646619290113449,0.09830175340175629,-0.18148988485336304,-0.31682178378105164,-0.31509366631507874,-0.19864821434020996,0.015761520713567734,0.15981046855449677,-0.06359654664993286,-0.042201362550258636,-0.03903113305568695,0.05308152362704277,-0.14284895360469818,0.06821341067552567,-0.06909338384866714,-0.05432184040546417,-0.00885865744203329,-0.09657440334558487,-0.1862415373325348,-0.18995024263858795,-0.1701003909111023,0.08280908316373825,0.21341203153133392,0.11192764341831207,0.0745876356959343,0.0126766012981534,-0.01846776157617569,0.4311690330505371,-0.2620121240615845,0.1409592181444168,-0.09055553376674652,0.19607208669185638,-0.04577647149562836,-0.14630283415317535,0.11580388247966766,0.036110226064920425,-0.22928021848201752,0.5273073315620422,-0.060068339109420776,-0.09841587394475937,0.0013994022738188505,-0.005909448489546776,-0.24376849830150604,0.03123660385608673,0.08307027071714401,-0.010879888199269772,-0.11276427656412125,0.06031864881515503,-0.02948835678398609,-0.031626757234334946,-0.1517210751771927,-0.051353923976421356,-0.49103695154190063,-0.054990995675325394,-0.07337316870689392,-0.05153508856892586,-0.06313605606555939,-0.08543064445257187,-0.09357241541147232,0.032823700457811356,-0.09648232161998749,-0.05299544706940651,-0.0289656613022089,-0.05012204498052597,-0.06361185014247894,-0.04893619939684868,0.03337439149618149,-0.5801845192909241,0.09308907389640808,-0.02844194881618023,0.09634186327457428,0.12298235297203064,-0.16553758084774017,0.1241188496351242,-0.020520268008112907,0.08772419393062592,-0.09901782125234604,0.10388077050447464,0.09081179648637772,0.010910190641880035,0.038950443267822266,-0.11722385883331299,-0.8824515342712402,0.326445072889328,0.31926944851875305,0.5251792073249817,0.13861151039600372,-0.004567455034703016,0.2748561501502991,1.0538280010223389,-0.04629558324813843,-0.5556614398956299,-0.7571572661399841,-0.4595887064933777,0.648080587387085,0.01210900116711855,-0.23900379240512848,0.4932067096233368,-1.0421440601348877,-0.7443209886550903,-0.1458597183227539,-0.6923396587371826,-0.43871045112609863,-0.5683431029319763,-0.44234269857406616,-0.4394201338291168,-0.18205209076404572,-0.02150430902838707,-0.12585686147212982,0.09842962771654129,0.02644561231136322,-0.09146303683519363,-0.5836502313613892,-0.1724681407213211,0.007754570338875055,-0.20905211567878723,-0.1996825933456421,0.07445403188467026,0.06988566368818283,-0.17474451661109924,-0.09636662900447845,-0.3813345730304718,-0.10079842060804367,-0.1788475513458252,0.970811665058136,-0.18195177614688873,-0.13856875896453857,-0.02214263379573822,-0.28340715169906616,-0.2920338213443756,-0.4769960641860962,-0.006355935707688332,0.12334790825843811,0.02983914315700531,0.041032999753952026,0.5738487839698792,0.9124723076820374,-0.11735814809799194,-0.23010781407356262,0.02906523086130619,0.3801596760749817,0.27588167786598206,-0.2531946003437042,-0.19234928488731384,-0.05772433802485466,-0.11228141188621521,-0.24600264430046082,-0.1819583773612976,0.02269795350730419,0.00875435397028923,0.23554755747318268,0.26832881569862366,0.22505497932434082,0.3450659215450287,-0.1806655079126358,0.3844923973083496,0.5782364010810852,-0.19754831492900848,0.23087500035762787,0.12168365716934204,-0.10439949482679367,-0.4962049722671509,2.7470496206660755e-05,0.21069911122322083,-0.2511742115020752,-1.059035301208496,0.8472293019294739,0.18536673486232758,0.1876055896282196,-0.27952083945274353,-0.7373775243759155,0.19225835800170898,-0.2520204484462738,-0.19163411855697632,0.04539763554930687,0.14953665435314178,0.023052029311656952,-0.15841498970985413,-0.5163205862045288,-0.17638251185417175,-0.08958138525485992,-0.06650766730308533,-0.07442187517881393,0.020060231909155846,-0.5666655898094177,0.11849013715982437,0.1467052400112152,0.20884208381175995,0.025379329919815063,-0.5206305384635925,-0.06169625371694565,-0.38589462637901306,-0.1570330560207367,-0.22296495735645294,-0.1072932705283165,-0.2594291567802429,0.01637360453605652,0.4219292104244232,-0.2996094524860382,-0.2090359777212143,-0.10955864191055298,-0.04104955121874809,0.04435032978653908,-0.3272378444671631,-0.05521664768457413,0.11724749207496643,0.07178150862455368,0.10018085688352585,-0.030472353100776672,0.03330506384372711,0.016769908368587494,-0.3401067852973938,-0.2850862741470337,-0.14571423828601837,0.17138628661632538,-0.0947171002626419,-0.41769492626190186,-0.21709099411964417,-0.0016807069769129157,-0.3118608891963959,-0.03604536131024361,-0.5083455443382263,-0.354399710893631,-0.1701013594865799,-1.0266975164413452,-0.08546901494264603,0.6345834136009216,0.1567040979862213,0.5315048098564148,0.10737666487693787,0.16304773092269897,-0.0030545101035386324,0.05416978523135185,-0.0036478517577052116,-0.42229899764060974,0.2707357108592987,0.8032870292663574,-0.09413568675518036,-0.2201024293899536,-0.6438500881195068,0.11746744066476822,-0.6777145266532898,-0.5242600440979004,-0.021130910143256187,-0.01452183909714222,-0.006508662831038237,-0.11464446038007736,-0.07313399761915207,-0.1183861494064331,-0.0022892910055816174,0.16767118871212006,-0.055342186242341995,0.05845428258180618,-0.10754372924566269,0.004055419471114874,0.14106068015098572,0.1422443389892578,-0.0018761740066111088,-0.3747938573360443,0.22227787971496582,-0.0679531916975975,-0.20087946951389313,-0.10995890945196152,-0.050852686166763306,-0.0013773506507277489,0.09555236995220184,-0.19700734317302704,-0.064394511282444,-0.02712794579565525,-0.08490721136331558,0.04429101571440697,0.011925352737307549,-0.3603591322898865,-0.08568161725997925,-0.17465715110301971,0.22273539006710052,-0.14128974080085754,-0.038740627467632294,-0.11413127183914185,-0.3592697083950043,0.21888315677642822,-0.027116425335407257,0.019691061228513718,0.12229617685079575,-0.1991831213235855,-0.3698970377445221,-0.07582232356071472,0.008613851852715015,-0.040996138006448746,0.06595940887928009,0.06028057634830475,0.5389506220817566,0.08786211907863617,0.03323518484830856,-0.022210579365491867,-0.0001669339690124616,-0.12682518362998962,-0.1301785111427307,-0.25895851850509644,0.28994062542915344,0.04111771658062935,0.13879740238189697,0.29302191734313965,-0.09713876247406006,0.029380982741713524,-0.17694710195064545,-0.033705636858940125,0.05304583162069321,-1.1448086500167847,-0.4723440110683441,-0.3555394411087036,-0.0031155382748693228,0.9952306747436523,0.07664945721626282,-0.29155170917510986,-0.0713629201054573,0.08537745475769043,0.18167266249656677,0.055529262870550156,0.19277134537696838,0.08382058888673782,-0.014279389753937721,-0.5137253403663635,-0.13099274039268494,-0.015739435330033302,-0.04842457175254822,-0.14913900196552277,-0.17981338500976562,-0.4460413455963135,0.22521689534187317,0.09386668354272842,0.2882540822029114,-0.4633188545703888,0.03454692289233208,-0.23405343294143677,-0.018707584589719772,-0.38185134530067444,-0.1334565281867981,-0.1876326948404312,-0.08843395859003067,0.2093603014945984,-0.11292921006679535,0.025524044409394264,-0.165350541472435,-0.1593112349510193,-0.0696418508887291,0.072565957903862,0.037656549364328384,-0.03471915051341057,0.054083917289972305,-0.35474079847335815,0.0793321281671524,0.35139650106430054,0.04277694597840309,-0.050353921949863434,-0.18707934021949768,-0.4882447421550751,-0.4536053240299225,-0.14374148845672607,-0.02938801981508732,-0.06421874463558197,0.17239299416542053,-0.19834330677986145,-0.2904970049858093,-0.2518638074398041,0.10163318365812302,0.27863267064094543,-0.011640137061476707,-0.16461193561553955,0.02412734366953373,-0.5686249136924744,-0.0060053011402487755,0.2246253788471222,0.05394604057073593,-0.008989294990897179,-0.08851776272058487,0.2435612678527832,1.0492031574249268,-0.555047869682312,-0.6811652183532715,-0.14896397292613983,-0.36400604248046875,-0.28519052267074585,0.15643620491027832,-0.7560411691665649,0.7667590975761414,0.0626518726348877,0.22086401283740997,-0.07255642116069794,0.004303413443267345,-0.3668627142906189,-0.17950133979320526,-0.1769023984670639,0.26942136883735657,-0.1107543334364891,-0.023726465180516243,-0.17194092273712158,-0.14398357272148132,-0.09528365731239319,-0.02616228722035885,-0.19635628163814545,-0.10025772452354431,0.07455053925514221,-0.12479894608259201,-0.08420658111572266,-0.12654899060726166,0.030141063034534454,-0.09987415373325348,0.07698358595371246,0.009946158155798912,-0.12455575168132782,-0.027462095022201538,0.0032345575746148825,-0.06667225807905197,-0.16065847873687744,0.15681880712509155,-0.22018598020076752,-0.012743338942527771,-0.15200752019882202,-0.18788975477218628,-0.179507315158844,-0.06688126176595688,-0.3856733441352844,0.036352649331092834,0.07466012239456177,0.10252783447504044,0.07459449768066406,-0.059208109974861145,-0.11771971732378006,-0.26355668902397156,0.17105995118618011,-0.030215568840503693,-0.023768270388245583,-0.2686466574668884,-0.004223520401865244,-0.2530006170272827,-0.7498353123664856,-0.28225433826446533,-0.057991307228803635,0.009131979197263718,0.39969563484191895,-0.46076005697250366,0.21744570136070251,0.14877544343471527,0.020622309297323227,0.1543414294719696,0.015891481190919876,-0.12475697696208954,0.04268636927008629,0.5799949765205383,0.32588231563568115,-0.4072895050048828,0.2810574769973755,0.1510176658630371,-0.1644016057252884,-0.9069229364395142,-0.5244350433349609,0.025121796876192093,-0.0370473638176918,0.1246175616979599,0.04804302379488945,-0.15980643033981323,0.17904913425445557,0.39585745334625244,0.021442117169499397,-0.607154905796051,0.10313490033149719,-0.024823619052767754,-0.050098881125450134,0.02574774995446205,0.11640943586826324,-0.2648732364177704,0.1322914958000183,-0.38074514269828796,0.02327321469783783,-0.16537067294120789,0.14503607153892517,0.039177604019641876,-0.07017678767442703,0.17633254826068878,-0.19432862102985382,-0.4442770481109619,-0.018872806802392006,0.6786613464355469,-0.12581586837768555,0.025437990203499794,0.04550151526927948,-0.037071771919727325,-0.12338121980428696,0.29567331075668335,-0.16319438815116882,0.43093958497047424,-0.015458434820175171,0.17317551374435425,-0.15796484053134918,-0.0543576143682003,0.08444688469171524,-0.03161397948861122,0.054174311459064484,-0.18874838948249817,-0.3889442980289459,-0.27292680740356445,-0.009541268460452557,-0.0725274607539177,0.03767276182770729,0.06370270997285843,-0.1538589894771576,0.032941412180662155,-0.6624923944473267,0.05574684590101242,-0.02189660258591175,0.04464304447174072,-0.01766592264175415,-0.04271029308438301,-0.0015166731318458915,0.3004898726940155,0.0960208848118782,0.1897006332874298,0.05175592377781868,-0.05310586467385292,0.012408124282956123,0.9274500608444214,-0.8576443791389465,-0.2853015959262848,0.3762788772583008,-0.528698205947876,0.6722379326820374,0.013710122555494308,-0.2506665587425232,-1.1133882999420166,0.0143565833568573,-0.02913106232881546,0.11287561058998108,-0.045553598552942276,0.079426109790802,-0.04742534086108208,-0.06472790241241455,-0.02630774863064289,0.21412086486816406,0.11676354706287384,-0.12417047470808029,-0.1150580495595932,0.2990575432777405,-0.23574058711528778,0.2250903993844986,-0.03991064429283142,0.09131768345832825,0.1270056664943695,-0.21640723943710327,0.17618006467819214,-0.026004290208220482,0.061074648052453995,-0.1121576651930809,0.06441020965576172,0.07467441260814667,0.027655983343720436,-0.2742937207221985,-0.1611044853925705,0.18401089310646057,0.15368340909481049,-0.36266469955444336,0.33071228861808777,-0.29432734847068787,0.05187135189771652,-0.11115939915180206,-0.17044934630393982,0.2812052369117737,-0.2237372249364853,0.01232977770268917,0.01405352633446455,-0.037388402968645096,0.019470471888780594,0.020484380424022675,0.04631276801228523,-0.08819656819105148,-0.04326349496841431,0.06881655752658844,0.0321623794734478,-0.08382144570350647,0.19512978196144104,-0.716464638710022,0.017299167811870575,-0.04288910701870918,-0.037171926349401474,0.07222160696983337,-0.08547971397638321,-0.4358367323875427,0.013384434394538403,0.020001687109470367,0.12776868045330048,0.02484511211514473,-0.06450027227401733,0.021697837859392166,-1.5451902366146252e-38,-1.25434835813662e-38,1.9671687082407682e-38,-9.907488428438608e-39,2.6021439859248977e-39,-7.684460136842932e-39,1.063549521052003e-38,6.965623451912052e-39,1.5355717239554996e-38,-1.186414109235385e-38,7.321081024268078e-39,5.74260518471096e-39,-0.001395725761540234,-0.002921475563198328,-0.005290603265166283,-0.00865549873560667,-0.009974157437682152,-0.008701696991920471,-0.0047210026532411575,0.00039796470082364976,0.0019679779652506113,-0.0006484282785095274,-0.0045433929190039635,-0.007403533905744553,-0.009135116823017597,-0.009631951339542866,-0.010583123192191124,-0.007048957981169224,0.0026494208723306656,0.003642608877271414,0.004386476241052151,0.008499231189489365,0.010187766514718533,0.006091894581913948,0.0027208884712308645,0.0005258187302388251,-0.00588539894670248,-0.010103202424943447,-0.004437305498868227,0.004742066841572523,0.010211218148469925,0.01462872326374054,0.014208110980689526,0.00479239271953702,-0.0004454718146007508,-0.0029941247776150703,-0.007706522475928068,-0.01082701701670885,-0.008965658023953438,-0.002442010445520282,0.006440191529691219,0.014741450548171997,0.01994641311466694,0.02080497145652771,0.01582052931189537,0.007678356021642685,-0.0006691307644359767,-0.007904044352471828,-0.011138959787786007,-0.00735987164080143,0.05469023808836937,0.014687061309814453],"sample_rate":48000.0}},{"max_value":1.0,"model":{"version":"0.7.0","metadata":{"date":{"year":2026,"month":5,"day":15,"hour":18,"minute":45,"second":3},"loudness":-15.01630973815918,"gain":0.7871303641304492},"architecture":"WaveNet","config":{"layers":[{"input_size":1,"condition_size":1,"head":{"out_channels":1,"kernel_size":16,"bias":true},"channels":8,"kernel_sizes":[6,6,6,6,6,6,6,6,6,6,6,6,6,6,15,15,6,6,6,6,6,6,6],"dilations":[1,3,7,17,41,101,239,1,3,7,17,41,101,239,1,13,1,3,7,17,41,101,239],"activation":[{"type":"LeakyReLU","negative_slope":0.01},{"type":"LeakyReLU","negative_slope":0.01},{"type":"LeakyReLU","negative_slope":0.01},{"type":"LeakyReLU","negative_slope":0.01},{"type":"LeakyReLU","negative_slope":0.01},{"type":"LeakyReLU","negative_slope":0.01},{"type":"LeakyReLU","negative_slope":0.01},{"type":"LeakyReLU","negative_slope":0.01},{"type":"LeakyReLU","negative_slope":0.01},{"type":"LeakyReLU","negative_slope":0.01},{"type":"LeakyReLU","negative_slope":0.01},{"type":"LeakyReLU","negative_slope":0.01},{"type":"LeakyReLU","negative_slope":0.01},{"type":"LeakyReLU","negative_slope":0.01},{"type":"LeakyReLU","negative_slope":0.01},{"type":"LeakyReLU","negative_slope":0.01},{"type":"LeakyReLU","negative_slope":0.01},{"type":"LeakyReLU","negative_slope":0.01},{"type":"LeakyReLU","negative_slope":0.01},{"type":"LeakyReLU","negative_slope":0.01},{"type":"LeakyReLU","negative_slope":0.01},{"type":"LeakyReLU","negative_slope":0.01},{"type":"LeakyReLU","negative_slope":0.01}],"bottleneck":8,"head1x1":{"active":false,"out_channels":1,"groups":1},"layer1x1":{"active":true,"groups":1},"groups_input":1,"groups_input_mixin":1,"conv_pre_film":{"active":false,"shift":true,"groups":1},"conv_post_film":{"active":false,"shift":true,"groups":1},"input_mixin_pre_film":{"active":false,"shift":true,"groups":1},"input_mixin_post_film":{"active":false,"shift":true,"groups":1},"activation_pre_film":{"active":false,"shift":true,"groups":1},"activation_post_film":{"active":false,"shift":true,"groups":1},"layer1x1_post_film":{"active":false,"shift":true,"groups":1},"head1x1_post_film":{"active":false,"shift":true,"groups":1},"gating_mode":["none","none","none","none","none","none","none","none","none","none","none","none","none","none","none","none","none","none","none","none","none","none","none"],"secondary_activation":[null,null,null,null,null,null,null,null,null,null,null,null,null,null,null,null,null,null,null,null,null,null,null],"slimmable":null}],"head":null,"head_scale":0.014687061132506313},"weights":[2.4791626930236816,3.3887062072753906,-3.401806592941284,-2.629178524017334,-4.198694705963135,-3.55904221534729,3.6973087787628174,3.5384247303009033,0.06591121852397919,-0.09091043472290039,-0.3075413405895233,-0.33835870027542114,-0.3820399045944214,-0.4040343761444092,0.11951154470443726,-0.07805253565311432,-0.3770369589328766,-0.4085043668746948,-0.4717317223548889,-0.5091244578361511,-0.12350890785455704,0.07582800835371017,0.3852778673171997,0.41435033082962036,0.4852677583694458,0.5099295377731323,-0.0680939331650734,0.09569727629423141,0.3244868218898773,0.3522401452064514,0.4039459526538849,0.42492368817329407,-0.1987723857164383,0.05727832764387131,0.44661974906921387,0.45061132311820984,0.5320530533790588,0.5913475751876831,-0.13140536844730377,0.07260535657405853,0.39437487721443176,0.4285244345664978,0.4971633553504944,0.5126340389251709,0.1424214243888855,-0.05891447514295578,-0.394125759601593,-0.4342848062515259,-0.5010643601417542,-0.5179811120033264,0.1302640289068222,-0.06767001748085022,-0.38801702857017517,-0.43145614862442017,-0.4991617500782013,-0.5193694233894348,-0.014029587619006634,-0.14990241825580597,-0.0764322578907013,-0.0991196483373642,-0.12838536500930786,-0.05944651737809181,-0.03130931779742241,-0.1879386603832245,-0.10244651883840561,-0.13006021082401276,-0.13957548141479492,-0.08939849585294724,0.010875411331653595,0.20583879947662354,0.1236252635717392,0.13768069446086884,0.14622969925403595,0.05948420614004135,0.011097117327153683,0.17640092968940735,0.09327660501003265,0.12171334028244019,0.12335772812366486,0.054766349494457245,0.003607106627896428,0.26500028371810913,0.16244427859783173,0.16644419729709625,0.18007604777812958,0.07203561067581177,0.02463190257549286,0.22017009556293488,0.10253001004457474,0.1399044394493103,0.17488355934619904,0.08680081367492676,0.012635791674256325,-0.19009698927402496,-0.09925611317157745,-0.1895039677619934,-0.20190368592739105,-0.05297212302684784,0.017365150153636932,-0.2294383943080902,-0.1390233337879181,-0.1434364914894104,-0.14133210480213165,-0.07678354531526566,-0.17538326978683472,-0.028845038264989853,-0.04980488494038582,0.1703450232744217,0.2662700414657593,0.20064321160316467,-0.24238595366477966,-0.051211677491664886,-0.08014791458845139,0.23127703368663788,0.36598217487335205,0.27316805720329285,0.25203368067741394,0.04654531180858612,0.07640397548675537,-0.23199522495269775,-0.37071409821510315,-0.28018856048583984,0.18226537108421326,0.032218825072050095,0.05122912675142288,-0.18322740495204926,-0.281993567943573,-0.2104620337486267,0.3273129165172577,0.1021239385008812,0.1062648594379425,-0.25446632504463196,-0.44408100843429565,-0.319497674703598,0.2757253050804138,0.059660475701093674,0.09336636960506439,-0.2458234578371048,-0.37659087777137756,-0.2840111255645752,-0.27488842606544495,-0.05595597252249718,-0.09960422664880753,0.254911333322525,0.40647339820861816,0.29481756687164307,-0.2646714746952057,-0.06006662920117378,-0.07283592969179153,0.24922773241996765,0.38072606921195984,0.2876160442829132,0.08321511745452881,0.06551437824964523,-0.05118028447031975,-0.10919984430074692,-0.03605978935956955,-0.1088583916425705,0.11367552727460861,0.08588680624961853,-0.06417492032051086,-0.13613496720790863,-0.048358652740716934,-0.1497073620557785,-0.1306348741054535,-0.09520866721868515,0.07308612763881683,0.15060177445411682,0.04156455397605896,0.13758422434329987,-0.08387398719787598,-0.06417280435562134,0.05734032392501831,0.10861360281705856,0.0320858359336853,0.11859500408172607,-0.13680501282215118,-0.10472393035888672,0.06190524250268936,0.18570025265216827,0.07632183283567429,0.19083358347415924,-0.14031730592250824,-0.10136852413415909,0.0602116733789444,0.13775551319122314,0.05802625045180321,0.1615563929080963,0.1343057006597519,0.07995003461837769,-0.07424554228782654,-0.13444671034812927,-0.030543318018317223,-0.19059178233146667,0.12513095140457153,0.10119116306304932,-0.06855223327875137,-0.1360555738210678,-0.03784126788377762,-0.1839672476053238,0.2777343690395355,0.5417436957359314,0.6178353428840637,0.8982378244400024,0.9058235287666321,0.7717846035957336,0.2758815288543701,0.6793440580368042,0.7648412585258484,1.1042659282684326,1.143203854560852,0.9563344120979309,-0.32543984055519104,-0.6448073387145996,-0.7394309043884277,-1.0765115022659302,-1.117685079574585,-0.966641366481781,-0.2742641866207123,-0.5459831357002258,-0.6037356853485107,-0.9311743974685669,-0.9532858729362488,-0.7961193323135376,-0.2907547354698181,-0.7641624212265015,-0.7895001173019409,-1.249864101409912,-1.269178867340088,-1.0243613719940186,-0.31922489404678345,-0.702565610408783,-0.7542505264282227,-1.078235387802124,-1.150093913078308,-0.9727668762207031,0.30887314677238464,0.6596031785011292,0.7563980221748352,1.1735875606536865,1.1498008966445923,1.0078669786453247,0.29129090905189514,0.7071085572242737,0.7843208312988281,1.1422513723373413,1.1374719142913818,0.9732639789581299,-0.3719594180583954,-0.744655966758728,-0.839669406414032,-1.073935627937317,-1.163689374923706,-1.0150600671768188,-0.4497045576572418,-0.9456865191459656,-1.0559661388397217,-1.3944377899169922,-1.5093755722045898,-1.318969488143921,0.46174314618110657,0.9455158710479736,1.0791329145431519,1.4279299974441528,1.5356661081314087,1.3222399950027466,0.38952139019966125,0.7794927954673767,0.8704241514205933,1.1306283473968506,1.215543270111084,1.0623135566711426,0.49085062742233276,1.1101164817810059,1.244511604309082,1.674043893814087,1.8159921169281006,1.569729208946228,0.45866337418556213,0.9924125671386719,1.0996109247207642,1.4754213094711304,1.561392068862915,1.370835542678833,-0.4458230137825012,-1.016863226890564,-1.1561309099197388,-1.5082948207855225,-1.6206051111221313,-1.393846869468689,-0.46168771386146545,-0.9541091918945312,-1.1163749694824219,-1.4614249467849731,-1.5681800842285156,-1.3656995296478271,-0.021364862099289894,0.10778424888849258,0.10687201470136642,0.19664257764816284,0.2962423264980316,0.15481193363666534,-0.042497631162405014,0.11956548690795898,0.11806604266166687,0.2367887645959854,0.35403940081596375,0.18693552911281586,0.05163426697254181,-0.12313590198755264,-0.12240863591432571,-0.24785569310188293,-0.36009109020233154,-0.18296459317207336,0.021179934963583946,-0.10633523762226105,-0.11111335456371307,-0.20054057240486145,-0.2974744141101837,-0.1551932692527771,0.09049306809902191,-0.11041755974292755,-0.13292430341243744,-0.27963000535964966,-0.4178805351257324,-0.20151737332344055,0.05552048236131668,-0.12342405319213867,-0.119576096534729,-0.24137195944786072,-0.3645794689655304,-0.18169957399368286,-0.041909605264663696,0.12182045727968216,0.12540853023529053,0.2555798292160034,0.361850380897522,0.18541519343852997,-0.056592002511024475,0.11639338731765747,0.12251581251621246,0.2464934140443802,0.3565465807914734,0.17707835137844086,-0.09935905784368515,0.1602601706981659,0.12694911658763885,0.1998806595802307,0.13380040228366852,0.07461437582969666,-0.12284647673368454,0.20779970288276672,0.17845498025417328,0.25365614891052246,0.16271406412124634,0.082978256046772,0.12984377145767212,-0.21621611714363098,-0.17497053742408752,-0.25903400778770447,-0.16776476800441742,-0.08560217171907425,0.09937570244073868,-0.17124174535274506,-0.13623425364494324,-0.20762187242507935,-0.138764888048172,-0.07587233930826187,0.15464261174201965,-0.24921973049640656,-0.20300650596618652,-0.2908325493335724,-0.17208583652973175,-0.06158478185534477,0.13621817529201508,-0.22080250084400177,-0.17997069656848907,-0.2652788460254669,-0.17485906183719635,-0.0744524747133255,-0.14555959403514862,0.22334305942058563,0.1995869278907776,0.26418861746788025,0.16534042358398438,0.07357486337423325,-0.1337241530418396,0.2183523029088974,0.1872492879629135,0.27148357033729553,0.17349420487880707,0.07998605072498322,0.9850208759307861,1.2125085592269897,1.2027705907821655,-0.6610639691352844,-0.13824565708637238,0.19055750966072083,-0.5473336577415466,1.0758991241455078,-0.21497473120689392,-0.0521325059235096,0.08527585119009018,-0.06526811420917511,0.4219167232513428,-0.4717332124710083,0.09421016275882721,0.04589828848838806,0.11572310328483582,0.25692877173423767,-0.09048710763454437,-0.3511262834072113,0.14511196315288544,-0.11044519394636154,-0.3892613351345062,-0.21947064995765686,-0.30853861570358276,-0.21030209958553314,-0.6098564863204956,0.1622234582901001,0.1859719455242157,-0.10608736425638199,0.19413061439990997,-0.0015914889518171549,-0.14798027276992798,0.07621591538190842,-0.20748792588710785,0.5027927756309509,0.5880907773971558,-0.45530831813812256,0.677509605884552,0.1793280839920044,-0.17111197113990784,-0.36269447207450867,-0.04992436617612839,0.4683569073677063,0.4678075611591339,-0.30166783928871155,0.6616787314414978,0.058555055409669876,0.2753157317638397,0.16203100979328156,-0.07146482914686203,-0.38119688630104065,-0.26218950748443604,0.41452157497406006,-0.08084993809461594,0.4894499182701111,0.1233222708106041,0.2196638584136963,-0.3335179388523102,-0.06110129505395889,-1.131820797920227,0.829391360282898,-0.07719766348600388,-0.3262394368648529,-0.6189379096031189,0.0059214141219854355,0.3772343099117279,0.17963199317455292,0.8837693333625793,-0.532164990901947,0.909353494644165,0.2979012131690979,0.07439949363470078,0.4494839906692505,0.18066462874412537,-0.3514931797981262,-0.2250574380159378,0.28763115406036377,0.05837233364582062,-0.1303182691335678,0.814580500125885,-0.6222950220108032,-0.5042320489883423,-0.8655027747154236,0.5739717483520508,-0.602095365524292,0.31249189376831055,0.5853926539421082,0.04722194746136665,0.13109923899173737,0.09074708074331284,0.08405040204524994,0.26727041602134705,0.20589560270309448,-0.0770125687122345,0.04165369272232056,-0.09352921694517136,0.11180610209703445,-0.09201757609844208,-0.030568450689315796,-0.25398391485214233,-0.187815859913826,-0.2636268436908722,-0.2857171595096588,-0.110536128282547,0.13408228754997253,-0.11956626921892166,-0.08609864115715027,-0.11255466938018799,0.04592644050717354,-0.06261150538921356,0.11142615973949432,0.0004847235104534775,-0.009313046932220459,-0.033736683428287506,-0.035638030618429184,0.06375448405742645,0.09339265525341034,-0.07121673226356506,-0.004001907538622618,0.06524811685085297,-0.16067412495613098,-0.16132500767707825,-0.25092339515686035,-0.02190984971821308,-0.16054430603981018,-0.31938326358795166,0.034154895693063736,0.23425215482711792,0.22057689726352692,-0.11714890599250793,-0.009567609056830406,0.07583411782979965,0.07663369178771973,-0.020224953070282936,0.0410323366522789,-0.04341323673725128,-0.004772471264004707,-0.0026844136882573366,0.05874544382095337,0.05105825141072273,0.04611983150243759,0.10060958564281464,0.11928055435419083,0.0867563858628273,0.058407753705978394,0.029779408127069473,0.007889604195952415,0.03897019475698471,0.10055616497993469,0.0819879099726677,0.016145601868629456,-0.10459426045417786,-0.09232784062623978,0.07302682101726532,0.08181796967983246,-0.05678733438253403,-0.0756310299038887,-0.1363644003868103,-0.11593760550022125,0.05832621827721596,-0.10089696943759918,-0.06730402261018753,-0.012891434133052826,-0.07311558723449707,-0.03951491042971611,0.12159023433923721,0.10503477603197098,0.011770081706345081,-0.03915175050497055,-0.097354456782341,-0.27043232321739197,0.005983172450214624,0.05468420311808586,-0.027258172631263733,-0.059490133076906204,0.00044963840628042817,0.12105503678321838,0.07942633330821991,-0.03329232707619667,0.03562960401177406,0.12703004479408264,0.10795020312070847,0.04395259544253349,-0.0014266008511185646,-0.012905732728540897,-0.05037645995616913,-0.015219471417367458,0.08434997498989105,0.2479363977909088,0.03307756409049034,-0.05811530724167824,0.04122617468237877,-0.1965220868587494,-0.0019227976445108652,-0.05088628828525543,-0.18229547142982483,-0.08880757540464401,-0.18491080403327942,-0.06727326661348343,-0.007078631315380335,0.32109004259109497,0.0031407487113028765,-0.10523732006549835,-0.05391404405236244,0.030823785811662674,0.03460684046149254,0.26072612404823303,-0.009876586496829987,0.07602199167013168,0.09832797199487686,-0.014779428951442242,-0.12844491004943848,-0.04742858558893204,0.16579405963420868,0.13637812435626984,0.12805363535881042,0.10428402572870255,-0.11785431206226349,-0.5299416184425354,-0.10658715665340424,-0.012999460101127625,-0.33364132046699524,-0.14980056881904602,0.2547425925731659,0.38463521003723145,0.1383824199438095,0.02613641694188118,0.1478956937789917,0.0973629429936409,0.08895272761583328,-0.05351495370268822,0.10275054723024368,0.21983502805233002,0.16600854694843292,0.059448082000017166,0.31377190351486206,0.32345324754714966,-0.28822121024131775,-0.20154201984405518,-0.19470876455307007,-0.16155490279197693,0.06676311045885086,0.12574617564678192,-0.23824606835842133,-0.029918638989329338,-0.2670879662036896,-0.3258528411388397,-0.22037743031978607,0.2185671627521515,-0.13571180403232574,-0.108796626329422,-0.2599547803401947,-0.32553842663764954,-0.10963328182697296,0.3120432496070862,0.03721801936626434,0.19842810928821564,0.15142983198165894,0.18095551431179047,-0.12032205611467361,-0.2589327394962311,0.22778812050819397,0.2627241313457489,0.3009498119354248,0.03830943629145622,-0.45880353450775146,-0.8027381300926208,-0.17499567568302155,-0.2301689088344574,-0.435809463262558,0.06427706778049469,0.5472849011421204,0.6709792017936707,0.15552657842636108,0.04782017320394516,0.1895514279603958,0.21483741700649261,0.14264538884162903,0.007511710282415152,-0.0021493721287697554,-0.04892539232969284,-0.12256477773189545,-0.10835575312376022,-0.18199539184570312,-0.16318513453006744,0.06730344891548157,0.030615929514169693,0.009150169789791107,0.04744120314717293,-0.020741799846291542,-0.06742440164089203,0.04138781875371933,-0.0012808396713808179,0.04406113550066948,0.08781348913908005,0.02944394387304783,-0.053723372519016266,0.040293022990226746,0.010105197317898273,0.06055913120508194,0.10732006281614304,0.05080578476190567,-0.043257936835289,-0.03250810131430626,-0.03115982934832573,-0.037856440991163254,-0.06420613825321198,0.00217339931987226,0.024135375395417213,-0.003880932927131653,0.028324630111455917,-0.009042337536811829,-0.06252843141555786,0.03219294920563698,0.08803314715623856,-0.02175932563841343,-0.05618538707494736,-0.01348232850432396,0.0398479588329792,-0.06272604316473007,-0.14203646779060364,-0.03492902219295502,-0.00917166005820036,-0.04299170523881912,-0.07441975921392441,-0.04246000945568085,0.01875254698097706,0.0024048592895269394,0.0064963074401021,0.012037897482514381,0.023191379383206367,0.023270878940820694,-0.009653854183852673,0.05197915807366371,0.007387140765786171,0.06960706412792206,0.04403616115450859,0.05756688490509987,-0.012261960655450821,-0.024237677454948425,0.0007386031211353838,0.05835127830505371,-0.0003922237374354154,-0.0013107133563607931,-0.003366654273122549,0.04135102406144142,0.005412667989730835,0.07256258279085159,0.03326825797557831,0.046594470739364624,0.014324400573968887,-0.06641910970211029,-0.040657587349414825,-0.01892136223614216,-0.027422642335295677,-0.02147914655506611,0.045914530754089355,0.06375245749950409,0.026386624202132225,0.02545015886425972,0.046464283019304276,0.0016661902191117406,0.18261145055294037,-0.04559211805462837,-0.08763767778873444,-0.012950446456670761,-0.010855494067072868,-0.02865471877157688,-0.13710778951644897,-0.12077688425779343,-0.05700580030679703,-0.0742303729057312,-0.019785486161708832,-0.04271030053496361,-0.060772668570280075,0.22251111268997192,0.009973561391234398,0.21482610702514648,0.15285970270633698,0.15641388297080994,0.1435171514749527,-0.1234821006655693,-0.1950986683368683,-0.0004082937666680664,-0.10579435527324677,-0.1145939975976944,-0.09786169230937958,0.009236529469490051,-0.20250344276428223,0.1883772611618042,0.1548096239566803,-0.1619398444890976,-0.40648189187049866,-0.10588472336530685,-0.18854044377803802,0.015508288517594337,0.13191647827625275,-0.1005953922867775,-0.2311074584722519,-0.04959011822938919,0.0856226459145546,-0.08102387934923172,-0.004262425471097231,0.025266028940677643,0.051127076148986816,-0.33709952235221863,-0.20924250781536102,-0.4814565181732178,-0.09012288600206375,0.07623063027858734,0.48420777916908264,0.2191188484430313,0.2768249809741974,0.34004950523376465,0.020165594294667244,-0.33083850145339966,-0.5395868420600891,-0.1144283264875412,-0.006492330692708492,-0.04674004763364792,0.002112996531650424,-0.0680132806301117,0.19768260419368744,-0.3997219502925873,-0.3505289852619171,-0.34907475113868713,-0.42819109559059143,-0.4160507619380951,-0.3883720636367798,-0.009816301055252552,0.1774211823940277,-0.022842716425657272,0.04750264436006546,0.1796163022518158,0.3200124502182007,-0.09472425282001495,0.24315011501312256,0.027096806094050407,-0.01011266652494669,-0.047597046941518784,0.10857601463794708,0.002906860550865531,0.03920731693506241,-0.05566876009106636,-0.039643529802560806,0.3094131052494049,0.3614845871925354,0.007882618345320225,-0.0671105831861496,-0.046137191355228424,0.06580067425966263,0.028479427099227905,0.008184339851140976,0.25870993733406067,0.22609132528305054,0.19973903894424438,0.10597307235002518,-0.021469634026288986,-0.24759677052497864,-0.10158681869506836,-0.19402359426021576,-0.29295051097869873,-0.07319477945566177,0.270340234041214,0.30388185381889343,0.004612707067281008,-0.24222317337989807,-0.042912401258945465,-0.009707441553473473,-0.13673332333564758,-0.07928728312253952,0.28043609857559204,-0.022725772112607956,0.4955117702484131,0.4822157323360443,-0.05977693200111389,-0.01287863776087761,0.07953955978155136,-0.3809065520763397,0.10121288895606995,-0.014459637925028801,0.3405218720436096,0.05220576003193855,-0.0021011782810091972,-0.014493822120130062,-0.17249472439289093,0.0006598099716939032,-0.21631458401679993,0.09803766012191772,0.452192097902298,0.12073535472154617,-0.010348044335842133,0.12931641936302185,-0.02997880056500435,-0.23895953595638275,-0.004340002313256264,-0.27448317408561707,-0.01942058838903904,0.18736161291599274,0.0016845996724441648,0.012392652221024036,0.020641351118683815,0.27848172187805176,0.2781922221183777,-0.019747499376535416,0.47906479239463806,-0.07864154875278473,0.36102116107940674,-0.09936512261629105,-0.31741824746131897,-0.4557132124900818,-0.016489723697304726,-0.10759122669696808,0.15978217124938965,-0.14656765758991241,0.09306757897138596,0.08703971654176712,0.11412523686885834,0.4717200696468353,-0.2187819927930832,-0.2479633390903473,0.036219771951436996,-0.03663528710603714,-0.2441587895154953,0.05499657243490219,0.13814127445220947,0.21042387187480927,-0.19069597125053406,0.06215077266097069,-0.2779894769191742,0.019897568970918655,-0.043736059218645096,0.1059858426451683,0.13532651960849762,0.3684673309326172,-0.012943762354552746,-0.22763852775096893,0.06676937639713287,0.10933056473731995,0.11023254692554474,0.0834001824259758,-0.16715578734874725,-0.235101118683815,-0.08373619616031647,0.041174110025167465,-0.12031097710132599,-0.205322727560997,-0.33835527300834656,0.12319834530353546,0.10307145118713379,0.48932695388793945,0.3410656154155731,-0.24113571643829346,0.12756776809692383,-0.8225508332252502,0.4976215362548828,-0.4302169680595398,0.06790000945329666,-0.032445650547742844,0.031713441014289856,0.031106198206543922,0.10910307615995407,0.0930134579539299,0.02496516890823841,-0.08380400389432907,0.03123616985976696,-0.055594947189092636,-0.009755214676260948,-0.014680350199341774,-0.04212747514247894,-0.18377406895160675,0.1670781821012497,0.24416987597942352,0.15031082928180695,0.21933291852474213,0.1693335622549057,-0.3415374457836151,-0.06987801939249039,-0.18666185438632965,-0.15811267495155334,-0.17685720324516296,0.06283612549304962,-0.3829192519187927,0.13006985187530518,-0.013658273965120316,0.02980855666100979,0.12808386981487274,0.08648713678121567,0.34891262650489807,0.023527048528194427,-0.10643170028924942,-0.05146624520421028,-0.02881368063390255,-0.09016920626163483,0.2878485918045044,0.14719222486019135,0.18843507766723633,0.39525192975997925,0.2761484682559967,0.05471208319067955,-0.0769689679145813,0.008407176472246647,-0.13371753692626953,-0.06772898137569427,-0.02537725493311882,0.12948846817016602,0.21962139010429382,0.18724311888217926,0.23174886405467987,0.41726887226104736,0.2186543345451355,0.11192283779382706,-0.19065259397029877,-0.006029597017914057,-0.034030575305223465,-0.20005188882350922,-0.28009286522865295,-0.33037200570106506,-0.20895957946777344,0.0677935779094696,-0.026207491755485535,0.01268884725868702,-0.11471153050661087,0.006392146460711956,0.015854550525546074,-0.18175841867923737,-0.20693665742874146,-0.16841550171375275,-0.20046938955783844,-0.1449696123600006,0.016916899010539055,0.2937706708908081,0.1698554903268814,0.18889360129833221,0.14099957048892975,0.11118734627962112,0.2438429445028305,0.023830678313970566,0.05897340551018715,0.04443439096212387,-0.010379062034189701,-0.08691468089818954,-0.11268679052591324,0.07871051132678986,0.028715290129184723,-0.09751509130001068,0.06832360476255417,0.006927403621375561,0.33148035407066345,0.06761761009693146,0.0866164118051529,0.16940580308437347,0.06912694871425629,0.13497649133205414,0.2282249927520752,0.22900597751140594,0.05109184980392456,0.08831191062927246,0.07913144677877426,0.1468108892440796,-0.09227143973112106,-0.1447724848985672,-0.11033908277750015,-0.2584608495235443,-0.22710201144218445,-0.3451884090900421,-0.13190476596355438,-0.0848238542675972,-0.06564582884311676,-0.18408942222595215,-0.1458757221698761,-0.019643016159534454,0.4909934401512146,-0.14193300902843475,-0.1143568828701973,-0.2563353180885315,-0.0889085978269577,-0.2595646381378174,0.1267642378807068,0.1900133639574051,0.2168191820383072,0.2898072600364685,0.28477978706359863,0.14718380570411682,-0.13876760005950928,-0.08186674118041992,0.03339833766222,0.031909823417663574,0.14458605647087097,-0.007468722760677338,-0.3188433349132538,-0.01824520155787468,-0.030122151598334312,0.02648968994617462,-0.013345252722501755,-0.017210254445672035,0.31755784153938293,0.1946069896221161,0.1917976438999176,0.331239253282547,0.0340459868311882,-0.07977718114852905,-0.1871124505996704,0.21859663724899292,-0.04767405614256859,0.025270946323871613,-0.022195544093847275,0.07784131914377213,0.006905227433890104,0.05132430046796799,0.06823825091123581,0.08920591324567795,0.01706569641828537,0.034902721643447876,-0.1037820428609848,0.17047366499900818,0.10110371559858322,0.26308268308639526,0.050052907317876816,0.15968620777130127,-0.2941301465034485,-0.16001147031784058,-0.13982705771923065,-0.1891665905714035,-0.12580718100070953,-0.004258099943399429,-0.14305250346660614,-0.04491347819566727,0.12576451897621155,-0.07651559263467789,-0.0969034880399704,-0.022397518157958984,0.21782545745372772,0.15299375355243683,-0.14127011597156525,-0.08671816438436508,0.0025851503014564514,-0.0836866945028305,0.15050242841243744,0.02684435062110424,0.06187387928366661,0.22737804055213928,0.2565903961658478,0.0432741716504097,-0.3091382086277008,0.04334601014852524,0.011800194159150124,0.011087276972830296,-0.12171486020088196,0.06528085470199585,0.2464444786310196,0.07429336756467819,-0.13780196011066437,-0.1256183534860611,-0.11771319061517715,-0.22232629358768463,0.09846534579992294,0.026788320392370224,0.027493996545672417,0.055226463824510574,-0.06359096616506577,0.008458122611045837,0.5225823521614075,0.23278269171714783,0.3212216794490814,0.03057446889579296,0.0809478610754013,-0.043962229043245316,0.5242895483970642,-0.037504516541957855,0.05471661686897278,-0.061256635934114456,0.037863392382860184,0.15276364982128143,0.4772925078868866,-0.0710534080862999,0.03222624212503433,-0.0004377011500764638,-0.20298366248607635,-0.15687213838100433,-0.07346431910991669,0.21813181042671204,0.2175377458333969,0.14084909856319427,0.21488747000694275,0.1854586899280548,-0.09124629199504852,-0.05267374590039253,-0.17043238878250122,-0.17206402122974396,-0.11107761412858963,0.07550407201051712,0.18917450308799744,0.23095694184303284,0.10315485298633575,0.07884690910577774,-0.027401240542531013,0.09222777932882309,-0.1905859261751175,0.08015970885753632,0.003644455224275589,-0.011722478084266186,0.14735370874404907,0.18073977530002594,0.19498921930789948,-0.02577981911599636,-0.05841054022312164,-0.19125832617282867,0.06036507710814476,0.035742416977882385,-0.020765425637364388,-0.14873145520687103,-0.09504427015781403,0.19006560742855072,0.12309424579143524,-0.17287294566631317,-0.4045551121234894,-0.01818224973976612,-0.05932235345244408,0.023026200011372566,-0.14556126296520233,0.020719213411211967,-0.46112141013145447,0.2205815613269806,0.19494880735874176,0.20916441082954407,0.1393558531999588,0.1909749060869217,0.13426433503627777,-0.27277153730392456,-0.17443476617336273,-0.28775298595428467,-0.13073031604290009,-0.0990462601184845,0.03093104623258114,0.08850321173667908,0.17012307047843933,0.21339324116706848,0.16071568429470062,0.20466914772987366,-0.06760302931070328,-0.061156775802373886,0.019452914595603943,0.08951552957296371,0.10479801148176193,0.15187259018421173,-0.10779452323913574,-0.12337968498468399,-0.10232928395271301,-0.16128474473953247,-0.19672773778438568,-0.04943041503429413,-0.5190916061401367,-0.1041424497961998,-0.13694867491722107,0.09880837053060532,0.11281831562519073,0.15803590416908264,0.08171314746141434,0.05553537607192993,0.1426921933889389,0.34749269485473633,0.27315035462379456,0.1476963460445404,-0.4221349358558655,0.2142549753189087,0.26078251004219055,0.30287039279937744,0.4175545573234558,0.10807619988918304,0.3428400754928589,-0.038670677691698074,-0.195025235414505,-0.3740285634994507,-0.2904375493526459,-0.22419092059135437,0.24376456439495087,0.04957060143351555,0.15805093944072723,0.22329527139663696,0.22821220755577087,0.1706182360649109,0.7353535890579224,0.11725520342588425,0.21779845654964447,0.23602662980556488,0.0812440887093544,0.05281570926308632,-0.26566213369369507,-0.0794389620423317,-0.06738083064556122,0.0557565838098526,0.051490768790245056,-0.0847906693816185,0.3149282932281494,0.1873762309551239,0.16886377334594727,0.054302822798490524,0.17163430154323578,0.14691045880317688,-0.1018940880894661,-0.010865729302167892,-0.12225653976202011,-0.07532206922769547,-0.1361548751592636,-0.1438215970993042,-0.05002892017364502,0.25194990634918213,0.16582609713077545,0.1389147937297821,0.08325362950563431,0.3678150177001953,0.17633403837680817,0.0697535052895546,-0.13638634979724884,-0.15659838914871216,-0.13225935399532318,-0.016802329570055008,-0.18596792221069336,0.029894866049289703,0.2584276497364044,0.12098764628171921,0.026432642713189125,-0.04969451576471329,-0.0420941598713398,0.184051051735878,0.046394795179367065,0.00961366668343544,-0.08739744871854782,-0.281925767660141,0.13681989908218384,-0.08923237025737762,-0.027897365391254425,-0.1711241751909256,-0.015476448461413383,0.15323087573051453,-0.07197797298431396,0.1558677703142166,-0.15659180283546448,-0.04272941127419472,0.077873095870018,-0.050099823623895645,0.22254283726215363,0.03062228485941887,0.19278019666671753,0.2389916628599167,-0.0994470939040184,-0.28488385677337646,0.22132307291030884,-0.4896766245365143,0.18055789172649384,-0.2024770826101303,0.03918779268860817,0.1237356960773468,-0.09355315566062927,-0.014676811173558235,-0.0532112754881382,0.0004015607701148838,0.02995503693819046,0.05410914868116379,-0.18866562843322754,0.10565122216939926,-0.06609005481004715,0.0863000899553299,-0.18039554357528687,0.3673194348812103,0.07295922189950943,0.043348222970962524,0.07320323586463928,0.08376891911029816,-0.06890249252319336,-0.5353135466575623,-0.0855272188782692,0.1770002841949463,0.15604308247566223,-0.3662087619304657,0.21227285265922546,0.2320985496044159,-0.22577781975269318,-0.18440711498260498,0.004641718231141567,0.5435073375701904,-0.32234230637550354,0.19759760797023773,0.19987261295318604,0.029149360954761505,0.29094749689102173,-0.3025940954685211,-0.1571260690689087,0.1372808814048767,0.19454674422740936,-0.0311456099152565,-0.29384228587150574,0.05589575320482254,0.2047542929649353,0.2622021436691284,0.12443330138921738,-0.36085978150367737,0.1322542428970337,0.21723832190036774,-0.26845118403434753,-0.3114709258079529,0.24731087684631348,0.7669476866722107,0.2723209261894226,-0.6804441213607788,-0.09380702674388885,-0.2564006447792053,0.2638646066188812,0.23404768109321594,-0.26249775290489197,-0.7899537086486816,-0.1786688268184662,0.6183212399482727,0.3122548460960388,0.11083180457353592,-0.09508804231882095,0.02026240900158882,-0.08297719806432724,0.2621704041957855,0.19196803867816925,-0.29181474447250366,-0.17526164650917053,-0.18340061604976654,0.20796555280685425,0.11054010689258575,0.051264069974422455,-0.3477741479873657,0.06651732325553894,0.1845937967300415,0.16094809770584106,0.002794212894514203,0.047967758029699326,-0.026921138167381287,0.041229475289583206,-0.19829291105270386,-0.26748669147491455,0.09393288940191269,0.07919289171695709,-0.028985371813178062,-0.028090614825487137,0.1384412944316864,-0.1278422325849533,-0.03538862615823746,-0.05341672524809837,0.06242641806602478,-0.09147725254297256,-0.1289692521095276,0.12863661348819733,-0.019698485732078552,-0.0752640962600708,-0.09859827905893326,-0.13433650135993958,-0.15388835966587067,-0.25939247012138367,0.02170257829129696,0.00894864834845066,0.05062909796833992,0.10054884850978851,0.07777945697307587,0.08489301055669785,-0.0015578361926600337,-0.050857994705438614,-0.037867605686187744,-0.1747363656759262,-0.2506089210510254,-0.0404084250330925,0.05800976604223251,0.0006957303266972303,-0.08181655406951904,0.07348034530878067,0.3558996617794037,-0.05828247219324112,0.10441235452890396,0.017333080992102623,-0.0865054726600647,-0.010483190417289734,-0.027249934151768684,0.19863219559192657,-0.04059671238064766,-0.04130180925130844,0.033924002200365067,0.07255151867866516,0.17494834959506989,-0.18532100319862366,-0.016496120020747185,0.005410715937614441,0.03304101154208183,-0.027558933943510056,0.1647735983133316,-0.028767453506588936,0.058402251452207565,0.045111313462257385,-0.05355999618768692,-0.052259646356105804,-0.10284722596406937,-0.22050940990447998,0.021151844412088394,-0.023657284677028656,-0.049705229699611664,-0.04005998745560646,0.09677213430404663,-0.3667042851448059,0.03328200429677963,0.14947165548801422,0.10437499731779099,0.0951288565993309,-0.03953276202082634,0.2239631712436676,0.012455128133296967,0.0008972814539447427,-0.11619014292955399,-0.03640704229474068,-0.08200881630182266,-0.0067049190402030945,-0.05025365948677063,-0.0014893542975187302,0.006563249044120312,0.17736296355724335,0.18866315484046936,-0.04069145396351814,-0.09410728514194489,-0.11293987184762955,-0.04368105158209801,-0.06947336345911026,-0.0811854898929596,0.07445302605628967,0.02571341022849083,0.037834253162145615,-0.07265361398458481,0.044056881219148636,0.17828819155693054,-0.027455169707536697,-0.022771121934056282,-0.02210700511932373,0.00024244263477157801,0.06679282337427139,-0.057579413056373596,0.2791098654270172,-0.044194165617227554,-0.025596119463443756,0.03655572235584259,-0.10220110416412354,-0.18684279918670654,-0.1744171380996704,-0.030373897403478622,-0.03407793492078781,0.04641405865550041,-0.003262154059484601,0.06384067982435226,-0.03718411922454834,0.03164327144622803,-0.07500898092985153,0.058266591280698776,-0.0385291613638401,0.21052120625972748,0.15103985369205475,-0.06614328920841217,-0.04486686736345291,-0.14011144638061523,-0.14406833052635193,-0.11154071986675262,0.07470282912254333,0.010276762768626213,-0.03382300212979317,-0.08966336399316788,-0.01995110511779785,0.18801292777061462,-0.08380705118179321,0.057144876569509506,-0.09485764801502228,-0.08745166659355164,-0.07777393609285355,0.09050164371728897,0.06464952230453491,-0.016785655170679092,0.0820581391453743,-0.09632367640733719,-0.08258253335952759,-0.18391022086143494,-0.30082982778549194,-0.0764046236872673,0.07961661368608475,-0.00800399761646986,0.10314349830150604,-0.0730057805776596,-0.16439184546470642,-0.06345872581005096,-0.06937085092067719,0.023905819281935692,0.08080153167247772,0.17448291182518005,0.4429521858692169,-0.023154379799962044,-0.16044247150421143,-0.043688878417015076,-0.12959688901901245,-0.2894693613052368,-0.23854736983776093,0.10764797776937485,0.07201401144266129,0.04321552813053131,-0.04746879264712334,-0.07240945845842361,-0.22199802100658417,-0.2059430032968521,-0.13317838311195374,-0.09790080785751343,0.022533027455210686,0.13578134775161743,0.034756045788526535,-0.03620798513293266,-0.03522472083568573,-0.05260583013296127,-0.019327538087964058,-0.060005396604537964,0.29928672313690186,0.08175773173570633,0.060651931911706924,0.0739525780081749,0.12396585196256638,0.18168646097183228,0.06599626690149307,0.07048416882753372,0.022560715675354004,0.03331534564495087,0.027096325531601906,0.06737660616636276,-0.1290120929479599,-0.033170659095048904,0.06465969234704971,0.08290334045886993,0.07020267099142075,0.08103501796722412,0.08832303434610367,0.00474123377352953,-0.0010750913061201572,-0.06609237939119339,-0.08458735793828964,0.02566906437277794,-0.1996167004108429,-0.04879480227828026,-0.03139197826385498,-0.10686878114938736,-0.07240144163370132,0.0459647998213768,-0.017338337376713753,-0.06782551854848862,0.036172833293676376,-0.021353714168071747,-0.07936035841703415,-0.19562970101833344,0.10319866240024567,0.050024230033159256,0.052585769444704056,-0.010348350740969181,-0.14076922833919525,-0.2652512192726135,0.015195979736745358,0.011474981904029846,0.023728452622890472,-0.026757946237921715,0.00682450644671917,0.1759849488735199,-0.3900308907032013,0.0030183354392647743,0.012694298289716244,-0.0029981813859194517,0.14981608092784882,-0.04714558273553848,0.09612435847520828,-0.005143993068486452,-0.03705315664410591,-0.0032439129427075386,0.041469134390354156,0.008114654570817947,-0.22548198699951172,0.0741589143872261,0.09495250135660172,0.10062170028686523,0.09200839698314667,-0.007494896184653044,0.25638866424560547,0.044464558362960815,0.007322770543396473,-0.008814157918095589,-0.13754117488861084,-0.02392018586397171,-0.2882826030254364,-0.029912445694208145,-0.010446462780237198,-0.0445183627307415,-0.05731772258877754,0.10402016341686249,-0.06252682954072952,0.0012187730753794312,-0.11003513634204865,-0.16261716187000275,-0.10022043436765671,0.012704579159617424,0.06936032325029373,0.0981234461069107,0.07366885244846344,-0.050296179950237274,-0.10588549077510834,-0.19926200807094574,0.03665996342897415,-0.017525726929306984,-0.022321229800581932,-0.06385635584592819,0.050534721463918686,0.09581989049911499,-0.08928415924310684,-0.1202145591378212,-0.05431261286139488,0.05227901041507721,0.1354421228170395,-0.003650879254564643,0.15036992728710175,0.0010940019274130464,-0.02675747126340866,-0.01143577415496111,-0.0947105884552002,0.03484354913234711,-0.35059884190559387,0.016637500375509262,-0.07976434379816055,0.005491397809237242,-0.14398503303527832,-0.10504641383886337,0.17853973805904388,0.0024202142376452684,0.04011564329266548,0.019791075959801674,0.03661901876330376,2.9092348995618522e-05,-0.19014747440814972,-0.021322060376405716,0.06444419920444489,0.020060278475284576,0.18891818821430206,0.28579267859458923,0.205540269613266,0.04945280775427818,0.05511260777711868,0.05738687515258789,0.026608752086758614,0.16271336376667023,0.03702492266893387,0.02427622117102146,-0.004868830554187298,-0.08140444755554199,-0.1634284406900406,-0.17599767446517944,-0.3064501881599426,0.016891898587346077,0.011345402337610722,-0.04572910815477371,-0.032148879021406174,0.10691007226705551,0.3507682681083679,0.022402625530958176,0.023050112649798393,0.09583944082260132,0.14165163040161133,0.21659976243972778,0.19718292355537415,-0.032401155680418015,0.1010151132941246,0.0781325101852417,0.042856406420469284,0.1092551052570343,-0.38951975107192993,0.04070692136883736,0.19501027464866638,0.14125539362430573,0.05522795394062996,0.027354713529348373,0.004333411809056997,0.036513496190309525,0.05248842388391495,0.09732621908187866,0.18719850480556488,-0.012067655101418495,-0.11126408725976944,-0.05864892899990082,-0.12694323062896729,-0.009988811798393726,-0.15444016456604004,-0.016017315909266472,-0.133401557803154,0.03393661975860596,-0.15668702125549316,0.025265149772167206,-0.03675929829478264,-0.08208326250314713,0.04021165892481804,-0.020709481090307236,0.05370097607374191,-0.06780730932950974,-0.21202482283115387,-0.19385926425457,0.1392335593700409,-0.07184489816427231,0.049978192895650864,0.14028315246105194,0.04728884622454643,0.06503553688526154,-0.2985198199748993,-0.11640793830156326,0.08261534571647644,0.1416807621717453,0.09352146834135056,0.059803225100040436,0.3139016628265381,0.25691360235214233,0.35422682762145996,0.12425351142883301,0.07796546071767807,0.054311543703079224,0.023244395852088928,0.1031699851155281,0.010361665859818459,-0.05405353754758835,-0.08226468414068222,-0.030588854104280472,0.049155574291944504,-0.0011073786299675703,-0.0138328168541193,-0.025025809183716774,0.01274598203599453,-0.34779423475265503,-0.3309951722621918,-0.08661442995071411,0.1649075448513031,0.2144576907157898,0.14567352831363678,0.19721873104572296,0.05789266154170036,0.0999627411365509,-0.08471785485744476,-0.3246738314628601,-0.0778476670384407,-0.09611242264509201,-0.1887385994195938,-0.021678313612937927,-0.07606662809848785,-0.0939784124493599,0.08285169303417206,0.2412092387676239,0.15718425810337067,0.20796765387058258,-0.03130212798714638,-0.08112195879220963,-0.25296953320503235,0.14024369418621063,0.43276238441467285,-0.15835656225681305,-0.11044952273368835,-0.09714219719171524,-0.09424536675214767,-0.2646576166152954,0.07129331678152084,-0.2889260947704315,-0.20828281342983246,-0.08756913244724274,0.12949039041996002,-0.02808689884841442,0.03105124644935131,0.14362573623657227,-0.0903211161494255,0.25439149141311646,0.01901162415742874,0.3172532021999359,-0.013851838186383247,0.2903803884983063,0.21338477730751038,0.3005792796611786,0.34225741028785706,-0.09324601292610168,-0.15875381231307983,-0.19124574959278107,0.4027656018733978,-0.010912069119513035,-0.1996684968471527,-0.5460250377655029,0.25543224811553955,-0.10026619583368301,0.18102113902568817,0.14641925692558289,-0.17522960901260376,-0.2792421877384186,0.026259247213602066,-0.03184540569782257,-0.32597246766090393,0.06770644336938858,0.3227149248123169,0.2432144731283188,-0.05199200659990311,0.08865530043840408,-0.3014495372772217,0.17145593464374542,-0.0354979932308197,-0.03432300314307213,-0.09588760137557983,-0.06558826565742493,0.07724770903587341,-0.1327538639307022,-0.07719645649194717,-0.04080522805452347,0.05329899862408638,0.0230620838701725,-0.11530554294586182,0.0009156474843621254,0.14804799854755402,-0.05147905275225639,-0.07052484154701233,0.025727640837430954,-0.12892386317253113,-0.0983426496386528,-0.12479297816753387,-0.048760443925857544,-0.013357440009713173,0.017811700701713562,-0.0723237618803978,0.02215142548084259,-0.004795385058969259,-0.02207350544631481,0.07337375730276108,-0.04322143271565437,-0.1241837665438652,-0.08022203296422958,-0.12097618728876114,-0.03641156107187271,-0.04467374086380005,-0.02041538991034031,-0.0630350261926651,-0.0901118814945221,-0.2029232382774353,0.01909637451171875,0.024701504036784172,-0.047567784786224365,0.06191647797822952,0.049911219626665115,-0.3067574203014374,-0.005644557997584343,0.0412968248128891,0.05013836547732353,0.1430693119764328,0.01861201971769333,0.057813309133052826,0.01599075272679329,-0.008415631018579006,-0.008311465382575989,-0.028856493532657623,-0.049669183790683746,0.04650748893618584,0.009700296446681023,-0.003476783400401473,0.059660594910383224,0.0958985835313797,0.015472499653697014,0.0845840573310852,-0.027816157788038254,0.0029674572870135307,-0.013169827871024609,0.018121957778930664,0.029685502871870995,0.13959930837154388,-0.00102032080758363,0.04423724114894867,0.023180097341537476,-7.255300442920998e-05,0.05354035273194313,-0.37353789806365967,-0.045490145683288574,-0.058899909257888794,-0.024538908153772354,-0.006921557243913412,0.07663413137197495,0.10609420388936996,-0.012973985634744167,-0.010444010607898235,0.022431261837482452,0.05699633061885834,0.025059832260012627,-0.011665825732052326,-0.004470214247703552,0.010087188333272934,0.03379255160689354,0.0397915281355381,-0.014553448185324669,0.011379135772585869,0.02872665412724018,0.05981537699699402,0.04607579484581947,0.09787126630544662,0.10855871438980103,-0.16537556052207947,-0.0022830336820334196,-0.021772734820842743,-0.044138744473457336,-0.0020382320508360863,-0.08898503333330154,0.03310472145676613,0.014998319558799267,-0.025442488491535187,0.04240424185991287,-0.003149330150336027,0.021619273349642754,0.2718307673931122,-0.02196429669857025,-0.0031857581343501806,0.035230666399002075,0.029875125735998154,0.08822748064994812,-0.3926279544830322,-0.007954047992825508,0.040732819586992264,0.0305021945387125,0.004140157252550125,0.19184334576129913,-0.0736357793211937,-0.03191794455051422,0.031396035104990005,0.017963416874408722,0.059906572103500366,0.0060297478921711445,-0.15580131113529205,-0.007962980307638645,0.004067365080118179,0.03976915776729584,0.05412084609270096,-0.01758224330842495,0.11089147627353668,-0.007824643515050411,0.04671323299407959,0.025572290644049644,0.07582292705774307,0.0058101145550608635,0.05968508496880531,-0.011159011162817478,0.05869616940617561,0.002339581958949566,0.07677070051431656,-0.06342621147632599,-0.1712713986635208,-0.035092294216156006,-0.019509606063365936,-0.00666887266561389,-0.04535793513059616,0.039508555084466934,-0.3364664912223816,0.019542856141924858,-0.004230604972690344,-0.03457724675536156,-0.06715922802686691,0.10496333241462708,-0.010655098594725132,-0.002720202784985304,0.009571821428835392,-0.004592034500092268,0.04471176490187645,0.11608773469924927,-0.12912088632583618,-0.01677960343658924,-0.017823128029704094,-0.0005750624695792794,0.00757199339568615,0.08805900067090988,0.14464782178401947,0.022292183712124825,0.05409703403711319,0.07442279905080795,0.12894348800182343,0.0012697725323960185,-0.029888395220041275,0.006439603865146637,0.014821762219071388,0.013732941821217537,0.0012116451980546117,-0.027716344222426414,-0.0455324649810791,0.011225095018744469,0.016346832737326622,0.057015348225831985,0.02427486702799797,0.007096386514604092,-0.045581717044115067,-0.025893637910485268,-0.014248714782297611,0.012019513174891472,-0.060207463800907135,-0.12305116653442383,-0.013956531882286072,-0.0035649610217660666,-0.03542856127023697,0.01771298609673977,0.013774733990430832,-0.018216494470834732,-0.13043485581874847,0.0227456446737051,0.033545661717653275,0.03518155217170715,0.015255668200552464,0.08024417608976364,-0.012712866999208927,0.00659655686467886,0.0019232119666412473,-0.012318477965891361,-0.010714375413954258,0.06304183602333069,-0.26732680201530457,0.0069096884690225124,-0.008820580318570137,-0.014086062088608742,0.05489140748977661,0.04090242460370064,0.3796990215778351,-0.028815753757953644,0.017522213980555534,-0.03457361087203026,-0.06560865044593811,-0.09604650735855103,0.023093007504940033,0.05855970457196236,0.006638096179813147,0.015193423256278038,-0.022883234545588493,0.0014676469145342708,0.11679857224225998,0.07969135791063309,-0.00025412251125089824,0.024339227005839348,-0.005969665013253689,0.0472746342420578,-0.09000782668590546,0.02288621850311756,0.0063040293753147125,0.06808944791555405,0.016094131395220757,-0.12715785205364227,-0.004711093381047249,0.01085890643298626,-0.03106839209794998,-0.03469891473650932,-0.013469284400343895,0.088735431432724,-0.2581462860107422,-0.0459817610681057,-0.06811834871768951,0.08504532277584076,-0.017369363456964493,-0.03967268019914627,0.13450826704502106,-0.03980031982064247,0.0008497407543472946,-0.010708220303058624,-0.06458483636379242,-0.16727259755134583,0.3599562644958496,-0.02341085858643055,0.030980870127677917,0.036183685064315796,0.021244226023554802,-0.14178115129470825,-0.14357919991016388,-0.02588815614581108,-0.009636927396059036,-0.012750671245157719,-0.06121358275413513,0.021842509508132935,-0.044481419026851654,-0.055699512362480164,-0.07028526812791824,-0.021972693502902985,-0.07468017935752869,0.008179805241525173,-0.08714699000120163,-0.057073719799518585,-0.051880866289138794,-0.028010698035359383,-0.0443652868270874,-0.06322793662548065,0.16656075417995453,-0.012130921706557274,-0.014082119800150394,0.006079537328332663,0.0027476151008158922,0.27534306049346924,0.15828655660152435,-0.006647846661508083,-0.014032870531082153,0.006500191520899534,-0.006323208566755056,0.14855919778347015,-0.27699515223503113,0.022194191813468933,-0.039897993206977844,-0.05470605939626694,-0.059355057775974274,-0.26249754428863525,0.12029501050710678,0.005924701225012541,0.01685807667672634,-0.0017586249159649014,0.011914846487343311,-0.06686251610517502,0.1101246029138565,0.01610897295176983,0.003068888559937477,-0.008120078593492508,-0.004490239545702934,-0.15996308624744415,0.12772856652736664,0.0249724630266428,0.06440392136573792,0.03442211449146271,0.07323087006807327,0.13223578035831451,0.14042532444000244,0.024034269154071808,0.0003834209928754717,-0.011905381456017494,-0.0010744855972006917,0.08668553829193115,-0.14715689420700073,0.020437516272068024,0.008332275785505772,0.001302192802540958,0.014090653508901596,0.05939865484833717,-0.16084198653697968,-0.029339810833334923,-0.021841077134013176,-0.031622372567653656,-0.05164549499750137,0.1515609472990036,0.15977749228477478,-0.0380600169301033,-0.0200294628739357,-0.0007677889661863446,0.05212821438908577,-0.06957828253507614,0.06884285807609558,-0.08758372813463211,-0.06744545698165894,-0.030928991734981537,-0.1314508020877838,-0.039680905640125275,-0.19901466369628906,0.034664448350667953,0.05315977707505226,0.03555763140320778,-0.013915576972067356,0.06902844458818436,0.49713510274887085,0.05518636107444763,0.007258266676217318,0.009882839396595955,-0.07232502102851868,0.0202285498380661,0.47085729241371155,0.1168346107006073,0.15284469723701477,0.08545150607824326,0.10425342619419098,0.270340234041214,0.44114524126052856,-0.027274811640381813,0.065297432243824,0.08517411351203918,0.054422538727521896,0.02207861840724945,-0.28067949414253235,-0.010031230747699738,0.09972511976957321,0.12096724659204483,0.1344945877790451,0.06251920014619827,-0.3918374180793762,-0.09143585711717606,-0.13754518330097198,-0.021315375342965126,-0.06752189248800278,-0.3058588206768036,0.183088019490242,0.22482579946517944,0.05930059403181076,0.09400217235088348,0.07642274349927902,-0.07030501961708069,0.23305070400238037,0.2984465956687927,0.18880964815616608,-0.011438625864684582,0.012065211310982704,0.0008343212539330125,-0.0034352117218077183,0.031903114169836044,-0.01448811125010252,0.04912806674838066,0.042943693697452545,-0.10572721064090729,-0.1342453956604004,-0.039647575467824936,0.15430006384849548,0.05777832493185997,-0.10044018179178238,0.23019392788410187,-0.04442444443702698,-0.008708786219358444,0.033607397228479385,-0.3855319321155548,-0.009822433814406395,-0.13772568106651306,0.08826492726802826,0.1129903495311737,-0.01146127749234438,0.07866349071264267,0.04521607980132103,-0.025886813178658485,-0.22261901199817657,0.09265706688165665,-0.0325668528676033,0.1379801332950592,-0.4238463342189789,0.23150868713855743,0.19497284293174744,0.06030568853020668,0.08518218994140625,-0.1731775403022766,-0.09259804338216782,-0.24175946414470673,-0.32529863715171814,0.4337547719478607,-0.024702871218323708,0.12812742590904236,-0.09146728366613388,-0.36833593249320984,0.21868136525154114,-0.18761074542999268,-0.15495160222053528,0.2593478560447693,-0.2959133982658386,-0.10483810305595398,0.25467586517333984,0.10137271881103516,-0.1514846533536911,-0.0702359527349472,0.38098299503326416,0.1459043323993683,0.3159925937652588,0.029710745438933372,-0.1478280872106552,-0.11594520509243011,0.013370626606047153,-0.022627633064985275,0.11425989866256714,0.13426573574543,0.2484080046415329,0.19684834778308868,-0.008370517753064632,-0.20861154794692993,-0.10573170334100723,-0.2684059739112854,-0.11864486336708069,0.014108791947364807,0.1916719675064087,0.034153521060943604,-0.035633914172649384,0.1319284439086914,0.12368600070476532,-0.0688912570476532,0.24639713764190674,-0.011567672714591026,-0.00032675248803570867,-0.018826458603143692,-0.009286918677389622,-0.016639139503240585,0.14176806807518005,-0.014056493528187275,-0.05088009312748909,-0.008247308433055878,-0.009860615245997906,0.007480570115149021,0.08294356614351273,0.050847895443439484,0.04820839688181877,0.024243876338005066,0.058451101183891296,0.02390175312757492,0.3327607810497284,0.08242379128932953,0.04038581624627113,0.03506408631801605,0.1116601750254631,0.03950297832489014,-0.020613525062799454,0.035110846161842346,0.01898709312081337,0.04448247700929642,0.045086756348609924,0.127008855342865,0.04254119470715523,-0.009634760208427906,-0.042210888117551804,-0.0300727691501379,-0.05819063261151314,0.00594144593924284,0.002020174404606223,-0.015244762413203716,-0.05813915655016899,-0.05970941111445427,-0.06284333765506744,-0.023999908939003944,0.08121351897716522,0.05469927191734314,0.0010726788314059377,-0.019586602225899696,0.10231554508209229,0.11137709766626358,0.14250710606575012,-0.11102312803268433,-0.048394616693258286,-0.1448773443698883,-0.0717451199889183,-0.0494612418115139,-0.08804083615541458,0.012992331758141518,-0.0212558563798666,0.08348634839057922,0.10895945876836777,0.07457588613033295,-0.08869480341672897,0.10155217349529266,-0.017791837453842163,0.060872528702020645,0.026858415454626083,0.022296367213129997,0.07311402261257172,0.05883154273033142,0.05940205603837967,0.0661793127655983,0.044669315218925476,0.10039595514535904,0.1743958443403244,-0.05269869044423103,0.019371304661035538,0.042209118604660034,0.08363141864538193,0.017076263204216957,-0.04554350674152374,0.05492671579122543,-0.003133974736556411,0.06578431278467178,0.024871623143553734,0.0345391184091568,-0.035863246768713,0.060800451785326004,0.07240144163370132,0.06929460912942886,-0.043769773095846176,0.08190666139125824,-0.012766685336828232,0.12585505843162537,0.047094911336898804,0.019112393260002136,0.005816930904984474,0.24904771149158478,0.14002704620361328,0.004977640230208635,-0.002955380128696561,-0.0052635641768574715,0.004637065809220076,0.004695834591984749,-0.11878180503845215,-0.014476628974080086,-0.002787356497719884,-0.010454786941409111,-0.00031798306736163795,-0.022545622661709785,1.0041086673736572,-0.0016016056761145592,0.0032910548616200686,0.01037725992500782,0.0005794427124783397,0.005317098461091518,-0.14061862230300903,-0.012135782279074192,-0.001002646517008543,0.01315224263817072,-0.014276837930083275,0.0036998242139816284,0.18129673600196838,-0.0028134663589298725,0.003719629952684045,0.0040404535830020905,-0.010843074880540371,-0.00245971092954278,0.052693214267492294,-0.005515627097338438,-0.005678244866430759,0.001590063446201384,-0.0182085819542408,-0.014896553941071033,0.16769731044769287,-0.00305421045050025,-0.01199082750827074,0.00938279926776886,-0.038015518337488174,-0.014057462103664875,0.36396825313568115,-0.014930294826626778,-0.007788132876157761,0.016468998044729233,-0.017676128074526787,0.010457239113748074,-0.15330614149570465,0.027878321707248688,0.032604385167360306,0.01210230216383934,0.09175790846347809,0.0896630585193634,0.08905363082885742,0.01946735568344593,0.0338745079934597,0.04695851355791092,0.03591248393058777,0.01647203601896763,-0.189022496342659,-0.0557919405400753,-0.07231695204973221,-0.08322110772132874,-0.1437000036239624,-0.16372112929821014,-0.11533333361148834,-0.06055368855595589,-0.12022139877080917,-0.11582358181476593,-0.15356041491031647,-0.27391189336776733,0.3610489070415497,-0.0336700938642025,-0.053230851888656616,-0.05772406607866287,-0.13515840470790863,-0.08664119243621826,0.21877717971801758,0.04712269455194473,0.019733119755983353,0.09221082925796509,0.049917787313461304,0.10090935230255127,-0.2853718101978302,0.09168627858161926,0.01872459053993225,0.142349973320961,0.097865529358387,0.1333358883857727,-0.18915490806102753,0.039569731801748276,-0.0724455714225769,-0.048268936574459076,-0.0254839938133955,-0.14161840081214905,0.086671382188797,-0.03154952824115753,-0.01865364983677864,-0.028812889009714127,-0.07659760117530823,-0.10428421944379807,-0.08542491495609283,-0.011218632571399212,-0.05474523454904556,-0.07218018174171448,-0.014592761173844337,0.039066132158041,0.20392826199531555,0.06266772001981735,0.046404749155044556,0.10234042257070541,0.1278190016746521,0.1293725073337555,0.2881333529949188,0.08747909963130951,0.06865276396274567,0.13776803016662598,0.14462684094905853,0.13333183526992798,-0.13495327532291412,0.05271795019507408,-0.019772028550505638,-0.002304984722286463,0.051152490079402924,-4.65126613562461e-05,0.07111877202987671,-0.07352239638566971,-0.07390036433935165,-0.077837735414505,-0.024179093539714813,-0.0014884260017424822,0.02003166452050209,-0.10804299265146255,-0.07503797858953476,-0.07932320237159729,-0.042324040085077286,-0.04236587509512901,0.15689672529697418,-0.0004368636291474104,0.04948057234287262,0.10293100774288177,0.09189030528068542,0.12430557608604431,0.34640806913375854,-0.07480110228061676,-0.0913492888212204,-0.07702016830444336,-0.07509229332208633,-0.07200539112091064,-0.29751771688461304,-0.004122598096728325,-0.10557921975851059,-0.1131792739033699,-0.04573081061244011,-0.11822875589132309,0.3818590044975281,0.019547410309314728,-0.01728702522814274,-0.00011141891445731744,0.09491714835166931,0.0842699334025383,-0.14914247393608093,0.03068777546286583,0.07971572875976562,0.08169308304786682,0.1160067766904831,0.2361125946044922,-0.12370595335960388,0.07668892294168472,0.08565861731767654,0.10131614655256271,0.048321787267923355,0.1126597672700882,0.15335509181022644,-0.04449047893285751,-0.07210400700569153,-0.08746309578418732,-0.032752785831689835,-0.07706023752689362,-0.1968037486076355,-0.041756026446819305,0.02173428051173687,-0.03863515704870224,-0.03824954107403755,-0.01457619946449995,0.03771783411502838,-0.03689354285597801,0.023783059790730476,-0.0194473285228014,0.03505859151482582,0.08062084764242172,0.09702858328819275,-0.0014531826600432396,0.013118939474225044,0.013255307450890541,0.042792245745658875,0.026248253881931305,-0.15533894300460815,0.056119296699762344,0.03388369455933571,0.015751933678984642,-0.011558540165424347,0.013935832306742668,0.267210453748703,-0.016268853098154068,-0.014122062362730503,-0.03868981823325157,-0.053473059087991714,-0.05084222927689552,0.15674574673175812,-0.01300510112196207,-0.011674215085804462,-0.04123872518539429,0.014398397877812386,-0.0841229185461998,-0.3249278962612152,-0.022548090666532516,0.0025295636150985956,-0.01825828105211258,-0.04047614336013794,-0.02631586231291294,0.026461752131581306,0.05667814239859581,0.02051512338221073,-0.007180371321737766,0.02337760105729103,0.020458189770579338,-0.20877176523208618,0.06687749177217484,0.024220675230026245,-0.007225403096526861,0.10212530940771103,0.008360153995454311,0.09207087010145187,0.03797685354948044,0.01871461793780327,-0.03676871955394745,0.10569567233324051,-0.0831776037812233,-0.11721628904342651,0.01266989391297102,0.030353983864188194,-0.04113181307911873,-0.08830510079860687,-0.0771508440375328,-0.19956143200397491,0.02406127378344536,-0.09618792682886124,-0.21201039850711823,-0.12279117852449417,0.0988115519285202,0.03303325176239014,-0.10931111127138138,-0.026212722063064575,0.031715162098407745,-0.038048312067985535,0.045705102384090424,0.09650267660617828,-0.11897759139537811,0.014583700336515903,0.014357124455273151,0.07314321398735046,0.14844278991222382,0.15913508832454681,-0.04866839200258255,0.02602434903383255,-0.011372850276529789,0.07590185105800629,-0.08751610666513443,0.11150842159986496,-0.11802364140748978,-0.062402334064245224,0.028274521231651306,-0.04134216904640198,-0.07299855351448059,-0.2879756689071655,-0.14694388210773468,0.01246629934757948,0.16985411942005157,0.0708516538143158,-0.022305045276880264,-0.09074623882770538,-0.06121230870485306,0.09512276947498322,0.12823055684566498,0.04123551398515701,0.107229083776474,0.3834165930747986,-0.026547027751803398,-0.13492363691329956,-0.5577846169471741,0.06769876927137375,-0.07269847393035889,0.16197222471237183,