{"version":"0.7.0","architecture":"SlimmableContainer","config":{"submodels":[{"max_value":0.5,"model":{"version":"0.7.0","metadata":{"date":{"year":2026,"month":5,"day":14,"hour":18,"minute":24,"second":26},"loudness":-15.615703582763672,"gain":0.7845169354947389},"architecture":"WaveNet","config":{"layers":[{"input_size":1,"condition_size":1,"head":{"out_channels":1,"kernel_size":16,"bias":true},"channels":3,"kernel_sizes":[6,6,6,6,6,6,6,6,6,6,6,6,6,6,15,15,6,6,6,6,6,6,6],"dilations":[1,3,7,17,41,101,239,1,3,7,17,41,101,239,1,13,1,3,7,17,41,101,239],"activation":[{"type":"LeakyReLU","negative_slope":0.01},{"type":"LeakyReLU","negative_slope":0.01},{"type":"LeakyReLU","negative_slope":0.01},{"type":"LeakyReLU","negative_slope":0.01},{"type":"LeakyReLU","negative_slope":0.01},{"type":"LeakyReLU","negative_slope":0.01},{"type":"LeakyReLU","negative_slope":0.01},{"type":"LeakyReLU","negative_slope":0.01},{"type":"LeakyReLU","negative_slope":0.01},{"type":"LeakyReLU","negative_slope":0.01},{"type":"LeakyReLU","negative_slope":0.01},{"type":"LeakyReLU","negative_slope":0.01},{"type":"LeakyReLU","negative_slope":0.01},{"type":"LeakyReLU","negative_slope":0.01},{"type":"LeakyReLU","negative_slope":0.01},{"type":"LeakyReLU","negative_slope":0.01},{"type":"LeakyReLU","negative_slope":0.01},{"type":"LeakyReLU","negative_slope":0.01},{"type":"LeakyReLU","negative_slope":0.01},{"type":"LeakyReLU","negative_slope":0.01},{"type":"LeakyReLU","negative_slope":0.01},{"type":"LeakyReLU","negative_slope":0.01},{"type":"LeakyReLU","negative_slope":0.01}],"bottleneck":3,"head1x1":{"active":false,"out_channels":1,"groups":1},"layer1x1":{"active":true,"groups":1},"groups_input":1,"groups_input_mixin":1,"conv_pre_film":{"active":false,"shift":true,"groups":1},"conv_post_film":{"active":false,"shift":true,"groups":1},"input_mixin_pre_film":{"active":false,"shift":true,"groups":1},"input_mixin_post_film":{"active":false,"shift":true,"groups":1},"activation_pre_film":{"active":false,"shift":true,"groups":1},"activation_post_film":{"active":false,"shift":true,"groups":1},"layer1x1_post_film":{"active":false,"shift":true,"groups":1},"head1x1_post_film":{"active":false,"shift":true,"groups":1},"gating_mode":["none","none","none","none","none","none","none","none","none","none","none","none","none","none","none","none","none","none","none","none","none","none","none"],"secondary_activation":[null,null,null,null,null,null,null,null,null,null,null,null,null,null,null,null,null,null,null,null,null,null,null],"slimmable":null}],"head":null,"head_scale":0.014066715960548822},"weights":[7.726800918579102,-6.079648971557617,6.97457218170166,0.8780006766319275,1.0301567316055298,0.9323064088821411,1.1622446775436401,1.4911991357803345,1.0968551635742188,-0.612032413482666,-0.8316255807876587,-0.9583101868629456,-1.2784786224365234,-1.2934727668762207,-1.1000170707702637,0.798504650592804,1.02823007106781,1.0681027173995972,1.1118494272232056,1.5027954578399658,1.2430999279022217,1.094573974609375,1.7053800821304321,1.9637492895126343,2.131904363632202,2.6538350582122803,2.214675188064575,-1.032023310661316,-1.6189709901809692,-1.7384531497955322,-1.8516297340393066,-2.4021685123443604,-1.9859155416488647,1.109495759010315,1.748961091041565,1.875515341758728,2.0165395736694336,2.512568235397339,2.078491687774658,-1.3883196115493774,-2.826211452484131,-2.785811185836792,-3.3202614784240723,-3.8398687839508057,-2.7704763412475586,1.4155503511428833,2.5689563751220703,2.432554244995117,2.842163324356079,3.354827880859375,2.543264389038086,-1.4501444101333618,-2.7382218837738037,-2.669426441192627,-3.022725820541382,-3.6523613929748535,-2.667100429534912,-0.25501424074172974,-0.4267377257347107,0.6206642985343933,0.3889022171497345,0.44405269622802734,-0.5422132611274719,1.7771408557891846,1.5939998626708984,-1.88125479221344,-0.7053530812263489,-0.31369200348854065,0.4749300181865692,0.8091523051261902,1.256993293762207,-1.16469144821167,-1.7478452920913696,5.248234272003174,4.1707868576049805,0.8921247720718384,0.14036019146442413,0.7252137064933777,0.5096738934516907,-0.26247018575668335,-1.1018911600112915,-0.7316663265228271,-0.2591233253479004,-0.3735504746437073,-0.33933985233306885,-0.16835394501686096,0.16763028502464294,0.027798257768154144,-0.3064647316932678,-0.12767748534679413,-0.13238012790679932,-0.5003318786621094,-0.916423499584198,0.4117755591869354,0.43486830592155457,0.4683944582939148,0.25078248977661133,-0.0648522600531578,-0.7622354626655579,-0.614419162273407,-0.7188799977302551,-0.8344863057136536,-0.6854445338249207,-0.4254746735095978,0.1175682470202446,-0.31417688727378845,-0.2611770033836365,-0.0381535179913044,-0.1918283849954605,-0.5136544704437256,-1.1809680461883545,0.6332043409347534,0.1480221450328827,0.6057239770889282,0.29064303636550903,-0.6134787201881409,-1.7341315746307373,0.3692353367805481,0.617486298084259,0.21975599229335785,0.36117979884147644,0.5338913202285767,1.4490933418273926,0.7728318572044373,0.43029090762138367,0.8684306740760803,0.631658673286438,0.3188282549381256,-0.33877137303352356,-0.42330366373062134,-0.3312303423881531,2.9911980628967285,-0.01197382714599371,-0.01994929276406765,-0.21434855461120605,1.1531777381896973,0.7592930197715759,-1.4735467433929443,0.189550518989563,0.09179575741291046,-0.22266601026058197,0.735731303691864,0.15665365755558014,-0.6894564032554626,-0.7511272430419922,1.1740000247955322,0.8631531000137329,-0.24914416670799255,-0.31179332733154297,-0.5136851668357849,-0.2968165874481201,-0.11023972183465958,0.729257345199585,-0.18947464227676392,-0.15243880450725555,0.04334820806980133,0.14331698417663574,0.2946566641330719,-0.43285122513771057,-0.16021865606307983,-0.29063180088996887,-0.3703363835811615,-0.29043158888816833,-0.20582188665866852,0.6160160899162292,0.0834125280380249,0.18901069462299347,0.20160341262817383,0.1755272001028061,0.1835528314113617,-0.07354727387428284,-0.09901311993598938,0.17087753117084503,0.22873081266880035,-0.16255760192871094,-0.3935285210609436,-0.6529163122177124,0.06830234825611115,-0.11741890758275986,-0.07745812833309174,-0.15261489152908325,-0.2952937185764313,-0.22801317274570465,-0.1343725025653839,-0.13126780092716217,-0.18112291395664215,-0.13149678707122803,-0.19374357163906097,-0.03642259165644646,-0.09349667280912399,0.13662530481815338,0.2072337567806244,0.4153316020965576,0.5388171672821045,0.24507218599319458,0.15951746702194214,0.1173558458685875,0.09286282956600189,0.07678297162055969,0.28079167008399963,0.4435318112373352,0.31468239426612854,-0.1517791599035263,1.161224126815796,0.09234648197889328,0.017770327627658844,0.09084665775299072,0.7089953422546387,-1.0278619527816772,-0.07969983667135239,0.17399249970912933,-0.20517630875110626,-0.2588144838809967,0.3309583067893982,-1.3510242700576782,0.6209747195243835,0.29293444752693176,-0.09411920607089996,0.1639481782913208,0.007811605930328369,-0.023182900622487068,0.007538621313869953,0.153611421585083,0.041082534939050674,-0.08301499485969543,-0.09215016663074493,0.0003300939570181072,-0.2533341646194458,-0.2683968245983124,0.41186171770095825,0.1541389524936676,0.0023809790145605803,0.033126700669527054,0.019214004278182983,-0.24683821201324463,-0.3205641508102417,0.24253147840499878,-0.041110385209321976,-0.06520932167768478,-0.015256346203386784,-0.09643666446208954,-0.032221537083387375,-0.2590179443359375,0.17276300489902496,0.3731096088886261,0.20523342490196228,-0.26614633202552795,-0.7648906111717224,-0.1057790145277977,0.03873322904109955,0.018465805798768997,0.021172329783439636,0.19822077453136444,0.31415486335754395,-0.048561155796051025,-0.03114868700504303,-0.05733068287372589,0.056717269122600555,0.026252606883645058,0.10016496479511261,-0.1836591362953186,0.23320963978767395,0.3600090444087982,0.09100538492202759,-0.11545225232839584,-0.1745007038116455,-0.39041706919670105,-0.0019822262693196535,-0.010419604368507862,-0.10670197010040283,0.032174985855817795,0.036755841225385666,-0.27970531582832336,0.30358031392097473,-0.060961805284023285,-0.5416187644004822,0.03238491714000702,-0.13785779476165771,0.01689297892153263,-0.7146027088165283,-0.3608377277851105,0.5058636665344238,-0.40736326575279236,-0.2300524264574051,0.22516456246376038,-0.8031221032142639,-0.7262684106826782,0.9354680180549622,-0.520205557346344,0.06923913955688477,0.062214385718107224,-0.022312620654702187,-0.037158556282520294,-0.0338408462703228,-0.039965029805898666,-0.11864735931158066,-0.3379709720611572,-0.03488476574420929,-0.02223566547036171,-0.054664820432662964,-0.13230887055397034,0.031422313302755356,0.3513375520706177,0.041718989610672,0.06754323095083237,0.06259635090827942,0.08755994588136673,0.14021944999694824,0.5045566558837891,-0.0492643341422081,0.033753182739019394,0.006931553594768047,0.007493445184081793,-0.045159026980400085,-0.09623841941356659,-0.024696815758943558,-0.07323770225048065,-0.187131866812706,-0.23792356252670288,0.01837797649204731,0.24765506386756897,0.08042360842227936,-0.04137147590517998,0.033769071102142334,0.047617051750421524,-0.12233950197696686,0.2193734347820282,-0.03489268198609352,0.01356806792318821,-0.0014009219594299793,-0.016572624444961548,-0.05656047910451889,-0.061600279062986374,-0.02305496484041214,-0.049982573837041855,-0.13419479131698608,-0.19820158183574677,0.024261506274342537,0.18994638323783875,0.05980687215924263,-0.010922490619122982,0.035098254680633545,0.07082322984933853,-0.04943209886550903,0.13908319175243378,0.7112232446670532,0.44214656949043274,0.17295019328594208,0.04916825518012047,0.10070858150720596,-0.038984302431344986,0.31223264336586,0.2617119252681732,0.4392241835594177,-0.5490458607673645,0.06682151556015015,0.394574910402298,0.3563368618488312,0.2778070569038391,0.043367717415094376,-0.2626001834869385,-0.2730831205844879,0.32286134362220764,0.11075931787490845,0.11687401682138443,0.14813341200351715,0.14709265530109406,0.14507153630256653,0.2338544726371765,0.09146275371313095,0.07132218778133392,0.09359219670295715,0.06726332008838654,0.09602215141057968,-0.13220930099487305,-0.18982882797718048,-0.1971813291311264,-0.2563905417919159,-0.24665045738220215,-0.2532222270965576,0.04715434089303017,-0.021865790709853172,-0.022258443757891655,-0.006689439062029123,-0.08811023086309433,-0.14160647988319397,-0.15150967240333557,0.04332873597741127,0.03617677092552185,0.08295748382806778,0.025195365771651268,0.45497092604637146,-0.5004509687423706,0.01538554672151804,0.022524533793330193,-0.008917106315493584,0.11456668376922607,0.08464233577251434,-0.5204901695251465,-0.03139758110046387,-0.03126266971230507,-0.020140700042247772,-0.05216117948293686,-0.13938985764980316,-0.02963292971253395,0.006270976737141609,0.0015805559232831001,0.016465747728943825,0.011975410394370556,0.30117157101631165,-0.3659278452396393,0.03909938782453537,0.04340365529060364,0.026622971519827843,0.06481790542602539,0.11484537273645401,-0.8785514831542969,-1.136427640914917,-0.03487539291381836,-0.5793154835700989,0.07953514158725739,-0.08849454671144485,0.03418130800127983,0.1558520793914795,-0.21690374612808228,0.5561257004737854,0.8668022751808167,-0.09065447002649307,0.06598109006881714,-0.16729161143302917,-0.6685242056846619,1.0430434942245483,-0.5179728269577026,0.14259210228919983,0.7781242728233337,-0.00034152771695517004,0.035275839269161224,0.03147631511092186,0.03629108890891075,0.027289804071187973,-0.1818045973777771,0.02100995182991028,-0.014633097685873508,-0.11732421815395355,-0.2095751166343689,-0.25830310583114624,-0.029635973274707794,-0.009753094986081123,-0.05700270086526871,-0.013431984931230545,0.015958663076162338,0.030404845252633095,0.1515788584947586,-0.007254910655319691,-0.005224335473030806,-0.018893564119935036,-0.014668322168290615,-0.0095143998041749,-0.10423267632722855,-0.024055875837802887,-0.01969088986515999,-0.001478030695579946,0.024017881602048874,0.04858965799212456,-0.08020899444818497,0.022510258480906487,0.016991272568702698,0.03482498601078987,0.015681903809309006,0.00503571517765522,-0.9195521473884583,0.0639100894331932,0.06814876943826675,0.08960080146789551,0.07615280151367188,0.10033942759037018,0.33804360032081604,0.08507484197616577,0.09774073958396912,0.10209416598081589,0.09779030084609985,0.12804894149303436,0.554775059223175,-0.14125357568264008,-0.15453466773033142,-0.19546347856521606,-0.16998955607414246,-0.22838115692138672,0.11314235627651215,0.23613578081130981,-0.9289593696594238,-1.3637913465499878,0.03127000108361244,-0.048567142337560654,0.029022833332419395,0.4477095901966095,1.3811790943145752,-1.6192957162857056,0.16524869203567505,0.12641575932502747,-0.2302255630493164,0.14165018498897552,0.8002229332923889,-0.8025878071784973,-0.007189793977886438,0.7695549130439758,-0.38771456480026245,0.1254599392414093,-0.009137577377259731,-0.1188025176525116,-0.10718642920255661,-0.19794994592666626,0.1080101951956749,-0.24536414444446564,0.07604021579027176,0.03419012576341629,0.21875977516174316,-0.14677037298679352,-0.3558387756347656,-0.1333540678024292,-0.0697106420993805,0.12355886399745941,-0.09322835505008698,0.0514107383787632,0.14022818207740784,-0.06919153779745102,0.1088036298751831,0.03822174668312073,0.030225900933146477,-0.10139261186122894,-0.8650158047676086,0.20236416161060333,-0.09692195057868958,-0.45754632353782654,-0.07621344923973083,0.32572707533836365,0.6529434323310852,0.16380509734153748,0.0760737806558609,0.08851323276758194,0.18971861898899078,0.32956579327583313,0.4430868923664093,-0.036723457276821136,0.15516310930252075,-0.2065153867006302,-0.15068866312503815,-0.007150481920689344,0.0017420744989067316,-0.28541162610054016,0.11968395113945007,0.0019879068713635206,0.2912645936012268,-0.0808187946677208,-0.2320246398448944,0.00528583861887455,0.03764785826206207,0.06875638663768768,0.11348114907741547,-0.13402295112609863,-0.5686325430870056,0.365338534116745,0.11547590792179108,-0.3410354256629944,0.39478805661201477,-0.19812315702438354,-0.002076664473861456,-0.2522510886192322,0.5253656506538391,0.15616121888160706,1.030015230178833,-0.4003872275352478,0.09918812662363052,-0.42574629187583923,0.0025039040483534336,0.7673258185386658,-0.13761086761951447,0.3313601613044739,-0.7780303955078125,0.010678685270249844,-0.06567851454019547,0.07808178663253784,-0.05825844779610634,0.03272129222750664,0.43649283051490784,-0.020326079800724983,0.052762895822525024,-0.20595182478427887,0.023950042203068733,0.09794382750988007,0.11923974007368088,0.03503100574016571,0.013542605563998222,-0.01903868280351162,0.12156791239976883,-0.08559543639421463,0.6190880537033081,-0.022021302953362465,-0.057427119463682175,-0.1328752189874649,-0.07526130974292755,-0.20701666176319122,-0.003098683198913932,0.008556613698601723,0.001938547589816153,-0.07377715408802032,-0.10730531066656113,0.04730070382356644,-0.26782530546188354,0.028223631903529167,0.08391214162111282,0.1366468369960785,-0.284090518951416,-0.3339313864707947,-0.07893699407577515,0.017579536885023117,-0.09765327721834183,-0.06771212071180344,-0.03320884332060814,0.11082857102155685,0.5175730586051941,-0.08597142994403839,0.05508642643690109,-0.04907085746526718,-0.0857105627655983,-0.17925074696540833,0.6378519535064697,0.1049584299325943,0.14751964807510376,0.16612260043621063,0.13660001754760742,0.19276493787765503,-0.2863548696041107,-0.9004090428352356,0.0001392652775393799,1.4646275043487549,0.06137974187731743,0.12874199450016022,-0.17065387964248657,-0.632960855960846,0.21705293655395508,-0.49789759516716003,-0.12848909199237823,0.4867480397224426,-0.4790269434452057,-0.8452986478805542,-0.6517322659492493,0.3372473120689392,-0.6177130341529846,-0.5843040347099304,-0.4231089651584625,-0.43429356813430786,0.28777608275413513,-0.014886506833136082,-0.07013682276010513,-0.05862266942858696,-1.2539459466934204,0.0322483591735363,-0.026009220629930496,-0.0764012411236763,-0.044384948909282684,-0.18406537175178528,-0.8052366971969604,-0.5843254923820496,-0.0375884510576725,0.06065625697374344,-0.06258487701416016,-0.1766214370727539,0.34202414751052856,0.07936456799507141,-0.09238806366920471,-0.014865378849208355,-0.07963600754737854,-0.09205777198076248,-0.49964794516563416,-0.1267392337322235,-0.05386535823345184,-0.08060607314109802,-0.059772346168756485,-0.2690550982952118,0.14771588146686554,0.10549993813037872,-0.0547337606549263,6.272333121160045e-05,-0.11101941019296646,-0.2454594522714615,0.5148724913597107,-0.09057708829641342,0.07597079873085022,0.184549018740654,-0.025916611775755882,0.014790589921176434,1.0100462436676025,-0.09674456715583801,-0.08920815587043762,-0.05997024103999138,-0.12811431288719177,-0.19023966789245605,0.1632034331560135,-0.1297471970319748,-0.1274559050798416,-0.11280517280101776,-0.16887004673480988,0.011213664896786213,-0.4132695496082306,1.520849347114563,-0.5957226157188416,-0.1885714828968048,-0.03878170996904373,-0.41226887702941895,0.044631227850914,0.770677924156189,-0.05184514820575714,-0.5470727682113647,0.3456767499446869,-0.7362565994262695,0.5386435985565186,-0.08742992579936981,-0.13676732778549194,0.016429206356406212,1.2211675643920898,-0.2003890424966812,-0.3936353921890259,0.07763959467411041,0.0896901860833168,0.13766537606716156,0.5177077054977417,0.13466231524944305,0.39054661989212036,0.09778745472431183,0.09127587825059891,0.24305768311023712,-0.03722396492958069,0.38887694478034973,-0.10327475517988205,0.07853756844997406,0.01399795338511467,-0.15712732076644897,-0.5293868780136108,0.05431954562664032,0.03034168854355812,0.028095150366425514,0.007115430198609829,0.02182227186858654,0.3001656234264374,0.03148883208632469,0.25292307138442993,-0.019024934619665146,0.055291980504989624,0.04213661327958107,-0.4696734845638275,0.038872066885232925,0.48409271240234375,-0.0016327002085745335,-0.031409986317157745,0.03955824300646782,-0.04450735077261925,0.04241052269935608,0.24362434446811676,0.01545318029820919,-0.021128103137016296,-0.04269616678357124,0.36606988310813904,-0.036708295345306396,0.5460707545280457,0.008854157291352749,0.13523158431053162,0.12179861217737198,-0.6121799349784851,-0.06294994801282883,-0.4091011583805084,-0.01603871025145054,-0.06102656573057175,0.0358528196811676,-0.07492293417453766,-0.13983361423015594,-0.03635942563414574,0.17929336428642273,0.09878092259168625,-0.22399626672267914,0.18773336708545685,-0.5614619851112366,0.6528633832931519,-0.2623901069164276,-0.1414254754781723,-0.7475491762161255,0.303926944732666,-1.1412010192871094,0.41608184576034546,-0.07093538343906403,-0.024190476164221764,0.029027273878455162,0.7207786440849304,-0.8079793453216553,0.1245005875825882,0.02236463874578476,0.01241696160286665,0.03245721757411957,0.03714057058095932,0.0898379236459732,-0.23032009601593018,-0.07072396576404572,-0.007392202969640493,-0.08117227256298065,-0.121785007417202,-0.247282937169075,0.031808916479349136,-0.042669832706451416,0.02559209242463112,-0.04656142741441727,0.01769384928047657,-0.15176570415496826,0.8186033368110657,0.03304651379585266,0.02615026757121086,0.0395185649394989,0.06243050470948219,0.1557604819536209,0.5435185432434082,-0.11069675534963608,-0.0979393795132637,-0.15098421275615692,-0.2320842146873474,-0.4586946964263916,0.04053628444671631,-0.0679640993475914,-0.011924590915441513,-0.05201064422726631,0.017860770225524902,-0.5749369859695435,-0.06198233738541603,0.07294562458992004,0.05717308819293976,0.06762486696243286,0.08361286669969559,0.1499171257019043,-0.5684912204742432,-0.2659703493118286,-0.14040803909301758,-0.23257207870483398,-0.2816274166107178,-0.44975903630256653,-0.0074434541165828705,-0.12096607685089111,0.023465638980269432,-0.01957867667078972,0.06154457852244377,-0.1152452602982521,-0.3917649984359741,1.5436216592788696,0.039170701056718826,0.8271807432174683,-0.042571913450956345,-0.3012579679489136,-0.7196624875068665,0.5425552129745483,-0.08159495890140533,0.8663156628608704,0.14274193346500397,1.2191026210784912,-0.5940461158752441,-0.8844684362411499,0.1301504671573639,0.534336507320404,0.10334033519029617,-0.01623242348432541,-1.1881158351898193,0.11496035009622574,0.05614509433507919,0.20331496000289917,0.25266215205192566,0.27972182631492615,0.4238487780094147,-0.021517368033528328,-0.005300115793943405,-0.04586667940020561,-0.03942893072962761,-0.07659117877483368,0.8997257947921753,0.18459099531173706,0.19541394710540771,0.20164543390274048,0.5803555846214294,0.3372475802898407,-0.2937168776988983,0.026283157989382744,-0.019287215545773506,-0.03998899459838867,0.0018931666854768991,-0.004896325524896383,0.6462299823760986,-0.012319487519562244,0.011247994378209114,0.005540825426578522,-0.012538830749690533,0.01023758202791214,-0.0443744920194149,-0.11344169825315475,0.02649228274822235,-0.06456508487462997,-0.14791741967201233,0.008415237069129944,0.4409184753894806,-0.02066265046596527,0.023428719490766525,0.017399340867996216,0.011660169810056686,0.014209434390068054,0.18640005588531494,-0.000786192191299051,-0.014141779392957687,-0.003315371461212635,-0.002810514997690916,-0.010904951021075249,0.023790322244167328,-0.11684694141149521,-0.20088571310043335,-0.030859099701046944,-0.059869568794965744,-0.2712305188179016,-0.1973462998867035,0.01855660043656826,-0.18856649100780487,0.4584653079509735,-0.02333139255642891,0.5184826850891113,-0.08724728971719742,0.031082982197403908,-1.1384493112564087,0.33801767230033875,0.8091803193092346,0.41183677315711975,-0.5805404782295227,0.04165375605225563,-0.2835066318511963,-0.5290262699127197,0.3291299045085907,-0.6832233667373657,-1.024442195892334,0.5591357946395874,0.0032070542220026255,-0.24276961386203766,-0.21228903532028198,-0.13768655061721802,-0.03006047010421753,-0.05815376713871956,-0.0021717315539717674,0.018718725070357323,0.008088191971182823,0.0032560182735323906,0.17207102477550507,-0.019046638160943985,0.02941008470952511,-0.1819418966770172,-0.3974306583404541,-0.33693355321884155,-0.39020466804504395,-0.09345395117998123,-0.02603282406926155,-0.05945783481001854,-0.074811652302742,-0.017361046746373177,-0.34234392642974854,0.008473299443721771,0.0020501259714365005,0.005915510002523661,0.006613652687519789,0.0011731678387150168,-0.7712737321853638,-0.03628618270158768,-0.01796344853937626,-0.01868535205721855,-0.0545794740319252,-0.0015714631881564856,-0.25463002920150757,-0.06601582467556,-0.003274624701589346,0.06654901802539825,0.06834756582975388,0.002576597733423114,0.07917827367782593,0.007660027127712965,0.0008993449155241251,-0.005116024985909462,-0.0042176628485322,0.0015839618863537908,0.6386482119560242,0.02010883390903473,0.005470689386129379,0.05291622877120972,0.10289637744426727,0.0455772802233696,-0.0804564356803894,-0.30138102173805237,-2.4012887477874756,-2.175293445587158,-0.2576602101325989,0.25540316104888916,-0.13559338450431824,0.2597073018550873,0.07134629040956497,-0.05522225424647331,-0.3109293282032013,1.2461109161376953,-1.4647905826568604,0.042344238609075546,-0.039921440184116364,-0.05427907779812813,-0.037484947592020035,-0.9736122488975525,-1.5056304931640625,-0.0020964599680155516,0.07254651188850403,0.02635590173304081,0.13671977818012238,-0.040490590035915375,0.02157231606543064,0.011115586385130882,-0.048673707991838455,-0.0546865314245224,-0.13374382257461548,-0.08231213688850403,-0.010577532462775707,-0.08846326172351837,0.023741692304611206,-0.2160116583108902,0.030500775203108788,-0.018909886479377747,-0.0053565772250294685,0.02743568830192089,0.06257302314043045,-0.014649548567831516,-0.039891164749860764,0.026055773720145226,0.011021014302968979,-0.049931611865758896,-0.26149487495422363,-0.49144086241722107,-0.39734339714050293,-0.2151106595993042,0.26875120401382446,0.07498598098754883,0.07763165980577469,0.033268775790929794,-0.0062083774246275425,0.03852800652384758,-0.04365143924951553,-0.07150272279977798,-0.055665865540504456,0.0804259181022644,0.10558505356311798,-0.08190619200468063,-0.14831985533237457,-0.2651340067386627,-0.2050836831331253,0.02237658202648163,0.004215755965560675,-0.017949631437659264,0.16322411596775055,0.05119561776518822,0.11549384891986847,0.0393843911588192,-0.06260990351438522,-0.06365436315536499,-0.17061452567577362,-0.07572280615568161,-0.007498143240809441,-0.029847148805856705,0.08774597197771072,-0.010345999151468277,-0.023635372519493103,-0.1332596093416214,-0.06842651218175888,0.13206741213798523,0.13660986721515656,0.007947719655930996,0.04380064830183983,0.06672030687332153,-0.3635188937187195,-0.4557177722454071,-0.3545876145362854,-0.15213705599308014,0.1007440984249115,0.16788452863693237,0.28611963987350464,-0.017015989869832993,-0.14144115149974823,0.05738777294754982,0.023736238479614258,0.01915290392935276,-0.061781298369169235,-0.07783141732215881,0.11043176054954529,-0.06304068863391876,-0.06077202409505844,0.18757863342761993,0.14050281047821045,-0.10355013608932495,-0.10807852447032928,-0.10336863249540329,-0.277005136013031,0.03909975290298462,0.039425142109394073,-0.0998547151684761,0.07545787841081619,0.1150742620229721,-0.02662271074950695,-0.028921250253915787,-0.03704123944044113,-0.015137017704546452,-0.10553088039159775,-0.04403720796108246,0.11676741391420364,0.12185868620872498,0.024931181222200394,-0.13693268597126007,-0.04646686464548111,0.07294303923845291,-0.02118661068379879,-0.03800308331847191,0.06720546633005142,-0.029561856761574745,-0.11811944842338562,0.2101038247346878,-0.03671501576900482,-0.18366676568984985,0.1137135848402977,-0.002455199370160699,-0.21269835531711578,-0.07124903798103333,-0.4643605947494507,0.1160351112484932,0.024850992485880852,-0.05008674040436745,0.08824800699949265,-0.01947086490690708,-0.06812325865030289,0.11054787039756775,-0.03141983970999718,0.07071702927350998,-0.033046524971723557,-0.0642867311835289,-0.0803651437163353,0.01798555999994278,0.13350845873355865,0.3137081265449524,1.1159965991973877,0.9795727133750916,-1.3068777322769165,-0.09788117557764053,0.37291961908340454,-0.2934792935848236,0.4797688126564026,0.4932931363582611,-0.06527165323495865,-0.34449660778045654,0.1302400827407837,0.9912052750587463,0.29256191849708557,0.5639733672142029,0.02798849157989025,0.7949610352516174,-0.6391113996505737,-1.1178901195526123,0.015252790413796902,0.05483400449156761,-0.0407620333135128,0.10134945064783096,-0.1361817717552185,0.14863237738609314,0.17634838819503784,0.00756782665848732,-0.07072070986032486,0.16263347864151,0.09322245419025421,0.3561762273311615,0.08130228519439697,0.02286507375538349,-0.11758313328027725,0.25895997881889343,0.11247629672288895,0.038908541202545166,-0.03831956163048744,-0.11502519994974136,0.1211274266242981,0.1327502578496933,-0.35171911120414734,-0.14399763941764832,-0.02467421628534794,-0.024302629753947258,0.18605577945709229,-0.45191821455955505,-0.055086445063352585,-0.45864230394363403,-0.1658570021390915,0.016166506335139275,-0.1969480812549591,-0.06935397535562515,-0.2062467634677887,-0.2081255167722702,-0.039817485958337784,-0.07178442180156708,-0.22197473049163818,-0.10312470048666,0.02560897171497345,0.2170950323343277,-0.10478357970714569,-0.019802389666438103,0.38081124424934387,0.03814521059393883,0.0003118963213637471,0.03935835510492325,0.12315621227025986,-0.024379894137382507,0.12497999519109726,0.11747512966394424,0.06638593971729279,0.03391784057021141,0.1716778427362442,0.01520751416683197,0.20967590808868408,0.11951259523630142,0.0423932708799839,0.5375118851661682,-0.06246008351445198,-0.0704604908823967,-0.07256735116243362,0.1660674810409546,-0.11255446821451187,-0.020010322332382202,-0.05539878457784653,-0.12827926874160767,-0.0458526648581028,-0.09609173983335495,0.04392242804169655,0.30133378505706787,0.2458418309688568,0.16065019369125366,1.0309194326400757,0.0232987143099308,0.02579762041568756,-0.002138077514246106,-0.0194593146443367,-0.07566770911216736,-0.10844485461711884,-0.0006726189749315381,-0.0857507735490799,-0.23116323351860046,-0.04599873349070549,-0.26090213656425476,-0.1296241730451584,-0.17383220791816711,-0.18816672265529633,0.02349623665213585,0.06994234770536423,-0.04554373770952225,0.06219024583697319,-0.014190436340868473,0.11095207184553146,0.10389598459005356,-0.01836363598704338,0.01932976208627224,0.09772996604442596,0.08795661479234695,-0.03321297466754913,0.03213859349489212,-0.12592893838882446,0.1002175584435463,0.5925726294517517,-0.2230977714061737,-0.2236277163028717,0.053398918360471725,-0.022689739242196083,0.2770293951034546,-0.1326330453157425,-0.11950251460075378,0.4175153970718384,0.0769733414053917,0.1973569393157959,0.36619052290916443,0.016375185921788216,0.252694696187973,0.10397153347730637,-1.5839847326278687,0.08855686336755753,0.006379198748618364,0.046251531690359116,0.01972760073840618,0.09883995354175568,0.1605571061372757,-0.06732087582349777,-0.189848855137825,0.034905944019556046,0.057899024337530136,-0.24734899401664734,0.08122662454843521,-0.18256916105747223,0.11421605944633484,-0.6272854804992676,0.7319827079772949,0.08066169172525406,0.7860807180404663,0.05049709603190422,0.14340485632419586,-0.3974793553352356,-0.020984485745429993,-0.6112189888954163,-0.8125918507575989,-0.7771831154823303,0.5121705532073975,-0.31960782408714294,-0.30104202032089233,-0.19453521072864532,0.20194987952709198,-0.4955224096775055,-0.6994826793670654,-0.5901322960853577,-0.12129215896129608,-0.161727175116539,0.027857093140482903,-0.1161976233124733,-0.05949762463569641,0.02521035261452198,-0.16064812242984772,-0.11265268176794052,-0.14247770607471466,0.06559235602617264,0.155478835105896,0.3045508563518524,-0.24066999554634094,0.05619468912482262,-0.19843213260173798,-0.08223026990890503,0.04215893894433975,-0.2603035867214203,-0.009843938983976841,0.21474705636501312,0.28450527787208557,0.03343946486711502,-0.2038327157497406,-0.4318038821220398,-0.5204640626907349,-0.250707745552063,-0.03371286764740944,-0.011662492528557777,0.11450167745351791,0.24653485417366028,0.24083559215068817,-0.02813861519098282,-0.02060345932841301,-0.18912266194820404,-0.4727366864681244,-0.4046258330345154,0.04315898194909096,0.009401245974004269,-0.16850227117538452,0.19262072443962097,0.04957123100757599,0.22123561799526215,-0.036537278443574905,-0.0619741789996624,-0.20356597006320953,0.2436530739068985,-0.0030946198385208845,0.09558842331171036,0.10893921554088593,0.26628029346466064,0.07826236635446548,0.01545040775090456,0.10406076163053513,0.031187254935503006,-0.1309817135334015,0.11686685681343079,0.08444040268659592,-0.06212865933775902,0.2512862980365753,0.034087326377630234,-0.10101325809955597,0.3139631152153015,-0.2920800447463989,0.4707350432872772,0.046026088297367096,0.12597934901714325,0.18754291534423828,-0.2863520383834839,-0.37346410751342773,-0.6284882426261902,-0.3340679109096527,-0.9155237674713135,0.16629718244075775,0.057548005133867264,0.07135134935379028,0.11523007601499557,-0.001991015626117587,-0.11755736172199249,0.15164364874362946,0.030665956437587738,0.4987802803516388,-0.524407684803009,-0.15131284296512604,-0.21007506549358368,0.1727222204208374,0.21691475808620453,-0.10673455893993378,0.010145861655473709,0.016936592757701874,0.7379890084266663,-0.09881805628538132,-0.09420260041952133,-0.30580461025238037,0.025953544303774834,0.010095003992319107,-0.014379246160387993,-0.11546412110328674,-0.07278933376073837,-0.32999059557914734,-0.2695366442203522,-0.4451269805431366,0.04952273145318031,0.0500459223985672,-0.11914440244436264,-7.208139140857384e-05,-0.07903967797756195,0.32865750789642334,-0.3666137754917145,-0.419495165348053,0.14680755138397217,-0.017446178942918777,-0.059942472726106644,-0.11593391001224518,-0.24997647106647491,-0.07517495006322861,-0.06814603507518768,-0.2833420932292938,0.4562307894229889,0.03243125230073929,-0.8679152727127075,0.030248915776610374,-0.0012007048353552818,-0.2952202558517456,-0.275079607963562,-0.12544305622577667,-0.0038404648657888174,-0.09456568956375122,-0.16709010303020477,0.6531171798706055,0.030824437737464905,0.03503565862774849,-0.11491233855485916,0.0038188681937754154,0.17246827483177185,-0.23165598511695862,0.11609157919883728,-0.4993089437484741,-0.5150625109672546,-0.030928095802664757,0.280624657869339,0.048766858875751495,-0.07668334990739822,-0.4442436993122101,-0.5992596745491028,0.2276274412870407,-0.1283440738916397,0.03441689535975456,-0.08795937150716782,-0.04885276034474373,-0.1633344441652298,-0.2709432542324066,-0.2518344819545746,-0.2306652069091797,-0.09168829768896103,0.009100150316953659,0.1421925276517868,0.1401834487915039,-0.09878901392221451,0.03062816523015499,-0.1606171429157257,-0.03160975128412247,0.26938238739967346,-0.11955395340919495,0.02470630221068859,0.0635916143655777,-0.3087884485721588,-0.24582384526729584,0.16940730810165405,-0.06614557653665543,-0.19081690907478333,-0.2039075493812561,-0.3156862258911133,0.017481569200754166,0.28255876898765564,-0.3088177442550659,-0.09261135756969452,-0.2024538815021515,0.11888474225997925,-0.3198567032814026,0.11209981143474579,-0.30066996812820435,-0.33781611919403076,-0.45599621534347534,-0.14029794931411743,-0.12955643236637115,-0.29873812198638916,0.020780114457011223,-0.002891494892537594,0.04390910267829895,-0.04466363042593002,0.17527714371681213,-1.0946282148361206,-0.0897097960114479,0.018200203776359558,-0.0986185148358345,-0.23943738639354706,-0.23174169659614563,-0.005486471578478813,0.2724413573741913,0.33192747831344604,0.5225029587745667,0.20046056807041168,0.12224677950143814,-0.189491868019104,0.24491867423057556,-0.537251353263855,0.01848027855157852,-0.2961901128292084,-0.1633591204881668,0.6894096732139587,-0.22528748214244843,-0.2418099194765091,0.022048097103834152,-0.3078920841217041,-0.03304734453558922,-0.6361942887306213,0.08827782422304153,0.22770443558692932,-0.0627034530043602,-0.16035442054271698,-0.02232540398836136,0.495869904756546,0.44543957710266113,0.19666996598243713,0.12726429104804993,0.23373356461524963,-0.0007534761680290103,-0.1548449844121933,0.29710739850997925,0.1631503850221634,0.09976193308830261,-0.2600514888763428,0.0006116924923844635,-0.20765037834644318,-0.2341851443052292,-0.08128517866134644,-0.1599726378917694,0.01923283003270626,0.010115120559930801,0.09714063256978989,0.0037659932859241962,-0.18893691897392273,0.17587651312351227,-0.2949259281158447,-0.30591437220573425,-0.041569601744413376,-0.020247282460331917,0.18260228633880615,-0.1706288456916809,-0.46448957920074463,-0.26516997814178467,-0.15094883739948273,-0.01301580760627985,-0.16335202753543854,0.11704958975315094,0.17051208019256592,0.059705950319767,-0.5052688717842102,-0.30935901403427124,-0.12361153215169907,-0.06782461702823639,-0.18785497546195984,0.017182407900691032,0.019269682466983795,-0.25703853368759155,-0.1915854811668396,-0.1902649700641632,0.19380062818527222,-0.057154688984155655,0.19077566266059875,-0.03903304040431976,0.18060219287872314,0.1542515605688095,-0.01571803353726864,0.2064516842365265,0.0553712360560894,-0.32705745100975037,0.5306438207626343,0.47296151518821716,0.33086156845092773,0.4975317120552063,-0.29637253284454346,0.4354935884475708,-0.6474133133888245,-0.6469227075576782,0.16857272386550903,0.04087956249713898,-0.2589236795902252,0.09811154007911682,0.35468733310699463,0.19296586513519287,-0.32976943254470825,0.07462763041257858,0.5937405228614807,0.2707504630088806,0.20964281260967255,-0.14046405255794525,-0.19376493990421295,0.09045927971601486,-0.04192323982715607,-0.02669438347220421,0.03192433714866638,-0.27418985962867737,-0.14600777626037598,-0.15583254396915436,0.12345103919506073,-0.10552871972322464,0.008574921637773514,-0.2543989419937134,-0.02371310256421566,-0.0012243286473676562,-0.09127786010503769,0.08666536957025528,0.32971107959747314,0.23401083052158356,-0.020759234204888344,-0.17386847734451294,-0.07656478136777878,-0.14456073939800262,0.08383559435606003,-0.26871976256370544,-0.14979252219200134,-0.13886471092700958,-0.10007496923208237,-0.33506953716278076,0.20392724871635437,-0.19992516934871674,0.41179192066192627,-0.4121094048023224,-0.002170265419408679,0.15633289515972137,-0.20750941336154938,-0.36684486269950867,-0.027021758258342743,0.05389786884188652,-0.02000346966087818,-0.18468935787677765,-0.18990951776504517,-0.5684146881103516,-0.2839791476726532,-0.3497041165828705,0.0675269216299057,-0.08315567672252655,0.16559650003910065,0.293441504240036,0.11948537081480026,0.10913831740617752,-0.0587892010807991,-0.30245861411094666,1.3059895038604736,-0.6985127925872803,-0.5121068358421326,0.05184438079595566,-0.33878979086875916,-1.4091475009918213,-0.10222141444683075,-0.5572844743728638,-0.07824061810970306,0.040378306061029434,0.09677828848361969,0.2816118001937866,0.23919834196567535,0.10478764772415161,-0.5765325427055359,-0.8622844219207764,0.27129438519477844,-0.35955479741096497,0.06420253217220306,-0.2517145276069641,-0.23376308381557465,0.28926387429237366,0.0538359172642231,0.27743250131607056,0.0952034592628479,0.1875775158405304,-0.07334431260824203,0.2893778085708618,-0.10179156810045242,0.1829065978527069,0.06471412628889084,0.02620592713356018,0.12838450074195862,-0.029275087639689445,0.04481029510498047,0.049182675778865814,0.023760244250297546,-0.19944407045841217,-0.0005624296609312296,0.058254700154066086,-0.021198861300945282,0.04654219001531601,-0.005952732637524605,-0.08662989735603333,0.012028667144477367,-0.11687829345464706,-0.09562665969133377,-0.2271636426448822,-0.20472107827663422,-0.09720920771360397,0.48740050196647644,0.7273274064064026,-0.2155369073152542,0.30663880705833435,-0.01583218388259411,0.17208316922187805,0.19051244854927063,-0.21054838597774506,-0.04743120074272156,-0.20454347133636475,-0.07611189782619476,-0.17947126924991608,0.04641805961728096,-0.23265141248703003,0.08603139966726303,0.035177458077669144,0.1548793762922287,0.12996655702590942,0.024226641282439232,0.17849718034267426,-0.06804851442575455,0.580533504486084,-0.43812140822410583,0.14253702759742737,0.3266085088253021,1.026483178138733,0.014694668352603912,0.012850277125835419,0.5928623676300049,-0.37289485335350037,0.2023685723543167,-0.009637804701924324,0.2197244018316269,0.2306186556816101,-0.03441373631358147,-0.3008572459220886,0.12798166275024414,0.10920880734920502,0.6202027201652527,-0.14843297004699707,-0.16887778043746948,0.030057469382882118,0.23796088993549347,-0.8786131739616394,0.26809161901474,0.09202781319618225,0.18732845783233643,-0.08039344102144241,0.48274680972099304,-0.6641947031021118,0.13848359882831573,-0.012659192085266113,0.01396598294377327,0.029782896861433983,0.01069653034210205,0.04341449588537216,0.2476554661989212,-0.0065304674208164215,0.009982060641050339,0.1594088077545166,-0.0176027063280344,-0.32715657353401184,0.0036926926113665104,-0.05117228999733925,-0.07133731245994568,-0.08326508849859238,-0.027415065094828606,-0.22272221744060516,0.05130012705922127,-0.09141821414232254,0.0051270658150315285,0.11728216707706451,-0.06402655690908432,-0.052829429507255554,-0.25922906398773193,0.05785539001226425,0.0789196789264679,0.002448767190799117,-0.09070905297994614,0.3762395977973938,-0.09487389773130417,-0.04714980348944664,-0.09215347468852997,0.027343979105353355,-0.19431936740875244,0.2856096029281616,-0.043200429528951645,-0.06263396888971329,-0.0925445705652237,0.3584868609905243,0.018995385617017746,0.07814860343933105,-0.053818680346012115,1.0344282968857904e-38,6.996042838975615e-39,-1.0915634391717062e-38,-1.531094014842596e-38,1.9427110053638286e-38,-5.7660334937360065e-39,1.847118768152829e-39,-1.267561621746278e-38,-6.5356420246263036e-40,-1.0909530335606463e-38,1.2537024996744127e-39,-1.935418928415175e-38,-0.0018437227699905634,-0.004467697348445654,-0.003579027485102415,0.004530153702944517,0.012957879342138767,0.024197090417146683,0.02206568792462349,0.017519118264317513,0.009544692933559418,6.830717666161945e-06,-0.0014462443068623543,-0.0003222226514481008,-0.003374432912096381,-0.005142161622643471,-0.003928547725081444,-0.0018332527251914144,-0.004983743652701378,-0.011243673972785473,-0.0073215956799685955,0.007058223243802786,0.02861364372074604,0.04666086286306381,0.05075656622648239,0.03791002929210663,0.017345480620861053,0.002661242848262191,-0.0025368311908096075,-0.002965781604871154,-0.0056786867789924145,-0.008948233909904957,-0.009175476618111134,-0.004561636131256819,0.0062071047723293304,0.012242359109222889,0.0075080604292452335,-0.009205291047692299,-0.03232180327177048,-0.05211817845702171,-0.059378959238529205,-0.04415184631943703,-0.018494468182325363,-0.0023571867495775223,0.0014042994007468224,0.003143808338791132,0.00694096926599741,0.010954642668366432,0.010713879950344563,0.005031569395214319,-0.20508399605751038,0.014066715724766254],"sample_rate":48000.0}},{"max_value":1.0,"model":{"version":"0.7.0","metadata":{"date":{"year":2026,"month":5,"day":15,"hour":18,"minute":45,"second":3},"loudness":-15.65613842010498,"gain":0.7889843711810735},"architecture":"WaveNet","config":{"layers":[{"input_size":1,"condition_size":1,"head":{"out_channels":1,"kernel_size":16,"bias":true},"channels":8,"kernel_sizes":[6,6,6,6,6,6,6,6,6,6,6,6,6,6,15,15,6,6,6,6,6,6,6],"dilations":[1,3,7,17,41,101,239,1,3,7,17,41,101,239,1,13,1,3,7,17,41,101,239],"activation":[{"type":"LeakyReLU","negative_slope":0.01},{"type":"LeakyReLU","negative_slope":0.01},{"type":"LeakyReLU","negative_slope":0.01},{"type":"LeakyReLU","negative_slope":0.01},{"type":"LeakyReLU","negative_slope":0.01},{"type":"LeakyReLU","negative_slope":0.01},{"type":"LeakyReLU","negative_slope":0.01},{"type":"LeakyReLU","negative_slope":0.01},{"type":"LeakyReLU","negative_slope":0.01},{"type":"LeakyReLU","negative_slope":0.01},{"type":"LeakyReLU","negative_slope":0.01},{"type":"LeakyReLU","negative_slope":0.01},{"type":"LeakyReLU","negative_slope":0.01},{"type":"LeakyReLU","negative_slope":0.01},{"type":"LeakyReLU","negative_slope":0.01},{"type":"LeakyReLU","negative_slope":0.01},{"type":"LeakyReLU","negative_slope":0.01},{"type":"LeakyReLU","negative_slope":0.01},{"type":"LeakyReLU","negative_slope":0.01},{"type":"LeakyReLU","negative_slope":0.01},{"type":"LeakyReLU","negative_slope":0.01},{"type":"LeakyReLU","negative_slope":0.01},{"type":"LeakyReLU","negative_slope":0.01}],"bottleneck":8,"head1x1":{"active":false,"out_channels":1,"groups":1},"layer1x1":{"active":true,"groups":1},"groups_input":1,"groups_input_mixin":1,"conv_pre_film":{"active":false,"shift":true,"groups":1},"conv_post_film":{"active":false,"shift":true,"groups":1},"input_mixin_pre_film":{"active":false,"shift":true,"groups":1},"input_mixin_post_film":{"active":false,"shift":true,"groups":1},"activation_pre_film":{"active":false,"shift":true,"groups":1},"activation_post_film":{"active":false,"shift":true,"groups":1},"layer1x1_post_film":{"active":false,"shift":true,"groups":1},"head1x1_post_film":{"active":false,"shift":true,"groups":1},"gating_mode":["none","none","none","none","none","none","none","none","none","none","none","none","none","none","none","none","none","none","none","none","none","none","none"],"secondary_activation":[null,null,null,null,null,null,null,null,null,null,null,null,null,null,null,null,null,null,null,null,null,null,null],"slimmable":null}],"head":null,"head_scale":0.014066715960548822},"weights":[3.652400255203247,-3.425204038619995,4.5203399658203125,3.82649564743042,3.925476312637329,-3.8436877727508545,-3.5447919368743896,3.1325833797454834,0.01192709431052208,-0.1198485791683197,-0.18674346804618835,-0.0955301970243454,-0.04284512251615524,-0.07362209260463715,-0.011526213958859444,0.12314393371343613,0.1863982379436493,0.09521513432264328,0.03419027104973793,0.0827682837843895,0.03884025663137436,-0.14602112770080566,-0.2344956248998642,-0.11077065765857697,-0.022738805040717125,-0.08497777581214905,0.025041619315743446,-0.12236582487821579,-0.19633837044239044,-0.09905648976564407,-0.03694027662277222,-0.07421302795410156,0.016321804374456406,-0.12815813720226288,-0.191701278090477,-0.0964127629995346,-0.026095379143953323,-0.08183766901493073,-0.026497550308704376,0.1316053718328476,0.1934167593717575,0.09445953369140625,0.023443378508090973,0.07516492158174515,-0.01121436432003975,0.12959247827529907,0.1918405145406723,0.09781689196825027,0.04280256852507591,0.07501699775457382,0.014328817836940289,-0.11515473574399948,-0.1694009155035019,-0.08552808314561844,-0.03259868919849396,-0.07071871310472488,0.6137532591819763,1.1079747676849365,1.1786178350448608,1.3373948335647583,1.4935890436172485,1.340763807296753,-0.583667516708374,-1.075934886932373,-1.1453043222427368,-1.2471373081207275,-1.4231330156326294,-1.2744985818862915,0.7138115763664246,1.310482144355774,1.442004680633545,1.5991100072860718,1.8468706607818604,1.6769039630889893,0.6397236585617065,1.1909805536270142,1.2534416913986206,1.410332202911377,1.5817705392837524,1.4231152534484863,0.6145729422569275,1.1796212196350098,1.2511334419250488,1.4158191680908203,1.613394021987915,1.4268519878387451,-0.6273953318595886,-1.173213243484497,-1.2340749502182007,-1.3947211503982544,-1.5925109386444092,-1.422176480293274,-0.6055423021316528,-1.10750150680542,-1.186875581741333,-1.3105320930480957,-1.486802577972412,-1.3320890665054321,0.5602853894233704,1.0130528211593628,1.0579216480255127,1.1604998111724854,1.3138659000396729,1.1781525611877441,-0.14589296281337738,-0.11512472480535507,0.23219215869903564,0.0865962877869606,0.03784921392798424,0.06795605272054672,0.13382017612457275,0.10631252825260162,-0.21812662482261658,-0.08012662827968597,-0.0359443798661232,-0.06169124320149422,-0.2047068178653717,-0.15708616375923157,0.29189735651016235,0.11834543943405151,0.04808807745575905,0.1033620536327362,-0.15966355800628662,-0.12464331090450287,0.24797272682189941,0.09575367718935013,0.04153500497341156,0.07796639949083328,-0.16246740520000458,-0.12676730751991272,0.25121209025382996,0.09649541974067688,0.041439078748226166,0.07844588905572891,0.15949995815753937,0.12472837418317795,-0.24826692044734955,-0.09571289271116257,-0.041326701641082764,-0.0778406485915184,0.14222115278244019,0.11252834647893906,-0.22723621129989624,-0.0845491960644722,-0.03713328391313553,-0.06618546694517136,-0.11915116757154465,-0.09544029086828232,0.20077545940876007,0.07240452617406845,0.03387010470032692,0.0546511709690094,0.09985440969467163,0.21183741092681885,0.012774097733199596,0.020272091031074524,0.06407672166824341,-0.09681577980518341,-0.0918993204832077,-0.19938291609287262,-0.012843091040849686,-0.022942880168557167,-0.06401091814041138,0.08700279146432877,0.14886631071567535,0.2744964361190796,0.01691705547273159,0.0026420385111123323,0.06224488839507103,-0.14919565618038177,0.11161354929208755,0.22979021072387695,0.013735534623265266,0.015343103557825089,0.06220649927854538,-0.11281322687864304,0.11153043806552887,0.2284693717956543,0.012629975564777851,0.015974070876836777,0.06275753676891327,-0.11243291199207306,-0.1122172400355339,-0.22957468032836914,-0.013599220663309097,-0.015842299908399582,-0.06288440525531769,0.11213463544845581,-0.0975966826081276,-0.2091059386730194,-0.01301486324518919,-0.020810823887586594,-0.06309901177883148,0.0946444720029831,0.08180008828639984,0.18459486961364746,0.012366581708192825,0.02540828101336956,0.06315132230520248,-0.07544034719467163,-0.06746320426464081,-0.23567236959934235,-0.2816790044307709,-0.21204644441604614,-0.18216663599014282,-0.1307927966117859,0.07167036831378937,0.2296065092086792,0.2734065353870392,0.20348232984542847,0.1826828569173813,0.1327740103006363,-0.04338141903281212,-0.26702094078063965,-0.31472745537757874,-0.23648929595947266,-0.19550591707229614,-0.12206197530031204,-0.054608963429927826,-0.23682387173175812,-0.28051453828811646,-0.2114122211933136,-0.18572427332401276,-0.11727844178676605,-0.05597686395049095,-0.2438608705997467,-0.2899114489555359,-0.22014670073986053,-0.18476495146751404,-0.12158242613077164,0.04974411427974701,0.23578773438930511,0.2812265157699585,0.2164248377084732,0.17871548235416412,0.12038597464561462,0.06605324894189835,0.23688198626041412,0.2776668965816498,0.21379278600215912,0.18584059178829193,0.13213084638118744,-0.06925410777330399,-0.2108926922082901,-0.2548729479312897,-0.1889667510986328,-0.16760647296905518,-0.12590786814689636,0.11132186651229858,0.16102200746536255,-0.23421896994113922,-0.031134754419326782,-0.004165643360465765,-0.05271865054965019,-0.10254072397947311,-0.15061341226100922,0.2198401689529419,0.028865082189440727,0.0021488938946276903,0.04510156065225601,0.15239252150058746,0.21665406227111816,-0.29372164607048035,-0.043381720781326294,-0.016734343022108078,-0.09017997235059738,0.12210600078105927,0.17465542256832123,-0.2502954304218292,-0.03288242965936661,-0.006111679133027792,-0.06343856453895569,0.12366600334644318,0.1779773235321045,-0.251147598028183,-0.034546613693237305,-0.006659301463514566,-0.06521760672330856,-0.12262198328971863,-0.17468927800655365,0.2501145303249359,0.03427870571613312,0.006877285428345203,0.06219315156340599,-0.10844427347183228,-0.15910041332244873,0.22913451492786407,0.030031299218535423,0.0031835786066949368,0.05103268846869469,0.09251953661441803,0.13647863268852234,-0.20418593287467957,-0.025853727012872696,-0.0006850168574601412,-0.037680380046367645,-0.4951966106891632,-0.957145094871521,-0.9912367463111877,-1.1065906286239624,-1.2549512386322021,-1.1813631057739258,0.4824410080909729,0.9526843428611755,0.9930387139320374,1.066632866859436,1.1963491439819336,1.144531488418579,-0.4572664797306061,-1.0222442150115967,-1.066542148590088,-1.2018085718154907,-1.374176263809204,-1.3161327838897705,-0.4928745925426483,-0.9435333013534546,-1.0271471738815308,-1.1170587539672852,-1.2867627143859863,-1.20488440990448,-0.48235511779785156,-0.9827761054039001,-1.0565301179885864,-1.1062283515930176,-1.3304203748703003,-1.2295359373092651,0.5129547119140625,0.9375814199447632,0.9897295832633972,1.1305149793624878,1.3108525276184082,1.2155182361602783,0.46802371740341187,0.920448362827301,0.9815980195999146,1.0905017852783203,1.2561322450637817,1.164414644241333,-0.45660653710365295,-0.8950941562652588,-0.9331491589546204,-0.9870153069496155,-1.1518962383270264,-1.0766509771347046,-0.01032465510070324,-0.08600825816392899,-0.001500942395068705,-0.005502122920006514,-0.032732948660850525,0.026303907856345177,0.01348056085407734,0.08544106036424637,0.005517939105629921,0.011630558408796787,0.02789161168038845,-0.024591708555817604,-0.026930488646030426,-0.11623849719762802,-0.006320212502032518,-0.022571701556444168,-0.048168960958719254,0.009216180071234703,-0.02556532435119152,-0.10780082643032074,-0.004150194115936756,-0.019502488896250725,-0.03988281264901161,0.02347884699702263,-0.01545119658112526,-0.09476999938488007,-0.003745709778741002,-0.014346164651215076,-0.041127827018499374,0.013380528427660465,0.023805437609553337,0.1034095287322998,0.011321120895445347,0.01916823722422123,0.03669958934187889,-0.02006627805531025,0.009619110263884068,0.09012553095817566,0.008315058425068855,0.007788860704749823,0.033647533506155014,-0.028873255476355553,-0.00663524866104126,-0.07942210137844086,-0.0014295363798737526,-0.008079394698143005,-0.029827751219272614,0.02378857508301735,1.2380677461624146,0.2857862710952759,-0.45914769172668457,-0.5990106463432312,0.9792153835296631,-0.4030503034591675,-0.2343781441450119,-0.5551527142524719,-0.039324723184108734,0.4088374972343445,0.014371545054018497,-0.01112197246402502,-0.0701087936758995,-0.0011286160442978144,-0.4308164417743683,0.014330950565636158,-0.3231038451194763,1.0025817155838013,-0.4756961464881897,0.19308850169181824,-0.18108947575092316,0.5674880146980286,-0.8185477256774902,0.09244127571582794,0.3241998851299286,0.1135430634021759,0.07031596451997757,-0.37863627076148987,0.24864979088306427,-0.2203882932662964,-0.028143126517534256,-0.1757504642009735,-0.3272280991077423,0.9434443712234497,-0.4977089464664459,0.31672894954681396,-0.3627277910709381,0.22909608483314514,-1.3697035312652588,0.21771787106990814,-0.5915880799293518,0.24656085669994354,0.2900363802909851,0.5932120680809021,-0.5648248791694641,0.3874225914478302,-0.45644813776016235,0.2795347571372986,-0.09020410478115082,0.03179318457841873,-0.12184419482946396,0.5849133729934692,0.18925349414348602,0.40445342659950256,-0.12140483409166336,0.30887678265571594,-0.14305272698402405,-0.41764649748802185,0.501705527305603,0.19451847672462463,-0.011366195045411587,0.06778129190206528,0.8684265613555908,0.059966910630464554,0.05870312824845314,0.4207186996936798,0.21439407765865326,-0.2163236290216446,-0.14428740739822388,-0.43741971254348755,-0.2971917986869812,0.09773916006088257,0.2776685059070587,0.41317638754844666,-0.44606882333755493,-0.06651444733142853,0.15296670794487,-0.08702035248279572,-0.6430119872093201,-0.32054832577705383,0.4168834090232849,0.4785900413990021,-0.33843547105789185,-1.0197840929031372,-0.8354009985923767,-0.617790162563324,-0.037173572927713394,0.8840556740760803,-0.0916508287191391,0.11886309087276459,-0.2524975538253784,-0.10950760543346405,0.2108100801706314,0.27225327491760254,-0.07754397392272949,-0.3011596202850342,-0.2679439187049866,-0.10093499720096588,-0.10021181404590607,-0.09455502033233643,-0.20297634601593018,0.14882071316242218,-0.1286325454711914,0.036537185311317444,0.19980700314044952,0.2866198718547821,-0.039991822093725204,0.2417667657136917,0.12936733663082123,0.18531960248947144,0.3884308934211731,0.4524720311164856,0.007777787279337645,0.3754122257232666,0.07998830825090408,0.14764845371246338,0.2248677760362625,0.21114100515842438,0.35498949885368347,0.017437823116779327,0.2740785479545593,0.28001460433006287,0.20559225976467133,-0.01883191429078579,0.05184692516922951,-0.14380139112472534,-0.03081182762980461,0.027860283851623535,0.17078447341918945,0.33834531903266907,-0.38060250878334045,-0.05191986262798309,-0.32036077976226807,-0.34661176800727844,-0.2166891247034073,-0.07611975818872452,-0.29900461435317993,-0.21002376079559326,-0.34610119462013245,-0.016471639275550842,0.3580264151096344,0.46060559153556824,0.4123537838459015,0.336911678314209,0.3248400390148163,0.24954362213611603,0.16940507292747498,0.29953452944755554,-0.2733461558818817,-0.2198026031255722,-0.37481552362442017,-0.09127780050039291,0.4336310029029846,0.3596533536911011,-0.3560047447681427,-0.2637285590171814,-0.3589230179786682,-0.31310659646987915,0.08078170567750931,0.026515647768974304,-0.25179487466812134,-0.4340377449989319,-0.2855106294155121,-0.09099340438842773,-0.0567886084318161,-0.21981917321681976,0.10903362929821014,0.1897253692150116,0.1383223682641983,-0.009378637187182903,-0.44779083132743835,-0.653589129447937,-0.0462307371199131,-0.11884927749633789,-0.1686854064464569,-0.3125888705253601,0.026396144181489944,0.2437323033809662,0.031704921275377274,-0.010460694320499897,-0.07052135467529297,0.031478505581617355,0.20158079266548157,0.5476701259613037,0.034473128616809845,-0.09512355923652649,0.0994969829916954,0.10560586303472519,-0.0922798439860344,-0.0735962986946106,-0.03825366497039795,-0.051976460963487625,-0.056397899985313416,-0.04925570636987686,-0.06412745267152786,-0.10705457627773285,0.10940998047590256,-0.059290047734975815,0.1593909114599228,0.11803235113620758,-0.11242681741714478,-0.0647565945982933,0.17842212319374084,0.06200070679187775,0.22325506806373596,0.16314248740673065,0.03361744433641434,0.017429254949092865,0.14266160130500793,0.12202851474285126,0.11454793065786362,0.12806858122348785,0.08928443491458893,0.16107985377311707,0.014875330962240696,0.10751864314079285,-0.00887053832411766,0.038916315883398056,0.17332866787910461,0.10710085928440094,0.030916593968868256,-0.030142689123749733,0.09640587866306305,0.06839056313037872,-0.09820189327001572,-0.1686934381723404,-0.029095837846398354,-0.1142459437251091,-0.013942883349955082,-0.048857297748327255,-0.18850082159042358,-0.13077105581760406,-0.09839444607496262,-0.008938557468354702,0.051293376833200455,-0.040590912103652954,-0.10177502036094666,-0.06769818812608719,-0.08072538673877716,-0.031195688992738724,0.027747854590415955,0.01213349960744381,-0.07118939608335495,-0.09126045554876328,-0.06918884068727493,0.14203834533691406,-0.011062688194215298,0.01139063946902752,-0.0439935028553009,0.05647716671228409,-0.0013587396824732423,0.1827629804611206,-0.028478221967816353,0.05961817502975464,0.0197586826980114,0.10545884817838669,0.12693285942077637,-0.016883207485079765,0.04168807342648506,-0.025281917303800583,0.06619034707546234,0.07789332419633865,0.03430849313735962,-0.0826445072889328,0.05482150614261627,-0.0146724758669734,-0.03774678707122803,-0.10245885699987411,-0.28224804997444153,0.015220415778458118,-0.07010390609502792,0.042465418577194214,-0.1663278192281723,-0.12010837346315384,-0.04280020669102669,0.017125023528933525,-0.00041132967453449965,0.0016174380434677005,0.013939774595201015,0.03632489964365959,-0.24342404305934906,-0.23809143900871277,-0.06559298187494278,0.0824294313788414,0.19803380966186523,0.18065525591373444,0.03190753236413002,-0.04325472563505173,-0.035703208297491074,-0.06929467618465424,0.025432445108890533,0.05815521255135536,0.008365445770323277,-0.017483051866292953,-0.1063191220164299,0.08307191729545593,0.12504683434963226,-0.03598586469888687,0.007733955513685942,-0.028303606435656548,0.04820626974105835,0.07637867331504822,0.09288283437490463,0.03752683103084564,0.17545166611671448,0.1408538669347763,0.09525243192911148,0.05336436629295349,-0.05229591950774193,-0.12615633010864258,-0.023916499689221382,0.024846462532877922,0.020946966484189034,-0.023433450609445572,-0.02346690371632576,0.10077890008687973,0.0037280141841620207,-0.11622211337089539,-0.07622778415679932,0.0968511551618576,0.29027852416038513,0.23095792531967163,0.03968929871916771,-0.08676475286483765,-0.1194344013929367,0.0007800855673849583,-0.11890528351068497,-0.13990962505340576,0.3355126678943634,0.11864712089300156,0.22773674130439758,0.07249607145786285,-0.18990346789360046,-0.564846932888031,0.09428088366985321,0.0452924408018589,0.057542040944099426,0.030946701765060425,0.03089667484164238,-0.0016036995220929384,0.012237263843417168,0.19100017845630646,0.391629695892334,0.1027567982673645,-0.26764318346977234,-0.578613817691803,-0.12058132141828537,-0.17275409400463104,-0.020657086744904518,-0.053689051419496536,-0.14717158675193787,-0.3037259578704834,-0.07731857150793076,0.04037969186902046,-0.16657674312591553,-0.12516270577907562,-0.3702525496482849,-0.27478665113449097,-0.23105373978614807,-0.1769811511039734,-0.18113493919372559,-0.11182359606027603,0.06678996980190277,0.2687256634235382,0.07121928781270981,0.11876511573791504,0.08444097638130188,0.26273930072784424,0.0832354798913002,-0.36259734630584717,0.2531508505344391,0.10293882340192795,0.3201965093612671,0.35104700922966003,0.008670615963637829,-0.053818825632333755,0.07748083025217056,-0.0015613852301612496,-0.11006565392017365,-0.044079702347517014,0.045674800872802734,0.023095419630408287,-0.07081465423107147,-0.09429134428501129,-0.21347329020500183,-0.13487640023231506,-0.10723640769720078,-0.14245913922786713,0.12328024208545685,-0.16584768891334534,-0.018430722877383232,-0.005604649428278208,0.10822287946939468,0.09340936690568924,0.1585645079612732,0.008278544060885906,0.16007190942764282,0.1741156280040741,0.30760806798934937,0.3186027705669403,0.10659914463758469,0.10984034836292267,0.16616864502429962,0.10621058195829391,0.08483405411243439,0.08573020249605179,0.14590147137641907,0.14875999093055725,0.04963131248950958,0.10921287536621094,0.05770757049322128,0.09103181213140488,0.0911303237080574,0.029960094019770622,-0.057120032608509064,0.00509620038792491,0.11422805488109589,0.043427497148513794,-0.10193336755037308,-0.18329769372940063,-0.18091465532779694,-0.1980714350938797,-0.1198941171169281,-0.1283991038799286,0.32194510102272034,0.2145725041627884,0.26576751470565796,0.13597023487091064,0.049913790076971054,-0.1778990924358368,0.13888612389564514,0.1335081309080124,0.257441908121109,0.14999094605445862,0.033027153462171555,-0.005158121697604656,0.02709290012717247,-0.015483282506465912,0.21143598854541779,-0.00607130816206336,-0.13844767212867737,-0.3852808177471161,-0.17203599214553833,-0.03074698895215988,-0.19309771060943604,-0.07322382181882858,0.07336004823446274,-0.10473872721195221,-0.2299267202615738,-0.046827200800180435,-0.1300843507051468,-0.10278872400522232,-0.3991820216178894,-0.460788369178772,0.12920071184635162,0.020700732246041298,-0.03457780182361603,-0.0481148399412632,-0.024523185566067696,0.14929544925689697,0.3713322579860687,0.21459145843982697,0.36974507570266724,0.3929949402809143,0.15050408244132996,-0.10138816386461258,0.03283868357539177,0.13295462727546692,-0.061926648020744324,-0.04069282487034798,0.06641792505979538,0.022441061213612556,-0.3276810050010681,0.5309731960296631,-0.11013519018888474,0.012709402479231358,-0.21095675230026245,0.13486561179161072,-0.15553191304206848,0.32715848088264465,-0.010853465646505356,0.10685503482818604,0.007615311536937952,0.008754507638514042,-0.009948879480361938,-0.10452457517385483,-0.0013242996064946055,-0.13196532428264618,-0.46589401364326477,0.2633213698863983,0.22010521590709686,0.47339707612991333,-0.09768027812242508,-0.12385857850313187,-0.5060306787490845,-0.20738883316516876,0.45669347047805786,-0.3920789659023285,-0.10877448320388794,-0.45543575286865234,0.49312666058540344,0.21799661219120026,0.24161866307258606,-0.09294897317886353,-0.24186860024929047,0.05990181490778923,0.2335987538099289,0.0111853564158082,-0.13935767114162445,-0.08398984372615814,-0.21065419912338257,-0.20286621153354645,-0.01589968428015709,0.06638510525226593,0.1410050094127655,0.10470946878194809,-0.04696255177259445,0.0857158824801445,-0.2355644851922989,-0.07674179971218109,0.05165032297372818,-0.041745495051145554,0.13464243710041046,-0.2544978857040405,-0.026828452944755554,0.025881342589855194,0.07666647434234619,-0.09293176233768463,0.01173829659819603,0.045158710330724716,0.07911849021911621,0.014954347163438797,-0.06160145252943039,-0.03333853557705879,-0.0653543546795845,0.07951979339122772,-0.2750227749347687,0.104894258081913,0.14979323744773865,0.08467350155115128,0.1702224463224411,-0.08222413808107376,-0.37038353085517883,-0.288619726896286,-0.23283439874649048,-0.009647821076214314,0.301945298910141,-0.14412763714790344,-0.3664489686489105,-0.2911721169948578,0.16500741243362427,-0.12861622869968414,0.33971506357192993,-0.5067050457000732,-0.11698122322559357,-0.5111550688743591,-0.6706960201263428,-0.19720302522182465,-0.3047769367694855,0.3489888608455658,-0.09048672765493393,0.08945012092590332,0.07326199114322662,0.02538304217159748,0.18835215270519257,-0.24736753106117249,-0.2925415635108948,-0.06744487583637238,-0.26346808671951294,-0.18189114332199097,-0.31810176372528076,0.10719462484121323,0.0487653985619545,0.15514782071113586,0.05169227719306946,0.0870644748210907,0.008767103776335716,-0.27819883823394775,-0.19733238220214844,-0.08681944757699966,-0.06421395391225815,0.03158576786518097,-0.1434122920036316,-0.2836288511753082,0.207529678940773,-0.016733374446630478,-0.05552709847688675,-0.09388858824968338,-0.11686757206916809,-0.19978418946266174,-0.00333175016567111,0.10597825050354004,0.04838545247912407,-0.020359188318252563,0.05392024293541908,-0.05536951869726181,0.06965935975313187,-0.020589716732501984,0.041687265038490295,0.14832718670368195,0.12023107707500458,-0.06828705966472626,-0.014900906942784786,-0.01626739650964737,0.2454691082239151,0.25185108184814453,0.18607203662395477,0.1323920488357544,0.10962431877851486,0.11026624590158463,0.10668282955884933,0.11695574223995209,-0.09704422205686569,-0.3394934833049774,0.06337179988622665,0.012797022238373756,-0.18015393614768982,-0.011707066558301449,-0.20421500504016876,-0.13889721035957336,0.026323536410927773,0.03814716637134552,0.17025300860404968,0.015241025015711784,0.010280737653374672,-0.31410276889801025,0.1663108915090561,0.24541395902633667,0.20366108417510986,0.10935340076684952,0.2820468842983246,0.02515774965286255,0.04523690044879913,-0.00963073130697012,0.10489558428525925,0.13420724868774414,0.17420898377895355,0.3451823592185974,0.2073296308517456,0.049322374165058136,0.0380404070019722,0.08800026029348373,0.017467381432652473,0.2461785525083542,0.00729270838201046,-0.1482456624507904,0.05561546981334686,0.04427648335695267,-0.02027054876089096,-0.1424524039030075,0.0913972333073616,0.17898640036582947,-0.028000159189105034,0.19664767384529114,0.24462120234966278,-0.4519302546977997,0.11771273612976074,0.2748546004295349,0.37147530913352966,0.0402936115860939,0.09142901003360748,-0.2991349697113037,-0.12098662555217743,-0.039046209305524826,-0.17910584807395935,-0.2160322666168213,-0.10589894652366638,-0.2939508259296417,0.0820261538028717,0.08778177946805954,0.14260299503803253,0.1133643314242363,0.02145659178495407,-0.4339599311351776,-0.1047484427690506,-0.1283758282661438,0.06010540574789047,-0.10618577152490616,-0.16606773436069489,-0.33210936188697815,0.019550805911421776,-0.007952508516609669,-0.05350961908698082,-0.04285430163145065,-0.07556332647800446,-0.16399358212947845,-0.02419019676744938,-0.13604699075222015,-0.04983234405517578,-0.1339109092950821,-0.054180603474378586,0.1769639551639557,0.07404233515262604,0.02998926118016243,0.044804662466049194,0.0033379390370100737,0.09695861488580704,-0.2511785626411438,-0.10631069540977478,0.012460509315133095,0.031756967306137085,0.010091290809214115,0.028834305703639984,0.03826166316866875,0.0844057947397232,-0.05947140231728554,0.041693348437547684,0.015162070281803608,-0.011903280392289162,0.020491989329457283,0.05733324959874153,-0.047637272626161575,0.048221033066511154,0.11241503804922104,0.02704456076025963,0.038594819605350494,0.0537433885037899,0.09627680480480194,-0.07092424482107162,-0.08833993226289749,-0.09087800979614258,-0.19350779056549072,-0.049109045416116714,-0.08775880187749863,0.03704389929771423,-0.098734050989151,-0.05520741641521454,-0.03255169838666916,0.0726567879319191,0.04204602539539337,-0.06267709285020828,0.12092660367488861,-0.0807991772890091,-0.1679536998271942,0.06076843664050102,0.007922797463834286,0.167572021484375,0.13204963505268097,0.05444817990064621,0.03529375046491623,-0.01993144117295742,0.013406794518232346,0.12907356023788452,0.1391133964061737,0.15394923090934753,0.21963177621364594,-0.10117684304714203,-0.03046875260770321,-0.010986319743096828,-0.0010845792712643743,-0.055811021476984024,0.0173833929002285,0.022821562364697456,0.056272026151418686,-0.08087368309497833,-0.09331023693084717,0.07728417217731476,-0.23350268602371216,0.05081397667527199,-0.05703110620379448,-0.19035884737968445,-0.08735775202512741,-0.10298279672861099,-0.030341029167175293,0.14966312050819397,0.14564338326454163,0.16047422587871552,0.11070197075605392,-0.007504275534301996,-0.04442109540104866,0.16646252572536469,0.12465271353721619,0.3231562376022339,0.29163751006126404,0.2491728514432907,0.36816853284835815,0.10700652003288269,0.07888616621494293,0.13640423119068146,0.21291691064834595,0.2698279321193695,0.30410298705101013,0.13631519675254822,0.12152642011642456,0.019767116755247116,0.17448358237743378,0.07001260668039322,0.3423251509666443,-0.15314894914627075,-0.15641522407531738,-0.0516304150223732,0.05278155580163002,0.11786339432001114,0.05399719253182411,0.0006853170343674719,-0.08493372052907944,0.05493864789605141,-0.15809546411037445,-0.19508115947246552,-0.5774315595626831,0.23947058618068695,0.21659646928310394,0.35117360949516296,0.1965525895357132,0.2114947885274887,-0.4167269766330719,0.06356581300497055,0.032701727002859116,0.001770201837643981,-0.14148591458797455,-0.0740511566400528,-0.5175573825836182,0.10010246187448502,0.13519875705242157,0.21799857914447784,0.14826859533786774,0.024357814341783524,-0.323949933052063,-0.0547468475997448,-0.0765778198838234,0.021686729043722153,-0.2165682464838028,0.02749745547771454,-0.4834219217300415,-0.2245110273361206,-0.21288272738456726,-0.28653818368911743,-0.23855821788311005,-0.07897820323705673,-0.39101478457450867,-0.012470881454646587,-0.044764935970306396,-0.13795413076877594,-0.05128120258450508,-0.12052709609270096,0.2868553102016449,-0.18414892256259918,-0.1428990662097931,0.00920915324240923,-0.11884142458438873,-0.12021423876285553,-0.3028784692287445,-0.09642232209444046,-0.046527374535799026,-0.05560305342078209,-0.01804751344025135,0.10959523171186447,-0.05668087676167488,0.07716786861419678,0.08226732909679413,0.11726786941289902,-0.04339706152677536,0.11447365581989288,-0.05715619772672653,0.15076720714569092,0.1036798283457756,-0.0866507887840271,-0.04994269832968712,-0.0774490088224411,-0.3448118567466736,-0.006955212447792292,0.1449577659368515,-0.04912382736802101,0.02056874707341194,-0.037862420082092285,-0.10741680860519409,-0.0972370132803917,-0.1486644446849823,-0.12177515774965286,0.09207214415073395,-0.11664054542779922,0.08727987110614777,0.048629485070705414,0.07462522387504578,0.06096420809626579,0.16639384627342224,0.08393994718790054,-0.006030755117535591,0.05473322048783302,0.09470941126346588,-0.05137602239847183,-0.16160158812999725,0.05977236479520798,0.1476038098335266,0.019678806886076927,0.09667842090129852,-0.02628440037369728,0.005436338018625975,-0.04198210686445236,0.01110281515866518,-0.05549655482172966,0.05848105996847153,-0.04696126654744148,-0.029535803943872452,0.15537871420383453,0.14039845764636993,0.12378649413585663,0.03369975462555885,0.019657056778669357,0.11809692531824112,0.04235951602458954,0.225153848528862,0.020207101479172707,0.009681971743702888,0.15637771785259247,-0.12525665760040283,-0.29877346754074097,0.38330918550491333,-0.11202145367860794,-0.015312940813601017,-0.18752217292785645,-0.06578284502029419,-0.2113257348537445,0.14057038724422455,-0.197734072804451,-0.35035017132759094,-0.3864556550979614,-0.2592136263847351,-0.36506298184394836,-0.20645460486412048,-0.23266252875328064,-0.24805766344070435,-0.30957743525505066,-0.36459141969680786,-0.2841912508010864,-0.12584829330444336,-0.13031688332557678,0.06434795260429382,0.00015028921188786626,0.024581776931881905,0.10486353188753128,-0.22095181047916412,-0.06156884878873825,0.03763125091791153,0.09888401627540588,-0.03610610216856003,0.2754836082458496,0.1714012324810028,-0.003135876962915063,-0.09855273365974426,0.014408393763005733,-0.05737636983394623,0.004592907149344683,0.0019122809171676636,0.14669576287269592,-0.1935987025499344,0.1231435090303421,-0.16798605024814606,-0.3105253279209137,0.08495721966028214,0.015275267884135246,0.26051652431488037,0.0009286823333241045,-0.002688441425561905,-0.1231890544295311,0.035142362117767334,0.009654611349105835,-0.06198582798242569,-0.003465579356998205,0.06831519305706024,-0.10346215218305588,0.61260986328125,-0.2227284014225006,0.28247925639152527,0.6450085639953613,-0.2697432041168213,-0.02903624251484871,0.2138194441795349,0.3206349313259125,-0.6699063181877136,0.24911655485630035,0.13819843530654907,0.07078908383846283,0.06956247985363007,0.30944669246673584,-0.08394595235586166,0.04421474412083626,0.36623626947402954,-0.1044672355055809,0.47167497873306274,0.6239556074142456,-0.25834921002388,-0.09370109438896179,0.26511526107788086,0.2244739532470703,0.0827767476439476,0.10573308914899826,-0.012196204625070095,0.30945029854774475,-0.2064124047756195,-0.15938247740268707,0.25673168897628784,0.14112108945846558,-0.07347631454467773,-0.004728280007839203,0.059152133762836456,0.05429572984576225,0.06709380447864532,-0.11048880964517593,0.07101970911026001,-0.10582391172647476,-0.17993828654289246,0.23892970383167267,-0.4198465049266815,-0.47302818298339844,-0.0035061247181147337,-0.025472111999988556,-0.049502480775117874,0.22184480726718903,0.1504342406988144,-0.18982191383838654,0.08528753370046616,0.42782413959503174,-0.035987164825201035,-0.0791303887963295,0.11469775438308716,0.12773996591567993,0.2666192054748535,-0.13803011178970337,0.23649193346500397,0.09580980986356735,-0.08115734159946442,0.08811105787754059,0.10283798724412918,0.073928602039814,-0.42404764890670776,0.053724244236946106,0.33210325241088867,-0.398234486579895,0.28120943903923035,-0.38633278012275696,0.5194902420043945,0.01606491208076477,0.06163296103477478,0.11098481714725494,-0.0494656004011631,0.017467902973294258,0.16950662434101105,-0.022872433066368103,-0.004369284491986036,0.0917469933629036,-0.09016087651252747,-0.08070133626461029,0.058870743960142136,-0.047042589634656906,-0.0281366053968668,-0.026423374190926552,-0.014521008357405663,-0.12090408056974411,-0.24607600271701813,0.023017801344394684,-0.026532553136348724,-0.017476454377174377,0.04289844632148743,0.07998223602771759,-0.46332553029060364,0.09599985927343369,0.07649797946214676,0.022751303389668465,0.029902778565883636,-0.01932528242468834,0.06028246879577637,-0.007981874980032444,0.003790989750996232,0.034335047006607056,0.063820980489254,0.19994838535785675,0.24448326230049133,-0.012471121735870838,-0.08959896117448807,-0.07545477151870728,0.041774846613407135,0.08313273638486862,0.3385801315307617,0.03338386490941048,0.025439372286200523,0.02235371805727482,0.029039472341537476,-0.06396537274122238,-0.23113422095775604,0.04017173871397972,0.020761309191584587,0.01943178102374077,-0.07617016136646271,-0.30947262048721313,0.37726932764053345,0.05818771570920944,0.060269638895988464,0.11337568610906601,0.042403269559144974,-0.2034912109375,-0.11447245627641678,0.03944704309105873,-0.011811364442110062,0.13333182036876678,-0.036559123545885086,-0.260812371969223,0.17688225209712982,0.04774222522974014,0.08605724573135376,-0.01654965989291668,-0.15680435299873352,-0.1314634084701538,0.1526530534029007,-0.061466801911592484,-0.09074200689792633,-0.10105396807193756,-0.08358892053365707,0.033901721239089966,-0.013218818232417107,0.04365066811442375,-0.0007028678082861006,0.009588133543729782,0.07254306226968765,0.32493749260902405,-0.20890174806118011,-0.10354582965373993,-0.08221548795700073,-0.13767190277576447,-0.0933089405298233,-0.2772926092147827,0.10980883240699768,0.005126201082020998,0.08811263740062714,-0.09936004132032394,-0.09001022577285767,-0.07735664397478104,0.3747020363807678,0.009443501941859722,-0.027145564556121826,-0.06303086876869202,0.07011868059635162,-0.025048742070794106,0.10664588212966919,-0.004639995750039816,-0.0075699277222156525,-0.0721149891614914,-0.15373124182224274,0.09250155836343765,-0.13682153820991516,-0.04581237584352493,0.0407073050737381,0.06343351304531097,-0.01593463122844696,0.02747833915054798,0.1006489098072052,0.007662872783839703,0.032366152852773666,-0.015375213697552681,-0.03820730373263359,0.07326584309339523,0.19458097219467163,0.018821490928530693,0.13749457895755768,0.05945896729826927,0.17346231639385223,0.20759917795658112,0.05878506228327751,-0.0393005833029747,0.10334791243076324,0.016602136194705963,0.023342452943325043,0.03593946620821953,-0.08467362821102142,0.026386473327875137,0.01976410299539566,0.05259634926915169,0.03511683642864227,0.10260052233934402,-0.20619302988052368,0.005601443350315094,-0.009531520307064056,0.03406465798616409,-0.08125964552164078,-0.1003226786851883,-0.6406925916671753,0.08417744934558868,-0.02979939803481102,0.015671400353312492,0.12226187437772751,0.13637620210647583,0.0025948891416192055,0.02729591727256775,-0.18447034060955048,-0.12538863718509674,-0.146835058927536,-0.03167371451854706,0.08641605824232101,-0.08817394822835922,-0.07415876537561417,-0.047039832919836044,-0.012789623811841011,0.1396670937538147,-0.18451128900051117,0.06751636415719986,-0.01086726039648056,-0.012952598743140697,-0.13775032758712769,-0.04539872333407402,-0.12249718606472015,0.06148134544491768,-0.12147994339466095,0.05163193121552467,0.010186370462179184,-0.019775955006480217,0.06479920446872711,0.04256007447838783,-0.08942290395498276,-0.07428281754255295,0.02879270724952221,0.04497827962040901,0.030475694686174393,-0.04197658598423004,0.025851963087916374,-0.05642083287239075,-0.12600719928741455,0.014645768329501152,-0.28386619687080383,0.04066821560263634,0.10069206357002258,0.07445438951253891,-0.033654119819402695,0.16215281188488007,0.21824365854263306,0.0017388842534273863,0.03492334857583046,-0.04141978546977043,0.06920036673545837,0.2404574453830719,-0.2439083307981491,-0.006577761378139257,0.0019520740024745464,-0.19100967049598694,-0.04587365686893463,0.15492023527622223,-0.11974930018186569,0.007306158542633057,-0.011607246473431587,-0.06835365295410156,0.09270067512989044,0.12021450698375702,-0.2836725413799286,0.006938256788998842,0.04634278640151024,0.08053935319185257,-0.061755675822496414,0.008322099223732948,-0.18761026859283447,-0.038995712995529175,0.11182901263237,0.002738209906965494,-0.12450883537530899,-0.07497163861989975,0.007545047905296087,0.05150415003299713,0.08889778703451157,0.11105358600616455,-0.2063523381948471,-0.1146218553185463,0.17510181665420532,0.019725382328033447,0.009763425216078758,0.08030641078948975,-0.06870727986097336,0.019338002428412437,-0.17864654958248138,-0.02100379392504692,-0.0041294279508292675,0.12327846884727478,0.19191806018352509,0.21115723252296448,0.2538793385028839,0.012141414918005466,0.01380794309079647,0.09021122753620148,-0.0030292191077023745,0.034354742616415024,0.1275121420621872,0.011408639140427113,-0.07864592224359512,-0.03823003172874451,-0.17586933076381683,-0.17521698772907257,-0.1998065859079361,-0.008567094802856445,-0.020493457093834877,-0.06112106516957283,0.04765833914279938,-0.11922283470630646,0.0789637416601181,-0.0372307151556015,-0.004973219707608223,-0.07276032865047455,-0.12296201288700104,-0.07201036065816879,-0.4560297131538391,0.15418092906475067,0.027142738923430443,0.12461841851472855,0.0027484544552862644,-0.004411270376294851,-0.06163874641060829,-0.04988284036517143,0.009056986309587955,-0.04224531725049019,-0.009778380393981934,-0.07214801758527756,-0.13521654903888702,0.034836988896131516,-0.020511476323008537,-0.11615107953548431,-0.13392974436283112,-0.20674170553684235,-0.1309434026479721,0.022099537774920464,0.048904627561569214,0.10776501148939133,0.06651616841554642,0.051333073526620865,0.19920925796031952,0.003119348781183362,0.014907779172062874,-0.09393969178199768,0.005956864450126886,-0.029412487521767616,0.004122117068618536,0.027275297790765762,-0.006124475970864296,0.03532605990767479,0.019505199044942856,-0.043593067675828934,-0.25668734312057495,0.025093629956245422,0.06505971401929855,0.1909140795469284,-0.017412154003977776,-0.06888645887374878,0.0947502925992012,-0.007892923429608345,-0.008883321657776833,-0.06937345117330551,-0.04677383974194527,0.015158961527049541,0.008459053002297878,0.029094107449054718,0.09298357367515564,-0.09223370254039764,-0.04661546275019646,0.1988515704870224,0.37670251727104187,-0.012169092893600464,0.06113692745566368,-0.03548335283994675,-0.04579266533255577,0.08631231635808945,0.06267894059419632,-0.0027368913870304823,-0.053824201226234436,0.01147532556205988,-0.12169986218214035,-0.12129887193441391,0.6472033858299255,-0.008189651183784008,0.01856505498290062,-0.07890934497117996,0.046979017555713654,-0.27792444825172424,-0.02662860043346882,0.06805295497179031,-0.009357914328575134,0.055475953966379166,0.08920449763536453,0.13300997018814087,0.1707262098789215,0.02062210440635681,0.023089293390512466,0.042404405772686005,0.12424173206090927,0.16209277510643005,-0.015932822600007057,-0.049876827746629715,-0.04064876586198807,0.015068257227540016,-0.07357720285654068,-0.09432130306959152,0.10754741728305817,-0.013578260317444801,0.005603539291769266,-0.027681393548846245,0.05122658610343933,-0.09885977953672409,0.0669708251953125,0.05996635556221008,-0.02796393260359764,-0.030477024614810944,-0.03389608860015869,-0.1325981169939041,0.31182244420051575,-0.02323889173567295,-0.04034807160496712,0.030564742162823677,-0.007389347534626722,0.028419392183423042,0.1812649816274643,-0.07690401375293732,0.047572195529937744,-0.0062637850642204285,0.04753682017326355,0.09333394467830658,0.4535024166107178,0.021968945860862732,0.046196796000003815,-0.009790536016225815,-0.013155047781765461,-0.06868519634008408,-0.07001987844705582,0.1377304643392563,0.19089244306087494,-0.015116230584681034,0.15697386860847473,0.21082596480846405,-0.10119275003671646,-0.8149306774139404,0.13579894602298737,0.014609413221478462,0.1351533979177475,0.003173024859279394,-0.00824611634016037,-0.006069446913897991,0.01825167052447796,-0.0011164533207193017,-0.015960361808538437,0.01816624216735363,0.24780240654945374,0.08332818746566772,0.07231739908456802,0.03487624228000641,0.08493750542402267,-0.28520938754081726,-0.3180336058139801,0.05838843807578087,-0.2607361078262329,-0.12660756707191467,0.2248719185590744,0.22210626304149628,0.16073748469352722,0.4020925760269165,0.04703284054994583,0.6721072196960449,0.07025591284036636,0.1353609412908554,0.10455692559480667,0.11600972712039948,0.3774586319923401,-0.281249076128006,-0.35987094044685364,0.3520500361919403,-0.4407215416431427,-0.31340134143829346,0.008004256524145603,0.16874901950359344,0.07907403260469437,0.17079965770244598,-0.1444365531206131,0.017462631687521935,-0.1674581915140152,-0.04792742803692818,-0.18623562157154083,-0.022382762283086777,-0.32760775089263916,0.19471603631973267,-0.04942966252565384,-0.5607569217681885,0.01935052126646042,0.13674522936344147,0.030038978904485703,-0.16084633767604828,-0.16147221624851227,0.18950152397155762,0.14245471358299255,0.1792382299900055,0.1237105280160904,0.12874816358089447,0.14947795867919922,-0.010451952926814556,0.3021772503852844,-0.5151270031929016,0.0006100878235884011,0.33704450726509094,0.19895243644714355,0.4722420275211334,-0.3313751220703125,-0.32557016611099243,-0.029825884848833084,-0.35831645131111145,-0.03710857778787613,-0.1770637184381485,-0.09459837526082993,-0.22817382216453552,0.30289554595947266,0.09974074363708496,-0.03970738872885704,-0.17232593894004822,0.03159501776099205,-0.015065592713654041,0.05267483741044998,-0.010973229072988033,0.05398457124829292,-0.07495114952325821,-0.16816765069961548,0.00455595925450325,0.037701960653066635,0.0019427493680268526,0.0663166344165802,0.02924632467329502,-0.26093149185180664,-0.03249065577983856,-0.04335060343146324,0.019201815128326416,-0.0332910530269146,-0.03686299920082092,0.19949758052825928,0.013242965564131737,0.004518245812505484,0.007861132733523846,-0.0006809918559156358,-0.19778817892074585,0.16570445895195007,-0.026851080358028412,-0.0396282859146595,-0.02263829857110977,-0.07328709959983826,-0.11829123646020889,-0.060565169900655746,-0.030883396044373512,-0.013188635930418968,-0.006889570038765669,0.03323075920343399,-0.25273191928863525,0.008201912976801395,0.0032247407361865044,-0.053387600928545,-0.010265457443892956,-0.01627350226044655,-0.11255092918872833,0.10460712015628815,0.04885607957839966,0.02830597572028637,0.009756366722285748,0.02894509956240654,-0.03813806176185608,-0.03486001864075661,-0.07201389968395233,-0.09819785505533218,-0.05066458508372307,-0.1069192960858345,-0.03788129240274429,-0.09718271344900131,-0.044812075793743134,-0.009776080027222633,0.033919528126716614,-0.08008269965648651,0.07324909418821335,-0.14756281673908234,0.041610535234212875,0.05995314195752144,0.14749008417129517,0.010177724063396454,0.07510456442832947,0.04409079626202583,0.06814230978488922,-0.06672019511461258,-0.1548195630311966,-0.19410422444343567,-0.1272498071193695,0.06855534762144089,-0.1306283175945282,-0.12262587249279022,-0.09307728707790375,-0.07363784313201904,-0.12156450003385544,0.1320926994085312,-0.004892424680292606,-0.08035017549991608,0.08678469061851501,-0.14385733008384705,0.05779220163822174,-0.20144298672676086,0.02911103516817093,0.1509074717760086,0.0727120041847229,0.07200191169977188,0.04887096956372261,-0.2333495020866394,-0.01193556934595108,-0.014796193689107895,-0.10887083411216736,0.1976446807384491,-0.12073349952697754,0.062231555581092834,0.005665144883096218,-0.014150295406579971,-0.014607660472393036,-0.006269802339375019,0.05955888330936432,-0.024943090975284576,0.010218755342066288,-0.002467377809807658,-0.012741662561893463,-0.010881847701966763,-0.028670059517025948,0.18454281985759735,-0.019140295684337616,-0.04092370346188545,0.025282299146056175,0.018092477694153786,-0.0665784403681755,-0.03692937269806862,0.011029347777366638,-0.07009486854076385,-0.04397666081786156,0.05620023235678673,0.09570114314556122,0.10827276110649109,0.03520219400525093,0.014254555106163025,0.10916344821453094,-0.060136716812849045,-0.09977147728204727,0.061740975826978683,0.04904615879058838,-0.07323328405618668,0.07753696292638779,0.0036478773690760136,-0.025626635178923607,-0.1474369615316391,0.05443218722939491,0.03353899344801903,-0.01669418439269066,-0.0036156768910586834,0.0024421983398497105,-0.20556184649467468,0.006971608381718397,0.03135558217763901,-0.0030272696167230606,0.03012830577790737,0.09920726716518402,-0.21534067392349243,-0.023988019675016403,0.011547076515853405,-0.020680991932749748,-0.09168131649494171,0.0041588833555579185,-0.14999133348464966,-0.0052293590269982815,0.012433386407792568,0.003874365705996752,0.004711931571364403,-0.011978883296251297,0.0358913391828537,-0.02583303675055504,-0.03166632726788521,0.027266081422567368,0.07986387610435486,0.1268376260995865,-0.2179146111011505,-0.0017247764626517892,0.029811929911375046,-0.0076419999822974205,0.06382821500301361,0.18697209656238556,0.1275574266910553,-0.001574795925989747,-0.06298304349184036,-0.10102491825819016,-0.2552371621131897,-0.2647961378097534,-0.09681190550327301,-0.08130491524934769,-0.023396532982587814,-0.019636457785964012,0.004217989277094603,-0.01047956570982933,-0.10333433002233505,0.03386698663234711,-0.006514254957437515,0.04762818291783333,0.07677455246448517,0.12307866662740707,0.057012367993593216,0.031630199402570724,0.013917763717472553,-0.034381203353405,0.008957814425230026,-0.002373228082433343,0.42285993695259094,0.02713223360478878,-0.0336245633661747,-0.03280504420399666,-0.03543434292078018,-0.0056641586124897,0.04496226832270622,0.0021011484786868095,-0.010976850986480713,-0.0020056625362485647,-0.035759441554546356,0.0062051271088421345,-0.04300931841135025,-0.03869042173027992,0.02021937072277069,0.08661533147096634,0.05122850835323334,-0.07379209250211716,-0.05024583265185356,0.02528252638876438,0.03453625366091728,-0.0388268381357193,0.024691568687558174,0.05361521244049072,0.10741052031517029,-0.050525542348623276,0.022699227556586266,-0.040632788091897964,0.09715212881565094,0.03399454429745674,0.2410050630569458,-0.06420401483774185,0.04091757908463478,0.05231521278619766,0.09285493940114975,0.02703804336488247,0.3615379333496094,0.004560171626508236,0.070415198802948,0.004668234381824732,-0.021841565147042274,0.1570623219013214,-0.2518843114376068,-0.00017379621567670256,-0.008013138547539711,-0.04436645284295082,-0.005857148673385382,-0.002549427794292569,-0.2611360251903534,-0.019631240516901016,0.015547174960374832,-0.02282273769378662,0.0280027873814106,0.1458527147769928,0.5333868265151978,-0.005434648599475622,0.004221182782202959,-0.008024810813367367,0.028371812775731087,0.06069242209196091,0.44974878430366516,0.033487848937511444,-0.005075002554804087,0.04339226707816124,-0.007973145693540573,-0.09660374373197556,0.2597523033618927,-0.02986249513924122,-0.020041223615407944,-0.027685288339853287,-0.019559301435947418,0.02238135039806366,-0.09477704763412476,0.032092612236738205,0.005132302176207304,0.027236836031079292,-0.02608875185251236,-0.02834746427834034,0.2941858470439911,-0.013883345760405064,-0.02966003306210041,-0.018133044242858887,0.012230955995619297,-0.05670999363064766,-0.16954118013381958,0.03720240294933319,-0.0032950635068118572,0.023263579234480858,-0.025802018120884895,-0.055025309324264526,-0.5485785007476807,-0.03186006844043732,-0.01647515594959259,-0.03282700851559639,-0.000783354917075485,0.009529230184853077,0.1340397447347641,0.01990748569369316,0.012774324975907803,-0.024081047624349594,-0.02698839269578457,-0.1538722813129425,0.10985199362039566,-0.000276371807558462,0.0017560940468683839,-0.010755354538559914,-0.019440732896327972,-0.1673109233379364,0.14944714307785034,-0.02636086568236351,0.010905900970101357,0.03663570433855057,0.020737506449222565,0.08670786768198013,0.08681593835353851,0.03296875208616257,-0.027610749006271362,-0.013190656900405884,-0.01093041617423296,-0.09625200182199478,0.2977319657802582,0.004849943798035383,0.11046458035707474,0.0710926279425621,0.07141605019569397,0.27662134170532227,0.6161400675773621,0.003708191914483905,0.007879498414695263,0.007588139269500971,0.009732211008667946,0.17418073117733002,-0.1475624293088913,-0.018040437251329422,-0.006547568831592798,0.005946149583905935,0.03416508436203003,0.11323637515306473,-0.055012572556734085,0.007732992060482502,-0.00833925325423479,-0.010335634462535381,-0.01904146932065487,-0.04590144380927086,-0.5586548447608948,-0.09346393495798111,-0.05992038920521736,-0.018206948414444923,-0.0029227740596979856,0.028200648725032806,-0.09125196933746338,-0.05728522315621376,-0.012898913584649563,0.028685536235570908,0.012270752340555191,-0.1461057811975479,-0.2274489402770996,0.09240754693746567,0.05052494630217552,-0.012683290988206863,0.007079228758811951,-0.005597994197160006,0.08368125557899475,-0.04248512163758278,-0.0688256099820137,-0.09710396826267242,-0.08242174237966537,-0.047724708914756775,-0.03000566177070141,-0.03567308187484741,-0.12277074158191681,-0.14206303656101227,-0.15303483605384827,-0.16574357450008392,-0.011760911904275417,-0.07106178998947144,-0.07361778616905212,-0.04445257782936096,-0.014667389914393425,-0.12668128311634064,-0.2799205482006073,0.02715262956917286,0.04096366465091705,0.07457467168569565,0.056259673088788986,0.1417914181947708,-0.1607576310634613,-0.05434293672442436,-0.04407607391476631,-0.011900591664016247,-0.04329826310276985,0.041463784873485565,-0.05791201815009117,0.029919752851128578,-0.1344873458147049,-0.039172034710645676,0.0763947144150734,-0.15337473154067993,-0.01397282537072897,-0.4616413414478302,0.010683998465538025,0.03535609319806099,-0.005184314679354429,-0.003941466100513935,-0.03937254473567009,0.015375693328678608,-0.037872154265642166,0.006965035106986761,0.004525524564087391,0.21542343497276306,0.07864465564489365,-0.2751357853412628,-0.025630544871091843,0.187286838889122,-0.44692376255989075,0.19780753552913666,0.0436423234641552,0.09225688129663467,0.2645222246646881,0.09445243328809738,0.09868043661117554,-0.06606032699346542,-0.2502773702144623,-0.5724100470542908,0.3415081202983856,0.00560131948441267,-0.19559518992900848,-0.009786504320800304,-0.031189676374197006,0.2999473214149475,-0.5732375383377075,0.044194649904966354,-0.1070178747177124,-0.08906315267086029,-0.21689406037330627,0.17279525101184845,-0.2765517830848694,-0.0633355975151062,-0.10206585377454758,-0.4009534418582916,0.02264976315200329,0.1217384859919548,-0.1303836554288864,0.033607013523578644,-0.14522746205329895,0.018313013017177582,0.015377327799797058,-0.11564119905233383,0.05768761783838272,0.028423268347978592,0.25963500142097473,0.23544900119304657,0.18586909770965576,-0.34268996119499207,0.18887604773044586,0.10999447107315063,0.21758419275283813,0.3114043176174164,0.32093673944473267,0.10348095744848251,-0.28304845094680786,0.2236219197511673,-0.1329493671655655,0.29442650079727173,0.34696394205093384,0.254839152097702,-0.2119699865579605,-0.04472808912396431,-0.283078134059906,0.2767283022403717,-0.2154652178287506,0.53080153465271,0.012745855376124382,0.2703913450241089,-0.05486283078789711,-0.20531970262527466,0.23180890083312988,0.018955213949084282,0.004165582824498415,0.12479623407125473,0.27691495418548584,-0.04723623767495155,-0.015926022082567215,-0.0010725612519308925,0.005848890636116266,-0.02494811825454235,-0.03313542157411575,-0.1143215075135231,-0.08296892046928406,-0.07486221194267273,0.006355669815093279,0.047067973762750626,-0.07408217340707779,0.0021104742772877216,-0.057053785771131516,0.003958570770919323,-0.025196988135576248,-0.0247479397803545,-0.10567818582057953,0.07458692789077759,0.11129787564277649,0.09336160868406296,0.02271082065999508,0.010633005760610104,0.06863291561603546,-0.02004862204194069,0.0010796647984534502,0.04007842764258385,0.04819110035896301,-0.023544376716017723,-0.047428689897060394,-0.04968149587512016,-0.033554401248693466,-0.05828484892845154,-0.1191636472940445,-0.18451884388923645,-0.008221312426030636,-0.12649568915367126,-0.21416646242141724,-0.1786162108182907,-0.09571412950754166,-0.040087927132844925,0.003393537597730756,0.03185276687145233,0.08520669490098953,0.005548020824790001,0.054628536105155945,0.11787943542003632,0.14459636807441711,0.03736552596092224,0.006055619101971388,0.008927403017878532,-0.014192454516887665,-0.036912959069013596,-0.04376863315701485,0.01423999946564436,-0.0038672597147524357,-0.0018058365676552057,-0.029782451689243317,-0.048775460571050644,-0.27554380893707275,-0.03707261011004448,0.0003123018250335008,0.029992936179041862,0.029438946396112442,0.0673375353217125,0.22571951150894165,-0.043447963893413544,0.013564798049628735,-0.06782853603363037,-0.022009560838341713,-0.060857586562633514,0.3749644160270691,0.08515903353691101,0.0021526035852730274,0.13366256654262543,0.0949823185801506,0.029839545488357544,-0.13066205382347107,-0.0570191815495491,-0.00528361601755023,-0.06179031357169151,-0.05349480360746384,-0.023703696206212044,-0.08684390038251877,-0.011107462458312511,-0.02016744762659073,-0.055221911519765854,-0.07335294038057327,-0.04372032359242439,0.3882949650287628,-0.010722680948674679,-0.008215827867388725,-0.02609768882393837,0.010867137461900711,-0.06534113734960556,0.06471826136112213,0.020464716479182243,-0.00012469262583181262,0.007894397713243961,0.04669276252388954,0.10021629929542542,0.2129281461238861,0.025764768943190575,0.02179582789540291,0.02395855449140072,0.051848847419023514,0.09646875411272049,0.28964710235595703,0.015263853594660759,0.02485373616218567,0.007853755727410316,0.016601983457803726,-0.08991488069295883,0.11966715008020401,-0.04850853607058525,-0.007407840806990862,-0.05591442808508873,-0.07249336689710617,-0.010294066742062569,-0.08387799561023712,0.06501082330942154,-0.028662990778684616,0.062200307846069336,0.051869891583919525,0.08060120791196823,0.19292543828487396,0.012510606087744236,-0.02469814568758011,-0.040127944201231,-0.006157425697892904,0.005153006874024868,-0.5645551085472107,-0.00792023167014122,-0.008058186620473862,0.05840024724602699,0.0453171506524086,0.024208562448620796,0.047563035041093826,-0.015949256718158722,-0.01180941704660654,-0.033964063972234726,-0.05679944530129433,-0.002127602929249406,-0.18138252198696136,0.016297370195388794,0.008387098088860512,0.05895581841468811,0.016959160566329956,-0.04058795049786568,-0.053440582007169724,0.028684070333838463,0.05183497071266174,0.06023743748664856,0.047926802188158035,0.0152314193546772,0.07061547785997391,0.057783469557762146,0.0174642875790596,0.02306664176285267,0.006631024181842804,0.03694945573806763,-0.2408842295408249,-0.01605590432882309,-0.003550636814907193,0.01003799494355917,-0.007352855522185564,-0.05153781548142433,0.270193487405777,-0.05264483019709587,-0.1214580237865448,-0.04615697264671326,-0.07472299784421921,-0.11953256279230118,0.3429051637649536,0.08543452620506287,0.0349419079720974,0.10522175580263138,0.059984736144542694,-0.003267772262915969,-0.27162089943885803,-0.02861403487622738,0.042530279606580734,-0.019069338217377663,0.08619803190231323,0.11362069845199585,0.012647616676986217,-0.010066981427371502,-0.005764000583440065,-0.025427358224987984,-0.027283238247036934,-0.0044072759337723255,0.2822503447532654,-0.0612419955432415,0.022884324193000793,-0.010033589787781239,0.035602468997240067,-0.010332869365811348,0.0035447736736387014,-0.05432083457708359,-0.01252344623208046,-0.05954817309975624,0.01669595204293728,-0.019429335370659828,-0.04148367792367935,0.099373459815979,-0.028454044833779335,-0.011542350985109806,-0.09957176446914673,-0.03993861749768257,0.03583367168903351,0.03162195160984993,0.015526056289672852,0.001668404322117567,0.03369726613163948,-0.01065736822783947,0.20271703600883484,-0.10085804760456085,0.09828530251979828,-0.011758103035390377,-0.0254281647503376,0.1504962146282196,-0.05021978169679642,0.12233982980251312,0.04896828159689903,-0.02821441739797592,-0.010401287116110325,-0.01725182682275772,0.11050882935523987,-0.05308928340673447,-0.05925409868359566,-0.03764846548438072,0.03242889419198036,-0.020929502323269844,-0.20247438549995422,-0.024520039558410645,0.01927611604332924,-0.020758461207151413,0.015219527296721935,0.032300662249326706,-0.11288252472877502,-0.0014336220920085907,-0.05493287742137909,-0.00030294046155177057,0.050905633717775345,0.06781849265098572,-0.07864049077033997,0.04168687015771866,0.007386239245533943,0.056913044303655624,0.13417775928974152,0.12691818177700043,-0.043316010385751724,0.016452454030513763,0.10422960668802261,0.09878764301538467,0.026023395359516144,-0.06955856829881668,0.09261170029640198,-0.02655242756009102,-0.08501742780208588,-0.03160031512379646,-0.0883307084441185,-0.01648254692554474,-0.15459230542182922,-0.008588219992816448,0.06228204816579819,-0.11596839129924774,-0.055067356675863266,-0.13940224051475525,-0.06400611251592636,0.035146165639162064,-0.04055856168270111,0.18012793362140656,0.09923497587442398,0.0259565319865942,0.3217395544052124,0.05271125212311745,0.06925410032272339,0.08116326481103897,0.11823933571577072,0.200190007686615,-0.09792163223028183,-0.00243855407461524,-0.05302335321903229,-0.03277750685811043,-0.010243630968034267,-0.03153500333428383,0.1718980073928833,0.02479439787566662,-0.04784237593412399,-0.012596853077411652,0.07161299884319305,-0.02041766606271267,-0.19816766679286957,-0.0018029186176136136,-0.03513338044285774,-0.05014364793896675,0.0063627795316278934,-0.06896985322237015,0.21364910900592804,-0.05886191874742508,0.06004076078534126,-0.0050075664184987545,-0.14965678751468658,-0.055586084723472595,-0.0022503978107124567,0.03510422632098198,-0.02066492661833763,0.06605307757854462,0.05204295367002487,-0.03052111156284809,0.4567160904407501,0.03757106512784958,0.06012645363807678,-0.07491464912891388,0.023391542956233025,0.154988095164299,0.07937563955783844,-0.006870731245726347,0.025305531919002533,0.04907100647687912,0.03259650617837906,-0.024540549144148827,-0.037624407559633255,-0.0037845114711672068,0.003135202918201685,-0.027791066095232964,-0.023639388382434845,-0.06349090486764908,-0.16868151724338531,0.022758658975362778,0.007588184904307127,-0.0009857501136139035,0.05261227488517761,0.044893957674503326,-0.12365567684173584,-0.012142949737608433,-0.0020570792257785797,-0.008833559229969978,-0.01965966634452343,0.0016120540676638484,0.005159292835742235,0.015822583809494972,-0.001183758839033544,0.025065388530492783,-0.0019051303388550878,0.03743183985352516,0.42489632964134216,0.030891479924321175,-0.036573223769664764,0.01534741185605526,-0.007914143614470959,-0.0530451200902462,-0.023224785923957825,0.013593613170087337,0.0012917398707941175,-0.003475067438557744,0.019491372630000114,0.0037604328244924545,0.02155608870089054,0.013651338405907154,-0.025937533006072044,-0.018478618934750557,-0.06649529933929443,-0.11390207707881927,-0.030727770179510117,0.1063961386680603,0.009482978843152523,0.08616088330745697,0.1010335311293602,0.10425989329814911,-0.12141819298267365,0.040841080248355865,0.06639084964990616,0.03753414750099182,0.08045810461044312,0.13520027697086334,-0.21311485767364502,0.00027651849086396396,-0.0008031942415982485,0.048054058104753494,0.007899129763245583,0.018072044476866722,-0.09668280184268951,0.0010659084655344486,-0.23766039311885834,-0.05004836991429329,-0.05945548415184021,0.08326838910579681,-0.0432521253824234,0.012780715711414814,0.03556421771645546,0.009218733757734299,