{"version":"0.7.0","architecture":"SlimmableContainer","config":{"submodels":[{"max_value":0.5,"model":{"version":"0.7.0","metadata":{"date":{"year":2026,"month":5,"day":14,"hour":18,"minute":24,"second":26},"loudness":-16.462656021118164,"gain":0.8470472733099048},"architecture":"WaveNet","config":{"layers":[{"input_size":1,"condition_size":1,"head":{"out_channels":1,"kernel_size":16,"bias":true},"channels":3,"kernel_sizes":[6,6,6,6,6,6,6,6,6,6,6,6,6,6,15,15,6,6,6,6,6,6,6],"dilations":[1,3,7,17,41,101,239,1,3,7,17,41,101,239,1,13,1,3,7,17,41,101,239],"activation":[{"type":"LeakyReLU","negative_slope":0.01},{"type":"LeakyReLU","negative_slope":0.01},{"type":"LeakyReLU","negative_slope":0.01},{"type":"LeakyReLU","negative_slope":0.01},{"type":"LeakyReLU","negative_slope":0.01},{"type":"LeakyReLU","negative_slope":0.01},{"type":"LeakyReLU","negative_slope":0.01},{"type":"LeakyReLU","negative_slope":0.01},{"type":"LeakyReLU","negative_slope":0.01},{"type":"LeakyReLU","negative_slope":0.01},{"type":"LeakyReLU","negative_slope":0.01},{"type":"LeakyReLU","negative_slope":0.01},{"type":"LeakyReLU","negative_slope":0.01},{"type":"LeakyReLU","negative_slope":0.01},{"type":"LeakyReLU","negative_slope":0.01},{"type":"LeakyReLU","negative_slope":0.01},{"type":"LeakyReLU","negative_slope":0.01},{"type":"LeakyReLU","negative_slope":0.01},{"type":"LeakyReLU","negative_slope":0.01},{"type":"LeakyReLU","negative_slope":0.01},{"type":"LeakyReLU","negative_slope":0.01},{"type":"LeakyReLU","negative_slope":0.01},{"type":"LeakyReLU","negative_slope":0.01}],"bottleneck":3,"head1x1":{"active":false,"out_channels":1,"groups":1},"layer1x1":{"active":true,"groups":1},"groups_input":1,"groups_input_mixin":1,"conv_pre_film":{"active":false,"shift":true,"groups":1},"conv_post_film":{"active":false,"shift":true,"groups":1},"input_mixin_pre_film":{"active":false,"shift":true,"groups":1},"input_mixin_post_film":{"active":false,"shift":true,"groups":1},"activation_pre_film":{"active":false,"shift":true,"groups":1},"activation_post_film":{"active":false,"shift":true,"groups":1},"layer1x1_post_film":{"active":false,"shift":true,"groups":1},"head1x1_post_film":{"active":false,"shift":true,"groups":1},"gating_mode":["none","none","none","none","none","none","none","none","none","none","none","none","none","none","none","none","none","none","none","none","none","none","none"],"secondary_activation":[null,null,null,null,null,null,null,null,null,null,null,null,null,null,null,null,null,null,null,null,null,null,null],"slimmable":null}],"head":null,"head_scale":0.013759566065283583},"weights":[-9.366345405578613,-9.767499923706055,-3.188270330429077,2.237119436264038,0.5503944158554077,-0.8839613199234009,-2.316572427749634,-2.5845754146575928,-2.5059564113616943,2.589690685272217,0.5587983727455139,-0.6496121287345886,-2.566541910171509,-2.744588613510132,-2.71113657951355,1.4913488626480103,0.25893348455429077,-0.41475632786750793,-1.4997793436050415,-1.6380093097686768,-1.6126620769500732,2.164022207260132,0.5011815428733826,-1.060886263847351,-3.0170400142669678,-3.5331029891967773,-3.6719675064086914,2.3648478984832764,0.24202114343643188,-1.029668927192688,-3.02414608001709,-3.370208740234375,-3.75681471824646,1.3028539419174194,0.06621266156435013,-0.652278482913971,-1.97676682472229,-2.358579397201538,-2.4452805519104004,-0.8706313967704773,-0.5083267092704773,0.11484746634960175,-0.049318891018629074,-0.04362021014094353,0.5361818075180054,-0.9365612268447876,-0.6174361109733582,0.12058497965335846,-0.0496203750371933,0.15701739490032196,0.5629781484603882,-0.37930071353912354,-0.3060062527656555,0.09914553165435791,0.0286477729678154,0.014753253199160099,0.25459548830986023,16.765487670898438,15.031217575073242,-0.5149258971214294,0.905421793460846,1.217041015625,-0.17141734063625336,-2.500643253326416,-3.660520553588867,-1.050795078277588,-2.1954002380371094,-3.563491106033325,-1.277251124382019,2.5735204219818115,1.7977142333984375,-1.0815718173980713,1.2456488609313965,1.0489113330841064,2.0161352157592773,-0.040324997156858444,-0.25362497568130493,-0.25631430745124817,-0.23467104136943817,0.1778210997581482,0.4850687086582184,-0.08831055462360382,-0.2495466023683548,-0.22089536488056183,-0.16167566180229187,0.09720108658075333,0.5966006517410278,-0.5096437335014343,-0.55380779504776,-0.6750144958496094,-0.7705370187759399,-0.9725671410560608,-1.190698266029358,-0.15336734056472778,-0.12292136996984482,0.061474163085222244,-0.046197470277547836,0.28230804204940796,0.12444765865802765,-0.18665720522403717,0.04056532680988312,0.0647697001695633,0.17110522091388702,0.3951147198677063,0.49026498198509216,0.41358187794685364,0.2603824734687805,0.21367470920085907,0.451429158449173,0.1465035378932953,0.3485400974750519,0.26527121663093567,0.03333422541618347,0.0028502242639660835,0.014372534118592739,-0.097541943192482,0.026138262823224068,0.226781964302063,-0.03020470030605793,0.18341274559497833,0.10578261315822601,0.038359761238098145,0.091093048453331,0.07948333024978638,-0.02768602967262268,0.1696752905845642,0.255365252494812,0.3767836391925812,0.4752972424030304,-0.06575645506381989,1.4544098377227783,0.2336963266134262,0.04739408195018768,-3.8252339363098145,5.277815341949463,-1.5232117176055908,1.0612890720367432,-0.9412065148353577,-0.5761483907699585,0.4056377410888672,-0.9990754723548889,-0.05616540461778641,-0.2659243643283844,0.8054893612861633,1.2979251146316528,0.48664912581443787,1.2696036100387573,-0.022659393027424812,0.10083628445863724,0.024959350004792213,-0.264558881521225,0.03816754370927811,0.5064259767532349,0.06347095966339111,-0.22157326340675354,-0.020827654749155045,0.07432450354099274,0.16658923029899597,0.00862042885273695,-0.019158819690346718,0.09341300278902054,-0.022150563076138496,0.20614007115364075,0.16936981678009033,0.48132407665252686,-0.29275280237197876,0.06762206554412842,-0.2717684805393219,0.4787459969520569,0.0006132597336545587,-0.1803450882434845,0.0749116912484169,-0.14791978895664215,-0.022806135937571526,0.33558547496795654,0.16859523952007294,0.2947919964790344,0.30606576800346375,0.25732845067977905,0.13418520987033844,0.07077449560165405,0.24235065281391144,0.22783467173576355,0.2938421964645386,-0.02717406116425991,0.2969183325767517,-0.5445387363433838,0.20178914070129395,0.2989104092121124,0.35348740220069885,0.3313039541244507,0.16409210860729218,-0.41974878311157227,-0.03455964848399162,-0.19023096561431885,0.07996988296508789,0.20670630037784576,-0.14717188477516174,0.4173499047756195,0.2134925276041031,0.2666436433792114,0.016074899584054947,0.3612155020236969,0.4843935966491699,2.8113889694213867,-1.554680585861206,1.1117546558380127,-1.076881766319275,0.7434334754943848,-0.501943051815033,-0.5333045125007629,-0.9609843492507935,0.9006805419921875,0.21365141868591309,-0.12452314794063568,-0.06346794217824936,1.3111867904663086,0.0035015239845961332,0.573412299156189,-0.013493767008185387,-0.010528993792831898,0.007288452237844467,0.1572643667459488,-0.18191446363925934,0.12273435294628143,-0.013340789824724197,-0.020901670679450035,0.004678010940551758,0.03224499896168709,-0.1369665414094925,-0.1707235872745514,-0.01758120208978653,-0.06833445280790329,0.01691298931837082,-0.007280776742845774,-0.07820061594247818,-0.10755410045385361,-0.08638638257980347,0.040357090532779694,-0.004558885470032692,0.04052184149622917,0.12404362857341766,-0.1429978758096695,-0.046402499079704285,0.028126457706093788,-0.012517740949988365,0.04007864370942116,0.11413576453924179,0.06163955107331276,-0.12793320417404175,0.11789693683385849,0.026359623298048973,0.10453187674283981,0.10004472732543945,0.03647404909133911,-0.12793217599391937,-0.011523943394422531,0.19881556928157806,0.6016490459442139,-0.21045233309268951,-0.0511610247194767,-0.08867409825325012,-0.07885908335447311,0.023357633501291275,-0.0684097483754158,-0.39384931325912476,-0.0812121108174324,-0.11952591687440872,0.10172001272439957,0.2768267095088959,-0.012742708437144756,0.12959393858909607,-0.1323556900024414,0.15837037563323975,-0.0844990685582161,0.14831659197807312,0.1870611310005188,-0.44305676221847534,-0.06950399279594421,-0.41106024384498596,0.3339993953704834,-0.14777176082134247,0.03067675232887268,0.11032475531101227,0.4843111038208008,0.07734393328428268,-0.14495916664600372,0.06552492827177048,0.7510522603988647,0.4797969460487366,0.4886971116065979,-0.007789487484842539,-0.007737844251096249,0.05284213647246361,0.21344827115535736,0.5829704403877258,0.12565270066261292,0.004080773331224918,0.004534905776381493,0.032295551151037216,0.12894202768802643,0.3287973999977112,0.10125294327735901,-0.025675231590867043,-0.03548220917582512,0.04771242290735245,0.29066726565361023,0.5497560501098633,0.28384914994239807,-0.016916552558541298,-0.022453950718045235,-0.03230172023177147,-0.054063551127910614,-0.04742784798145294,0.048040907829999924,-0.009557398036122322,-0.01291873399168253,-0.019888823851943016,-0.031313952058553696,-0.029168378561735153,0.1923336237668991,-0.039740655571222305,-0.051066625863313675,-0.07612516731023788,-0.10473518073558807,-0.12561029195785522,0.31648847460746765,-0.00533577473834157,0.014358802698552608,0.009727556258440018,-0.11510802060365677,0.2763387858867645,-0.5063890218734741,-0.009932316839694977,0.012024232186377048,0.009297407232224941,-0.07252408564090729,0.1458839476108551,0.37058982253074646,0.04295295849442482,0.05637551471590996,0.033847276121377945,0.08412861078977585,-0.09682150185108185,0.06195405498147011,0.30922731757164,-5.385070323944092,0.48565107583999634,0.17148447036743164,0.6947575211524963,0.34048357605934143,-1.1751056909561157,0.8356121182441711,-0.49459025263786316,0.44084566831588745,-2.743713140487671,0.6530219912528992,0.7598522305488586,-1.4350634813308716,-0.27246856689453125,-0.02075846865773201,0.2885073721408844,0.9153329133987427,0.00404149666428566,0.01444899570196867,0.014303416013717651,-0.0004364786436781287,0.008288918994367123,-0.24364736676216125,0.005027888808399439,0.00948722381144762,0.019625786691904068,0.0016513715963810682,0.013216669671237469,-0.22764696180820465,0.015413844026625156,0.028938861563801765,0.04108515754342079,0.005106037016957998,0.03443107753992081,0.3345802426338196,0.009851224720478058,0.012655743397772312,-0.0040200017392635345,0.019843030720949173,0.0069484771229326725,-0.4092261493206024,0.011511745862662792,0.018862957134842873,-0.007027747109532356,0.02632126770913601,0.018729642033576965,-0.47710102796554565,0.03445572406053543,0.06430866569280624,0.019596068188548088,0.05973714217543602,0.05633539706468582,0.1650407910346985,0.0015305981505662203,-2.1999785531079397e-05,-0.0017493541818112135,-0.0030501969158649445,-0.004645535722374916,0.44272589683532715,0.00019876148144248873,-0.0013064906233921647,-0.0022837293799966574,-0.0028478705789893866,-0.0019071603892371058,0.39567139744758606,-0.0017012173775583506,-0.0036682765930891037,-0.003941854927688837,-0.007665739394724369,0.005635881330817938,-0.513806164264679,-0.03060474619269371,0.0064574978314340115,0.6236411333084106,-0.0015778813976794481,0.059405840933322906,0.966101884841919,0.41659843921661377,0.05942113324999809,-0.37517020106315613,0.20230361819267273,0.38435593247413635,-0.46357953548431396,-0.3260432481765747,-0.06510619819164276,0.33721333742141724,-0.024163566529750824,0.23144082725048065,1.4985871315002441,-0.00224095256999135,0.005749450996518135,0.00403903191909194,-0.004935027100145817,-0.019011905416846275,-0.351433128118515,0.0010714879026636481,0.00335324602201581,0.004741359502077103,0.00046033348189666867,-0.013935633935034275,0.45419707894325256,0.003215875243768096,0.00711043830960989,0.017079167068004608,0.01130524929612875,0.03128199279308319,0.07689784467220306,0.0020400062203407288,0.0033791258465498686,0.0031812379602342844,0.00013575504999607801,0.00406327098608017,-0.4052998721599579,0.003392379265278578,0.003192904405295849,0.0047594397328794,0.00038524690899066627,0.0031968443654477596,0.006050230469554663,-0.00036773161264136434,-0.002657999051734805,0.007550577633082867,-0.004263474605977535,-0.00042913449578918517,-0.7502598166465759,0.0001321391318924725,-0.00041724907350726426,0.0008737132302485406,0.00030932234949432313,0.002932952716946602,-0.7753654718399048,0.00034707304439507425,-0.0011120166163891554,0.00021226856915745884,0.000769091013353318,0.0015574407298117876,-0.6423265933990479,-0.003799168160185218,-0.003751428099349141,-0.000751167128328234,-0.002446347614750266,-0.007303545717149973,0.2701375186443329,0.21923580765724182,-2.4959588050842285,-0.8362612128257751,0.05418037995696068,0.21783769130706787,0.30571630597114563,-0.061085574328899384,1.0650529861450195,0.7530680298805237,0.001768041285686195,-0.9669172763824463,0.40520021319389343,-0.006589055992662907,0.5505469441413879,-0.4360490143299103,-0.6501666903495789,-0.290167897939682,1.490673303604126,-0.05096554011106491,-0.07613028585910797,0.04359159246087074,-0.03969096019864082,-0.020812034606933594,-0.07199723273515701,0.05231918394565582,-0.00789122749119997,-0.19217735528945923,0.06768585741519928,-0.016244670376181602,0.20235326886177063,-0.17727991938591003,-0.13981173932552338,-0.07961005717515945,0.0045153615064918995,-0.40742260217666626,-0.31521210074424744,0.03209114819765091,-0.042194150388240814,-0.07996867597103119,0.06833910942077637,-0.07521160691976547,-0.3973097801208496,0.08489356935024261,-0.1326269954442978,0.07899092882871628,-0.3142071068286896,0.1616618037223816,0.5155921578407288,-0.02976650930941105,-0.15168307721614838,0.13717445731163025,0.009491260163486004,0.2596980035305023,0.31871360540390015,0.21860572695732117,-0.09638010710477829,0.03378763422369957,-0.004838871769607067,0.3241935968399048,-0.005982864182442427,0.09212357550859451,-0.06078220531344414,0.06267789751291275,0.024235781282186508,0.1761084645986557,-0.06786029785871506,0.2734959125518799,-0.06034046411514282,0.08860558271408081,0.19486798346042633,0.011639210395514965,0.5874577760696411,-0.87651526927948,0.4989699721336365,0.6255537867546082,-0.0219898484647274,-1.282143235206604,-0.6654763221740723,0.4711698591709137,0.15020065009593964,-0.4394038915634155,-0.6186100244522095,-0.6771703362464905,-0.05509437993168831,0.30216798186302185,-0.43252092599868774,-0.589184045791626,-0.438190758228302,-0.09403028339147568,0.025708582252264023,0.00548672117292881,0.07518356293439865,0.04044803977012634,0.005488321650773287,-0.14358794689178467,0.29564061760902405,-0.004424327984452248,0.06817357242107391,0.032290562987327576,-0.017802787944674492,-0.1026344895362854,-0.477151095867157,-0.057398565113544464,-0.06326986104249954,-0.12842465937137604,0.051973629742860794,-0.050572965294122696,-0.6963915228843689,-0.17355160415172577,-0.07301925122737885,0.1437419205904007,-0.06882968544960022,-0.0411670096218586,-0.12588532269001007,-0.1803104281425476,-0.038924138993024826,0.02659081667661667,0.012477654963731766,-0.14223556220531464,-0.12561793625354767,-0.052953679114580154,0.059933703392744064,-0.07688381522893906,0.22845600545406342,-0.09516338258981705,0.47514599561691284,-0.29609423875808716,0.10296105593442917,0.04770202562212944,0.07816038280725479,0.004879517946392298,0.06354250758886337,-0.3346934914588928,0.05965915694832802,-0.05287342891097069,0.14204680919647217,-0.08571412414312363,0.03954489529132843,0.16643016040325165,0.5599855184555054,0.5136682987213135,0.15816082060337067,0.21051843464374542,0.01635829173028469,-0.5155596137046814,0.7617902755737305,0.0737329050898552,-0.5026124715805054,-0.9311140775680542,-0.01954551413655281,-0.9237895011901855,0.08762343227863312,-0.13712549209594727,1.2307064533233643,0.3632380962371826,-0.1124497726559639,0.19286292791366577,-0.6073136925697327,-0.2668503522872925,-0.28285858035087585,0.13114862143993378,-0.6260011196136475,-0.20840921998023987,-0.011249232105910778,0.2476608008146286,0.13537347316741943,-0.06402965635061264,0.01273844949901104,-0.3399265706539154,-0.18754397332668304,-0.35118067264556885,-0.09289699792861938,-0.11593107134103775,-0.045369699597358704,-0.026850908994674683,-0.11569320410490036,-0.08418116718530655,-0.5452452301979065,0.016291549429297447,-0.01610383205115795,-0.17957201600074768,-0.0835137739777565,-0.1608985960483551,0.018658729270100594,-0.04287714511156082,-0.649273693561554,-0.25470471382141113,-0.12214884161949158,0.23482899367809296,0.020399846136569977,-0.08333876729011536,0.03028232604265213,-0.06792185455560684,-0.28333786129951477,-0.24345026910305023,0.0055430554784834385,0.004643955267965794,-0.620006799697876,0.2482147216796875,-0.017873330041766167,0.24992401897907257,0.2246587872505188,0.08898831903934479,-0.018715525045990944,0.1879625916481018,0.010843110270798206,0.2632341682910919,0.017479220405220985,-0.27323538064956665,-0.020573124289512634,-0.18197773396968842,0.08707353472709656,-0.4185943305492401,-0.6199239492416382,-0.8297814726829529,0.10171255469322205,0.9962843060493469,1.1850786209106445,-0.060585472732782364,-1.509734869003296,0.6143750548362732,-0.7321709990501404,-0.7112842202186584,1.0200836658477783,-0.25435420870780945,0.9863611459732056,-0.4054963290691376,0.14435932040214539,-0.3635154366493225,0.4815700948238373,-0.33449819684028625,0.8627749681472778,1.4188506603240967,0.35817256569862366,0.007763964124023914,-0.03230101242661476,0.07035911828279495,0.35108277201652527,0.3039054870605469,0.3053901791572571,-0.017036987468600273,0.00787719339132309,-0.03761915862560272,0.28366416692733765,-0.13090015947818756,0.007158918771892786,0.05620551109313965,0.15301117300987244,-0.03735639527440071,0.032933518290519714,-0.6048362255096436,0.11652663350105286,0.10416951030492783,0.0157706830650568,0.07764919847249985,0.043146099895238876,0.02292139083147049,0.4016682803630829,0.08398645371198654,0.05804675817489624,0.09914755076169968,-0.013165163807570934,0.20225921273231506,0.5627635717391968,-0.054986849427223206,0.06800641864538193,-0.03199203684926033,-0.05990162119269371,0.4326794445514679,-0.14915412664413452,-0.04720519855618477,-0.058777593076229095,0.0014437232166528702,0.264999121427536,0.2302558422088623,0.056915197521448135,-0.06340412050485611,-0.0657832995057106,-0.023553624749183655,0.2594001889228821,-0.07163812965154648,0.40721622109413147,0.01871788501739502,0.07478996366262436,-0.009811216965317726,-0.052243031561374664,-0.522100031375885,0.8703119158744812,0.5495973825454712,-0.21789810061454773,-0.549599826335907,0.25811702013015747,0.4454469680786133,-0.4201515018939972,-0.8610607981681824,-0.18782053887844086,0.303768515586853,0.6652822494506836,-1.0850565433502197,-0.9590823650360107,0.2530282139778137,0.28334006667137146,-0.5174825191497803,0.2574091851711273,1.1521977186203003,0.8517124056816101,0.021137330681085587,0.03525149077177048,0.054666806012392044,0.01462382823228836,0.11402546614408493,0.4761895537376404,-0.0257719736546278,-0.017508437857031822,0.010856177657842636,-0.07521921396255493,0.07470590621232986,0.000666449312120676,-0.08981645852327347,-0.0950237587094307,-0.09429088979959488,-0.10343371331691742,-0.12581296265125275,0.3238716423511505,0.06439357250928879,0.0459219291806221,0.044575225561857224,0.04092814400792122,0.14197738468647003,0.34313446283340454,0.007262377999722958,0.007786449510604143,0.02673024870455265,0.009609394706785679,0.09236350655555725,-0.04365774616599083,-0.1283792108297348,-0.07518459111452103,-0.05901990458369255,-0.03196251019835472,-0.16101455688476562,0.28579118847846985,-0.012514889240264893,-0.08266913890838623,-0.08683135360479355,-0.15344546735286713,-0.32723546028137207,0.6010211706161499,-0.018585290759801865,-0.04069532826542854,-0.015387306921184063,-0.05792025104165077,-0.197601780295372,0.6651860475540161,-0.006021281238645315,0.1312154084444046,0.1181168183684349,0.18644225597381592,0.373540461063385,0.06986282765865326,-2.3257410526275635,0.9313445091247559,0.0656437799334526,0.9822676777839661,0.5750435590744019,-0.20904599130153656,-0.9333477020263672,0.48547685146331787,-0.5527231097221375,-0.002002956112846732,0.6889890432357788,-0.49417608976364136,-0.7834184169769287,0.7617141604423523,0.22257454693317413,0.05145744979381561,0.8337917327880859,1.258642554283142,-0.04143308103084564,-0.0421161986887455,-0.10180052369832993,-0.09918446838855743,-0.13335730135440826,0.45035409927368164,-0.030393771827220917,-0.0316537506878376,-0.07839818298816681,-0.05332796275615692,-0.052212778478860855,0.6761397123336792,0.020369525998830795,0.041372671723365784,0.05316123366355896,0.10540306568145752,0.11790144443511963,0.04459873214364052,0.029979605227708817,0.002055385848507285,0.09246677905321121,0.11082863807678223,0.144989475607872,0.8513377904891968,0.025058435276150703,0.03977286443114281,0.07146039605140686,0.14189830422401428,0.2047949880361557,0.7046688795089722,-0.03332975134253502,0.020711153745651245,-0.07418228685855865,-0.030968960374593735,-0.0036666737869381905,0.3921496570110321,-0.08849485218524933,-0.07060389965772629,-0.07865831255912781,-0.12022615224123001,-0.09709744900465012,0.2861519455909729,-0.0022083218209445477,0.09859491884708405,0.1252545416355133,0.065451979637146,0.2193625122308731,-0.10732925683259964,0.11064969748258591,0.20710940659046173,0.23069918155670166,0.22100459039211273,0.36907026171684265,-0.6503190398216248,-0.017477557063102722,-0.23782660067081451,0.3013834059238434,-1.400671362876892,-0.6007282733917236,1.6005432605743408,-0.17061690986156464,0.5235357880592346,-0.5747531652450562,-0.6332093477249146,-0.6383834481239319,0.517903208732605,0.036763641983270645,-0.014887373894453049,0.5086368918418884,0.16218073666095734,0.8751351237297058,1.1596014499664307,-0.0017622417071834207,0.17075495421886444,0.07157912850379944,0.11150408536195755,0.4945221543312073,0.03821323812007904,0.060177307575941086,0.24568186700344086,0.1447724550962448,0.2080819308757782,0.617810845375061,-0.32210296392440796,0.09248673915863037,0.04211237281560898,0.07650440186262131,0.09363355487585068,-0.03361061215400696,-0.06012287735939026,-0.0538976714015007,-0.04684353992342949,-0.13568419218063354,-0.15716050565242767,-0.26216182112693787,0.2168978601694107,-0.05889405682682991,-0.05895138904452324,-0.15944452583789825,-0.14906834065914154,-0.21246911585330963,1.174606442451477,0.017892912030220032,0.0010360389715060592,0.017569618299603462,0.06534703075885773,0.18938463926315308,-0.027356203645467758,0.050279296934604645,0.10989713668823242,0.12103109061717987,0.19641214609146118,0.1804077923297882,0.003291464177891612,0.10638286918401718,0.21139049530029297,0.21354234218597412,0.280924528837204,0.21713772416114807,0.7502833008766174,0.04433578997850418,0.10181162506341934,0.07719770073890686,0.058789677917957306,0.016010871157050133,-0.08005626499652863,0.25828155875205994,-0.027779243886470795,0.4068026840686798,1.747762680053711,-0.4994017779827118,-0.289311021566391,0.5226776599884033,-0.4103274643421173,-0.3104185163974762,0.05693671107292175,-0.4386737048625946,-0.23875588178634644,-0.02596224658191204,0.3016522228717804,0.1880394071340561,0.35919275879859924,0.6962280869483948,0.4005022943019867,0.14126253128051758,0.11842044442892075,-0.036969657987356186,0.007172704208642244,0.04022572189569473,0.03812597319483757,0.3890966773033142,0.19236844778060913,-0.009034445509314537,0.1574607938528061,0.0010264894226565957,-0.10301728546619415,-0.12083224952220917,-0.12277981638908386,0.1639115810394287,0.32660800218582153,0.38550516963005066,0.504238486289978,0.3386766016483307,0.26908430457115173,0.22115132212638855,-0.1479329615831375,-0.05560075119137764,0.08834709227085114,0.0422833114862442,-0.02066986635327339,0.11692225188016891,0.16313496232032776,0.02789236046373844,-0.10897528380155563,-0.09474822878837585,-0.05254827067255974,-0.006258802954107523,-0.06190638989210129,0.13713541626930237,0.2045314908027649,0.4008350968360901,0.14440083503723145,0.10111313313245773,0.15415552258491516,0.09079061448574066,-0.1053423061966896,-0.09722188115119934,-0.15596331655979156,-0.04619248956441879,-0.04491160437464714,0.09846074134111404,0.27440255880355835,0.34697216749191284,0.5905945897102356,0.19938695430755615,0.06845148652791977,0.024838276207447052,0.14892075955867767,-0.040732383728027344,-0.022839386016130447,0.03377233073115349,0.03743142634630203,0.036115799099206924,0.1405106633901596,-0.016154371201992035,0.17133170366287231,0.21770651638507843,0.44022196531295776,0.5140919089317322,0.46512070298194885,0.29731014370918274,0.2698870301246643,0.0221609715372324,-0.0033524667378515005,0.023303039371967316,0.07782304286956787,0.11752790212631226,0.10605208575725555,0.22987250983715057,-0.06945935636758804,0.0251865666359663,0.24552147090435028,0.27247685194015503,0.2554997503757477,0.1234099268913269,0.18133175373077393,-0.06263359636068344,0.09567873179912567,0.04182423651218414,0.06971708685159683,-0.07882697880268097,0.011033947579562664,-0.07706695795059204,0.01803857460618019,-0.008648797869682312,0.10754168778657913,0.19077633321285248,0.03185942769050598,-0.015675848349928856,0.539842426776886,0.47585931420326233,0.4182816445827484,0.1262430101633072,-0.2206268310546875,0.05067796632647514,-0.037201233208179474,-0.14412707090377808,-0.1572117656469345,-0.2613234221935272,0.03397296741604805,-0.12601864337921143,-0.17949150502681732,-0.07751674205064774,-0.06614794582128525,0.11576978862285614,0.19331566989421844,-0.0989990159869194,-0.1398697942495346,-0.13779646158218384,-0.032982658594846725,-0.06977512687444687,-0.3132719397544861,-0.5932022333145142,-0.8413467407226562,-0.08917518705129623,-0.13869045674800873,0.05877767875790596,-0.024166783317923546,0.12921644747257233,0.5014318227767944,0.2316957712173462,0.43411773443222046,0.30394384264945984,0.027244048193097115,0.05030786246061325,0.019658096134662628,-0.14270547032356262,-0.22257167100906372,-0.4072454869747162,0.23764368891716003,0.571479082107544,0.37170034646987915,0.9126986265182495,0.6422866582870483,-0.3671133518218994,-0.25712698698043823,0.15651530027389526,0.2922537922859192,0.7937944531440735,0.48915499448776245,0.5248349905014038,0.0946241244673729,0.6822724938392639,0.007727969437837601,-1.0685492753982544,-0.6172970533370972,1.6832221746444702,-0.0498456135392189,-0.0039526429027318954,-0.04397125169634819,0.0607447549700737,-0.1136593446135521,0.08363250643014908,-0.040870048105716705,-0.11484196037054062,-0.028686683624982834,0.04403276368975639,-0.05310887098312378,-0.011431322433054447,-0.048942018300294876,-0.1466480791568756,0.29996535181999207,0.006078689359128475,-0.029943807050585747,0.07304305583238602,-0.040782079100608826,0.06851210445165634,-0.06613456457853317,-0.05987245589494705,0.007658171933144331,0.0879882276058197,-0.03718624636530876,-0.05724670737981796,-0.09651444852352142,0.02466752752661705,-0.02302349917590618,0.07580385357141495,-0.02273317240178585,0.00728143285959959,-0.002579617779701948,-0.2074427306652069,0.3173622488975525,0.06834448128938675,0.19853508472442627,0.0883815735578537,0.1767960786819458,0.018551407381892204,0.1700039654970169,0.19682429730892181,0.1067669689655304,0.08384744822978973,-0.308130145072937,0.0059560672380030155,-0.11324144899845123,0.015966642647981644,-0.13146580755710602,-0.03332379087805748,-0.14083756506443024,-0.0676504522562027,-0.07372599095106125,-0.10309610515832901,-0.033435337245464325,-0.05990086495876312,-0.10532452166080475,-0.20639486610889435,0.6553434133529663,0.26009494066238403,-0.021644966676831245,0.008903292939066887,-0.04123840481042862,-0.03386163339018822,0.0030862868297845125,-0.004425908904522657,0.008813626132905483,0.010755674913525581,-0.0001955842162715271,-0.04859381541609764,0.00267415982671082,0.03911867365241051,0.044118694961071014,-0.14250649511814117,0.4244943857192993,0.18836309015750885,0.18837478756904602,0.19091090559959412,0.26454460620880127,-0.05974723771214485,0.12375999242067337,-0.0037282395642250776,0.14307284355163574,0.09082530438899994,0.16475538909435272,0.04819165915250778,0.1939062923192978,0.2014731615781784,0.04397214576601982,-0.21852754056453705,-0.01040064636617899,-0.013596436940133572,0.01960901916027069,-0.00997969415038824,-0.008311135694384575,0.08852440863847733,-0.07510361075401306,-0.07301399111747742,-0.022449510172009468,-0.09802282601594925,-0.02825874648988247,-0.13253381848335266,-0.037979431450366974,-0.20836670696735382,-0.15036146342754364,-0.0022966479882597923,0.006151559762656689,0.02403167076408863,0.006064212415367365,0.0303932037204504,-0.08268333226442337,-0.0054868655279278755,0.057199567556381226,-0.00021921636653132737,-0.055311113595962524,0.06256093084812164,0.08668135851621628,0.1495489925146103,0.385217547416687,-0.3793365955352783,0.01338933501392603,-0.04133440554141998,-0.10976120084524155,-0.09343612939119339,-0.08416986465454102,-0.20583079755306244,-0.11994390934705734,0.003805657150223851,0.00799689069390297,0.026826392859220505,-0.018494365736842155,0.011672849766910076,0.15001513063907623,0.3523567020893097,0.2065078318119049,0.6890711188316345,0.6053212881088257,-0.06614194810390472,0.00401887996122241,-0.11145613342523575,0.3084169328212738,-0.12168367952108383,-0.179134801030159,0.041221603751182556,-0.3328249752521515,-0.21907880902290344,0.21035900712013245,0.6035335659980774,0.2670062482357025,0.18516504764556885,-1.3886610269546509,-0.6588588356971741,0.7177065014839172,-0.29400673508644104,-0.2961772680282593,-0.06054944172501564,-0.06258749961853027,-0.03563826158642769,-0.06798020005226135,-0.5551215410232544,-0.45592010021209717,-0.49136918783187866,-0.42198166251182556,0.4287724494934082,-0.08316436409950256,-0.014440136030316353,-0.10086669772863388,-0.19537079334259033,0.10528965294361115,0.01190041285008192,0.11262072622776031,0.34565818309783936,0.2005346119403839,0.298367977142334,0.08103916049003601,-0.08295425772666931,-0.18421700596809387,0.9170926809310913,0.713738203048706,1.2049813270568848,0.7813436985015869,-0.08204804360866547,-0.2165142148733139,0.0706842839717865,0.1561608761548996,0.41105833649635315,0.2392812967300415,0.10229954123497009,0.008943751454353333,0.039574649184942245,-0.12642358243465424,0.09704693406820297,-0.0717427209019661,0.07885925471782684,0.11731584370136261,-0.19634021818637848,0.06600387394428253,0.26426008343696594,0.08082091808319092,-0.01099927444010973,-0.430184543132782,0.21569088101387024,0.18075120449066162,0.12715372443199158,0.11818066984415054,-0.0893578976392746,-0.07745186984539032,1.0404638051986694,0.15054720640182495,0.768273651599884,0.002564885886386037,-0.0018235169118270278,-0.17684327065944672,0.29023754596710205,0.1256238967180252,-0.3743080794811249,-1.0274215936660767,0.617657482624054,0.22893039882183075,-0.005546979606151581,0.3786379098892212,0.7396062016487122,-1.1967010498046875,0.050918255001306534,1.188788890838623,0.25522950291633606,0.2813083231449127,0.2108185887336731,-0.067765973508358,0.1898106187582016,0.23448894917964935,0.1607261449098587,0.005572069901973009,-0.18791058659553528,0.311654269695282,0.13768644630908966,0.5370391011238098,-0.2726808488368988,-0.055775292217731476,0.0635930746793747,-0.06090514734387398,-0.014525835402309895,0.03282023221254349,-0.018252521753311157,-0.22979110479354858,0.12946614623069763,-0.006290857680141926,-0.29236900806427,-0.025997277349233627,-0.05529338866472244,-0.15280678868293762,0.434008926153183,-0.5176002979278564,0.06122279912233353,-0.6925125122070312,0.17537668347358704,0.06096906214952469,-0.1433819681406021,-0.07785438746213913,0.1361013650894165,-0.44787752628326416,0.645575225353241,0.26704999804496765,0.10220091789960861,-0.2044483721256256,0.27151885628700256,0.40523046255111694,0.34080803394317627,-0.2807018458843231,0.4720955193042755,0.4850558936595917,0.5744706988334656,0.2255883812904358,-0.3576125204563141,-0.13377831876277924,0.027765505015850067,0.13648594915866852,0.09408682584762573,-0.43954646587371826,-2.1781976222991943,-1.2709041833877563,0.1752271205186844,0.047582436352968216,-0.3898286521434784,0.03566526994109154,-0.2667384445667267,-0.07000793516635895,0.07308977842330933,-1.2096880674362183,0.6118263006210327,0.19586260616779327,-0.9815237522125244,0.8737347722053528,0.3237020969390869,0.6157644987106323,0.7292335629463196,0.7510788440704346,-0.04793241620063782,-0.08088173717260361,0.02414585091173649,-0.12178702652454376,0.04555197060108185,0.2069898396730423,-0.21444500982761383,0.04299188777804375,0.029771991074085236,0.13824880123138428,0.5934480428695679,-0.03229366987943649,-0.06035897135734558,0.05720536410808563,0.02346714772284031,-0.07918737083673477,0.5456961989402771,-0.08927781879901886,0.04384153336286545,0.3922750949859619,0.43417802453041077,0.42673423886299133,-0.1526009738445282,0.2793354392051697,0.10017276555299759,0.09284703433513641,-0.13654495775699615,-0.1616155207157135,0.27457359433174133,-0.05269913747906685,-0.09225708246231079,0.07843005657196045,0.21785706281661987,-0.18029779195785522,0.01219983585178852,-0.3491906225681305,-0.09640693664550781,0.010992862284183502,-0.05908825248479843,-0.3212983310222626,-0.06968264281749725,-0.2518766224384308,-0.13763628900051117,-0.064680315554142,-0.1337757110595703,-0.5842761397361755,-0.029560266062617302,-0.16111478209495544,0.03953401371836662,-0.09292645752429962,0.026031093671917915,-0.1713639795780182,0.114510677754879,0.6020351648330688,0.19814948737621307,-0.040608420968055725,-0.2761968672275543,0.7710733413696289,-0.0225322637706995,-0.6704136729240417,-0.8541263341903687,0.16279248893260956,0.3960910737514496,-0.36924710869789124,0.43893250823020935,0.2911897301673889,0.13213685154914856,-0.08459893614053726,-1.0789766311645508,0.5628005862236023,1.1749188899993896,1.1078438758850098,-0.1683797985315323,-0.0756412222981453,-0.11902724206447601,-0.18641041219234467,-0.012942854315042496,0.016529807820916176,-0.0511443167924881,0.08266918361186981,0.19273729622364044,0.13321925699710846,-0.2750464379787445,-0.676344096660614,0.2559412717819214,0.10866065323352814,0.41493409872055054,0.41567012667655945,0.47144055366516113,-0.47475072741508484,0.16916170716285706,0.04001615196466446,0.054359205067157745,0.15482449531555176,-0.020725151523947716,-0.04424364119768143,0.10327547788619995,-0.06590429693460464,-0.19437874853610992,-0.14233440160751343,0.36666300892829895,0.796545147895813,-0.30361732840538025,-0.1379508674144745,-0.5166373252868652,-0.4913317561149597,-0.4548508822917938,0.4499325752258301,0.08016309142112732,-0.15573105216026306,0.13678939640522003,-0.11844610422849655,-0.341619074344635,0.22233515977859497,0.21839404106140137,0.2050982266664505,0.09873408824205399,0.030409282073378563,0.6563090682029724,0.7485227584838867,0.3660244047641754,0.17679917812347412,-0.1054922565817833,0.4496120512485504,0.16530883312225342,0.23437254130840302,0.1735921949148178,-0.05578581243753433,0.5553106665611267,0.5904384255409241,-0.03239152580499649,0.2680891752243042,-0.11984428018331528,0.1702534258365631,-0.3357456922531128,-0.7162264585494995,0.6229718327522278,0.2640821635723114,0.7176511287689209,-0.509558916091919,0.5917161703109741,0.24827978014945984,0.5707054138183594,0.6319666504859924,-0.18066591024398804,-0.10937406867742538,-0.4580724239349365,0.2520216405391693,0.15706880390644073,-0.019655827432870865,-0.06213218346238136,0.09478385001420975,0.1165786013007164,0.3026043772697449,-0.0399695485830307,-0.6199193000793457,0.0464673712849617,-0.03528163582086563,0.012656900100409985,0.019253795966506004,0.2260359227657318,0.19332191348075867,-0.008878587745130062,-0.14894969761371613,-0.0832572653889656,0.13960546255111694,0.24648478627204895,0.25135090947151184,0.13863849639892578,0.09174046665430069,-0.018947754055261612,-0.19092726707458496,-0.20444507896900177,0.1875300407409668,0.3594915270805359,0.5257179141044617,0.4049219787120819,0.0637311339378357,-0.15124407410621643,0.36015912890434265,-0.1297290325164795,-0.060147035866975784,-0.09849409013986588,-0.16622613370418549,-0.07209381461143494,0.682348906993866,0.0288768969476223,0.1539786159992218,0.1951291412115097,0.00934483204036951,0.33268460631370544,0.29332220554351807,-0.13113173842430115,0.11163938790559769,0.34035947918891907,-0.26614877581596375,0.4346928596496582,0.5214695334434509,0.08153059333562851,0.2595396637916565,0.2108772248029709,-0.14082439243793488,-0.09745989739894867,-0.09361202269792557,0.0019306230824440718,-0.502397894859314,-0.829369068145752,0.5912200808525085,-0.3122313320636749,0.7526516318321228,-0.3251749873161316,-1.0184717178344727,-0.12363218516111374,-0.3264447748661041,-0.1729278266429901,0.18790078163146973,-0.026404503732919693,-0.0014698326122015715,-0.2648351788520813,-0.19889584183692932,0.001318334718234837,-0.33413222432136536,0.01853645034134388,0.05585093796253204,-0.06283289194107056,-0.04096601903438568,0.04781648516654968,-0.5917375683784485,0.13419246673583984,-0.032322145998477936,0.18251346051692963,0.01233319379389286,-0.32015830278396606,0.1991068422794342,-0.14121012389659882,-0.4085511565208435,-0.052909135818481445,-0.010469908826053143,-0.28787726163864136,-0.0801604837179184,0.044605523347854614,-0.0973711684346199,0.09639590233564377,0.1976257860660553,-0.19987580180168152,-0.08224865794181824,-0.18223555386066437,-0.2686048150062561,-0.14552351832389832,0.07177181541919708,0.5244266986846924,-0.10633798688650131,-0.139186829328537,-0.23954828083515167,-0.7122899889945984,-0.10968942940235138,0.11731940507888794,0.19732123613357544,-0.08837438374757767,0.10831107944250107,-0.4542773365974426,0.2417718917131424,0.460696816444397,0.9076189994812012,0.384132981300354,0.370548814535141,0.1541900932788849,0.31800422072410583,0.03272252157330513,-0.03770965710282326,0.1350485235452652,0.15117576718330383,0.03077971562743187,0.08024519681930542,0.021699782460927963,-0.058107808232307434,0.5291938781738281,-0.4884299337863922,-0.0346548929810524,-0.18178455531597137,-0.4350406527519226,0.2651582658290863,-0.11958029121160507,0.2686527967453003,-0.4576403498649597,0.07007282972335815,0.02476573921740055,0.16339750587940216,-0.04715246334671974,-0.06824930012226105,-0.08463842421770096,-0.050782714039087296,-0.3134779632091522,0.08774278312921524,0.014153148978948593,-0.005427333526313305,-0.04259142652153969,-0.03917791694402695,-0.17331013083457947,-0.4175853133201599,0.01737106218934059,0.015772424638271332,-0.016024721786379814,0.07301399856805801,-0.10838760435581207,0.24934403598308563,-0.08893857896327972,-0.07285183668136597,0.017743907868862152,-0.004385826643556356,0.026093028485774994,-0.16637443006038666,-0.04548768326640129,0.004460149444639683,0.0007327264174818993,-0.22360943257808685,0.14185403287410736,-0.2113756686449051,-0.06618646532297134,-0.012893376871943474,0.009869547560811043,0.06529434770345688,-0.148677259683609,-0.09075018763542175,-0.1898428350687027,-0.07448900490999222,-0.14787344634532928,-0.2761765718460083,-0.5848350524902344,0.12402865290641785,0.08278372883796692,0.034054454416036606,-0.011789891868829727,0.4343012571334839,-0.004724109545350075,1.2648694515228271,0.056396450847387314,0.15800972282886505,0.03152730315923691,-0.07368212193250656,0.5673345923423767,-0.34454530477523804,-0.023896167054772377,0.029067572206258774,0.04914934188127518,0.09811360388994217,-0.06069639325141907,-0.011637727729976177,-1.473700192860166e-38,-1.677005618738882e-38,9.523630740106111e-40,-2.6074394928215812e-39,1.198188099192335e-38,1.1358153236363124e-38,3.421805496662413e-39,2.0081367898840757e-38,-1.2204094698500587e-38,-1.043269509286755e-39,-4.9656524485691364e-39,-1.5080283618601168e-39,-0.0009327751467935741,0.006063076667487621,0.01622050441801548,0.020873526111245155,0.018021048977971077,0.011840930208563805,0.00510519091039896,-0.0015788533492013812,-0.003951745107769966,-0.001769856084138155,-0.0005167597555555403,-0.0014244291232898831,-0.0015862468862906098,6.475603731814772e-05,0.0008612492820248008,0.00048089877236634493,-0.0016722239088267088,-0.0046861432492733,-0.00990335550159216,-0.012289375998079777,-0.010711826384067535,-0.00793922133743763,-0.00407892931252718,-0.001059825997799635,-0.0004914379678666592,-0.0014574868837371469,-0.0013949604472145438,-0.0005416316562332213,-0.0008043968118727207,-0.0014570091152563691,-0.00161786749958992,-0.0006978908204473555,0.0005668526282534003,0.0003678784123621881,-0.0017700840253382921,-0.002293730853125453,-0.0013413893757387996,-0.0010193492053076625,0.00012144582433393225,0.0020112264901399612,0.0025707792956382036,0.00215228577144444,0.0020357894245535135,0.0015874102246016264,0.0007841949118301272,0.001134761143475771,0.0015594222350046039,0.0010912464931607246,-0.05014478415250778,0.013759566470980644],"sample_rate":48000.0}},{"max_value":1.0,"model":{"version":"0.7.0","metadata":{"date":{"year":2026,"month":5,"day":15,"hour":18,"minute":45,"second":3},"loudness":-15.605067253112793,"gain":0.7931194248391467},"architecture":"WaveNet","config":{"layers":[{"input_size":1,"condition_size":1,"head":{"out_channels":1,"kernel_size":16,"bias":true},"channels":8,"kernel_sizes":[6,6,6,6,6,6,6,6,6,6,6,6,6,6,15,15,6,6,6,6,6,6,6],"dilations":[1,3,7,17,41,101,239,1,3,7,17,41,101,239,1,13,1,3,7,17,41,101,239],"activation":[{"type":"LeakyReLU","negative_slope":0.01},{"type":"LeakyReLU","negative_slope":0.01},{"type":"LeakyReLU","negative_slope":0.01},{"type":"LeakyReLU","negative_slope":0.01},{"type":"LeakyReLU","negative_slope":0.01},{"type":"LeakyReLU","negative_slope":0.01},{"type":"LeakyReLU","negative_slope":0.01},{"type":"LeakyReLU","negative_slope":0.01},{"type":"LeakyReLU","negative_slope":0.01},{"type":"LeakyReLU","negative_slope":0.01},{"type":"LeakyReLU","negative_slope":0.01},{"type":"LeakyReLU","negative_slope":0.01},{"type":"LeakyReLU","negative_slope":0.01},{"type":"LeakyReLU","negative_slope":0.01},{"type":"LeakyReLU","negative_slope":0.01},{"type":"LeakyReLU","negative_slope":0.01},{"type":"LeakyReLU","negative_slope":0.01},{"type":"LeakyReLU","negative_slope":0.01},{"type":"LeakyReLU","negative_slope":0.01},{"type":"LeakyReLU","negative_slope":0.01},{"type":"LeakyReLU","negative_slope":0.01},{"type":"LeakyReLU","negative_slope":0.01},{"type":"LeakyReLU","negative_slope":0.01}],"bottleneck":8,"head1x1":{"active":false,"out_channels":1,"groups":1},"layer1x1":{"active":true,"groups":1},"groups_input":1,"groups_input_mixin":1,"conv_pre_film":{"active":false,"shift":true,"groups":1},"conv_post_film":{"active":false,"shift":true,"groups":1},"input_mixin_pre_film":{"active":false,"shift":true,"groups":1},"input_mixin_post_film":{"active":false,"shift":true,"groups":1},"activation_pre_film":{"active":false,"shift":true,"groups":1},"activation_post_film":{"active":false,"shift":true,"groups":1},"layer1x1_post_film":{"active":false,"shift":true,"groups":1},"head1x1_post_film":{"active":false,"shift":true,"groups":1},"gating_mode":["none","none","none","none","none","none","none","none","none","none","none","none","none","none","none","none","none","none","none","none","none","none","none"],"secondary_activation":[null,null,null,null,null,null,null,null,null,null,null,null,null,null,null,null,null,null,null,null,null,null,null],"slimmable":null}],"head":null,"head_scale":0.013759566065283583},"weights":[-4.405816555023193,-3.895920991897583,-3.9303135871887207,-4.2894368171691895,-2.6445553302764893,-4.280745983123779,3.512831926345825,4.053866386413574,-0.42978763580322266,-0.6537312269210815,-0.9455186724662781,-1.199249267578125,-1.1767781972885132,-0.7987737655639648,-0.44176381826400757,-0.6426024436950684,-0.9010269045829773,-1.112007737159729,-1.0563923120498657,-0.72618168592453,-0.41974180936813354,-0.6589603424072266,-0.8703048229217529,-1.1690605878829956,-1.1014726161956787,-0.7717940807342529,-0.439662367105484,-0.6613684296607971,-0.9528564810752869,-1.2308257818222046,-1.1552140712738037,-0.7571908831596375,-0.3285466730594635,-0.4686322510242462,-0.637101948261261,-0.7922024726867676,-0.7554831504821777,-0.5535096526145935,-0.4376146197319031,-0.6557521224021912,-0.9079412221908569,-1.1825114488601685,-1.1176292896270752,-0.7905400991439819,0.4132329821586609,0.5980576276779175,0.8139520287513733,1.0479514598846436,0.9969242811203003,0.7266106009483337,0.4416162967681885,0.6466745138168335,0.9043686389923096,1.1934577226638794,1.1255899667739868,0.7744876146316528,0.3766316771507263,0.09909185767173767,-0.08795133978128433,-0.44433337450027466,-0.4147777259349823,0.016832690685987473,0.3105468153953552,0.041531093418598175,-0.12234092503786087,-0.42925792932510376,-0.41051268577575684,-0.022196348756551743,0.3309329152107239,0.0543782077729702,-0.10995153337717056,-0.4119420349597931,-0.41451188921928406,-0.010903424583375454,0.3910043239593506,0.0887579694390297,-0.09293682128190994,-0.42037054896354675,-0.4181886315345764,0.023694464936852455,0.18567484617233276,-0.00011170264770044014,-0.10060744732618332,-0.2961079180240631,-0.2913060486316681,-0.03037530928850174,0.3698766529560089,0.059323154389858246,-0.10821865499019623,-0.4323025643825531,-0.4207611382007599,0.013295908458530903,-0.28330495953559875,-0.0168375913053751,0.11828435957431793,0.39427733421325684,0.37848353385925293,0.028695344924926758,-0.34238311648368835,-0.061667341738939285,0.11495817452669144,0.43715763092041016,0.42336124181747437,0.0067462678998708725,-0.038130275905132294,0.09613339602947235,0.14854133129119873,0.203760027885437,0.4401358664035797,0.15124641358852386,-0.016983579844236374,0.1269400715827942,0.13357669115066528,0.17846336960792542,0.3620603382587433,0.14468342065811157,-0.007404935080558062,0.13456271588802338,0.14941146969795227,0.23191721737384796,0.39434120059013367,0.14126646518707275,-0.08329786360263824,0.09223063290119171,0.12255045771598816,0.2036866694688797,0.43089285492897034,0.18379057943820953,0.015559311956167221,0.08590589463710785,0.11197443306446075,0.1124362051486969,0.2308938056230545,0.11647462844848633,-0.06325484067201614,0.11756423115730286,0.17383740842342377,0.2288753241300583,0.35952576994895935,0.170132115483284,-0.008997824974358082,-0.10696850717067719,-0.14534428715705872,-0.17405323684215546,-0.35740429162979126,-0.16779987514019012,0.0434083454310894,-0.140899196267128,-0.14087671041488647,-0.1764921247959137,-0.4220201075077057,-0.1444481462240219,-0.21842359006404877,0.0695153996348381,0.07680892199277878,-0.007187286391854286,0.3796752095222473,0.05959988385438919,-0.1987297236919403,-0.036907073110342026,-0.05604897066950798,0.07187890261411667,0.3270133137702942,0.09649571031332016,-0.2855645716190338,-0.08279826492071152,0.037584200501441956,0.047680921852588654,0.3057188391685486,0.0349784716963768,-0.23275527358055115,-0.0007121842936612666,-0.07593077421188354,0.09554364532232285,0.3265690803527832,0.09782983362674713,-0.14790663123130798,0.03900608420372009,0.030716314911842346,0.023334134370088577,0.24612711369991302,0.03654281795024872,-0.15311983227729797,0.06146873161196709,0.014616145752370358,0.07457444816827774,0.3312399983406067,0.1052822545170784,0.1353936344385147,-3.9239679949787387e-07,0.054151490330696106,-0.11234461516141891,-0.3327416777610779,-0.050369903445243835,0.2547740340232849,0.052664972841739655,0.0022045455407351255,-0.04326590150594711,-0.34531518816947937,0.018096188083291054,-0.21150705218315125,-0.5438151359558105,-0.8186560869216919,-1.2219727039337158,-1.2605966329574585,-0.9395537972450256,-0.1563044637441635,-0.5762714147567749,-0.7695100903511047,-1.1979566812515259,-1.2299264669418335,-0.8897092938423157,-0.15295161306858063,-0.5465651750564575,-0.8294824361801147,-1.2166743278503418,-1.220362901687622,-0.8855279088020325,-0.1642642617225647,-0.5364577174186707,-0.8591474294662476,-1.283814787864685,-1.2808678150177002,-0.8938496112823486,-0.14911358058452606,-0.41016802191734314,-0.5599508881568909,-0.8065372109413147,-0.8102733492851257,-0.5937055349349976,-0.18034519255161285,-0.5243104100227356,-0.7816051244735718,-1.1777135133743286,-1.2316598892211914,-0.8578064441680908,0.15600423514842987,0.5296812653541565,0.7490479946136475,1.111739158630371,1.1217888593673706,0.8215144276618958,0.15136457979679108,0.557213306427002,0.8313316106796265,1.2380996942520142,1.2585080862045288,0.9183834791183472,0.1634926050901413,-0.02761344239115715,-0.05842655897140503,0.014983671717345715,-0.22498975694179535,-0.29818207025527954,0.15558436512947083,-0.038761746138334274,-0.05920280143618584,0.009381236508488655,-0.2181086242198944,-0.26825669407844543,0.150107741355896,-0.02955411747097969,-0.07207322865724564,0.0035253893584012985,-0.23235508799552917,-0.27301445603370667,0.1676233559846878,-0.022837430238723755,-0.0820879191160202,0.010608011856675148,-0.23696933686733246,-0.28541287779808044,0.091116763651371,-0.00932519230991602,-0.044232048094272614,-0.01992395892739296,-0.16387806832790375,-0.1617223024368286,0.16456463932991028,-0.02968038246035576,-0.09029965102672577,-0.0008281664340756834,-0.23862574994564056,-0.2795339822769165,-0.1360848844051361,0.006793258246034384,0.06491632014513016,0.016576144844293594,0.221222385764122,0.23716236650943756,-0.1645451933145523,0.02632950060069561,0.07048576325178146,0.0065140691585838795,0.24964793026447296,0.2603074014186859,0.214994415640831,0.5391243100166321,0.5985913872718811,0.7710779905319214,0.7589853405952454,0.6537753343582153,0.23093581199645996,0.509668231010437,0.5782052874565125,0.7333387136459351,0.735663890838623,0.6392478942871094,0.23210623860359192,0.5092647075653076,0.5767468810081482,0.7355367541313171,0.7371765971183777,0.6427508592605591,0.222616508603096,0.5292331576347351,0.5964811444282532,0.774101972579956,0.768673837184906,0.6711024641990662,0.1866001933813095,0.38636666536331177,0.44031015038490295,0.5495718717575073,0.5537865161895752,0.4890424609184265,0.23041807115077972,0.5272073745727539,0.5888150334358215,0.7459383606910706,0.7538436055183411,0.6572785377502441,-0.2307119220495224,-0.4865533709526062,-0.548408567905426,-0.6917725801467896,-0.6973448395729065,-0.6076248288154602,-0.2322816103696823,-0.5215993523597717,-0.5948612689971924,-0.757774293422699,-0.7581771612167358,-0.6656180620193481,0.08313751220703125,0.5242341756820679,0.946512758731842,1.2531689405441284,1.291183352470398,1.0208302736282349,0.09826676547527313,0.5137501358985901,0.8971089720726013,1.1581238508224487,1.2408745288848877,0.9495444297790527,0.09629745781421661,0.5253708362579346,0.8946437835693359,1.1566771268844604,1.212151050567627,0.9441049098968506,0.07097149640321732,0.5602434873580933,0.9849773049354553,1.2359675168991089,1.3367127180099487,1.0131841897964478,0.10284433513879776,0.3949572741985321,0.6423531174659729,0.8001924753189087,0.8159575462341309,0.6242280006408691,0.06974425166845322,0.5591708421707153,0.9176520109176636,1.204803705215454,1.2939441204071045,0.9785049557685852,-0.11962103843688965,-0.5189411640167236,-0.8680151700973511,-1.0936850309371948,-1.1252070665359497,-0.8759134411811829,-0.08951804041862488,-0.5508937835693359,-0.9530982375144958,-1.2260881662368774,-1.2499380111694336,-0.9817897081375122,0.6896430253982544,1.0736666917800903,1.0115760564804077,1.2732306718826294,-0.0031042806804180145,-0.9161375164985657,-0.4817814230918884,0.0074536846950650215,0.27118954062461853,0.018495632335543633,-0.06534624844789505,-0.03363114967942238,0.2982993423938751,0.0947260931134224,-0.2390705943107605,-0.2936468720436096,-1.0812389850616455,-0.6120616793632507,0.18660619854927063,0.3687666058540344,-1.0915651321411133,0.5175958871841431,0.9842579960823059,0.9851872324943542,0.013985792174935341,-0.27135908603668213,-0.1650497019290924,-0.4428694248199463,-0.26895231008529663,1.0061604976654053,0.20081549882888794,0.5215035080909729,-0.37794628739356995,-0.17717300355434418,0.07566821575164795,0.47058674693107605,-0.9062111973762512,0.1907140612602234,1.1003737449645996,1.1064773797988892,-0.9861260056495667,-0.1426253616809845,-0.4049284756183624,-1.0410548448562622,-0.35688841342926025,0.6376771926879883,0.13004247844219208,0.09946642816066742,-0.14305095374584198,0.27853450179100037,-0.17373882234096527,-0.805270791053772,0.6074482798576355,0.2308737337589264,-0.4796859920024872,-0.384646475315094,-0.8833907842636108,-0.20640918612480164,0.5668298602104187,0.29993191361427307,-0.6415342688560486,-0.17219148576259613,0.41763460636138916,0.5247080326080322,0.4000481367111206,0.17214706540107727,0.12155059725046158,0.5015101432800293,0.5188078284263611,-0.13286009430885315,-0.5076416730880737,-0.4527529180049896,0.4437088668346405,0.2819904386997223,0.20598028600215912,0.6305601596832275,0.1456698775291443,-0.6659914255142212,0.3319823145866394,-0.11855576932430267,-0.23749896883964539,-1.2410682439804077,0.3859556019306183,-1.4035545587539673,-0.8951177597045898,0.2654140293598175,1.1189372539520264,1.0980687141418457,0.059490542858839035,0.038488663733005524,0.10739009082317352,0.12403212487697601,0.045396629720926285,-0.03729111701250076,0.42258763313293457,0.15364667773246765,0.11942052096128464,0.16053904592990875,-0.10046769678592682,-0.1336812525987625,0.3066956400871277,0.011932737194001675,0.2317410707473755,0.015810713171958923,0.03229958936572075,0.020549636334180832,0.02294207736849785,-0.012163698673248291,-0.04203492030501366,0.014907675795257092,-0.034095726907253265,0.16296900808811188,-0.22703605890274048,-0.17920462787151337,-0.03663985803723335,-0.18138271570205688,-0.05868983641266823,0.10702674835920334,0.07996787130832672,0.07091934233903885,-0.0018798389937728643,-0.061274223029613495,-0.1222049668431282,-0.1592884063720703,-0.35487669706344604,-0.21669547259807587,-0.10477772355079651,-0.032391443848609924,-0.03009689226746559,0.09819512814283371,0.03696972876787186,-0.004109203815460205,0.17926470935344696,0.04576948285102844,0.07020564377307892,-0.10263629257678986,0.3594382703304291,0.18163859844207764,0.1734623908996582,0.31137868762016296,-0.025321925058960915,-0.2670992910861969,0.0637798085808754,0.15332703292369843,0.004528640769422054,-0.03654933348298073,-0.13081155717372894,-0.39500361680984497,0.5009996891021729,0.47353264689445496,0.3752031624317169,0.36171072721481323,0.07428861409425735,-0.3593007028102875,-0.351034551858902,-0.44390738010406494,-0.5799642205238342,-0.4535347819328308,-0.41230395436286926,-0.43716540932655334,-0.4228491187095642,-0.23982708156108856,-0.4568134844303131,-0.2235519289970398,-0.37117892503738403,0.18335464596748352,0.39099952578544617,0.19254136085510254,0.2666734755039215,0.20607277750968933,0.09943775087594986,-0.37725749611854553,-0.2878933846950531,-0.05993245914578438,0.07369457930326462,0.024050043895840645,0.04935792088508606,0.4219135642051697,0.382517009973526,0.33328863978385925,0.4245398938655853,0.4786186218261719,0.4711146056652069,0.3412606716156006,-0.12757287919521332,-0.08762272447347641,-0.24406887590885162,-0.20257961750030518,-0.017011523246765137,0.4129163920879364,-0.11760503798723221,0.10141609609127045,-0.09037840366363525,-0.04520166292786598,-0.06261073797941208,0.059028685092926025,-0.12121888995170593,0.04158249869942665,-0.08307510614395142,-0.1800515353679657,0.1997567117214203,0.45257824659347534,-0.2611367702484131,-0.29021409153938293,-0.17135155200958252,-0.07791600376367569,-0.1794244349002838,-0.11096727848052979,-0.15520428121089935,-0.06758280843496323,-0.00752953952178359,-0.02910030260682106,0.012909063138067722,-0.15221256017684937,-0.09255847334861755,-0.22159326076507568,-0.22407996654510498,-0.052085570991039276,-0.08461616933345795,0.2503603398799896,0.2110796719789505,-0.04880575090646744,0.06370950490236282,0.008670913986861706,0.07787399739027023,-0.0574357695877552,0.26700228452682495,0.07684153318405151,0.3155830204486847,0.05170410871505737,0.1807328313589096,0.17408673465251923,-0.13642732799053192,-0.1304379403591156,-0.3302372992038727,-0.14793026447296143,-0.14350658655166626,0.48945510387420654,-0.014326078817248344,0.11048617213964462,-0.03204992786049843,-0.1422007530927658,-0.17039062082767487,-0.018286991864442825,-0.13663271069526672,-0.07939232140779495,0.0021398270037025213,-0.04852699115872383,0.1658264547586441,0.5124078392982483,-0.3404960632324219,-0.1600622832775116,-0.3609772026538849,-0.23003584146499634,-0.4510665237903595,-0.3416367769241333,-0.2953421473503113,-0.22274984419345856,-0.11068101227283478,0.008305088616907597,0.013853299431502819,-0.39431795477867126,-0.22878220677375793,-0.1039443239569664,-0.35966163873672485,-0.08166276663541794,-0.13959909975528717,0.44087129831314087,0.14112161099910736,0.041625261306762695,0.19202172756195068,0.1837683618068695,0.27329760789871216,-0.18707561492919922,0.25345924496650696,0.17530789971351624,0.28470373153686523,0.29501062631607056,0.3218952417373657,0.15849684178829193,-0.2706048786640167,-0.1809655725955963,-0.2191496342420578,-0.1274450272321701,0.14405415952205658,0.5420376658439636,-0.3105689287185669,-0.11518699675798416,-0.33366578817367554,-0.17905785143375397,-0.19746650755405426,0.03864702209830284,-0.18404549360275269,-0.029552176594734192,-0.28470903635025024,-0.06195792928338051,0.21155324578285217,0.5791692733764648,-0.10765855014324188,0.09017573297023773,-0.0685388371348381,-0.16663004457950592,-0.0614282451570034,0.0712735652923584,-0.1379752904176712,-0.1623949557542801,-0.02962171658873558,-0.021378763020038605,0.052655354142189026,-0.45545271039009094,-0.024600844830274582,-0.20696689188480377,-0.1471472680568695,-0.19066135585308075,0.22866760194301605,0.5674371123313904,0.17532303929328918,0.09378856420516968,0.2623760998249054,0.07187216728925705,0.1816188544034958,-0.20921973884105682,0.0816274881362915,-0.032354049384593964,0.09096035361289978,0.024355921894311905,0.19193170964717865,0.10927965492010117,0.04434339702129364,-0.028302829712629318,0.018537767231464386,-0.0490163117647171,-0.03810514882206917,-0.23813751339912415,0.4728754162788391,0.3557298183441162,0.2921546697616577,0.3745304048061371,0.4032500386238098,0.2629477381706238,0.18164366483688354,-0.06411001086235046,0.10343632102012634,0.11366259306669235,0.03694668412208557,-0.17144690454006195,0.010552625171840191,0.12256533652544022,0.22263140976428986,0.09476117044687271,0.058797139674425125,-0.07684027403593063,0.2009090781211853,0.13800664246082306,0.14752572774887085,0.10750702023506165,0.15881586074829102,0.38669899106025696,-0.20712058246135712,-0.1793040633201599,-0.06221485510468483,-0.17173145711421967,-0.05469384789466858,-0.2990506887435913,-0.3261248767375946,-0.18314586579799652,-0.19555796682834625,-0.16999134421348572,-0.20739531517028809,0.03746990114450455,-0.025926174595952034,-0.14084993302822113,-0.20390363037586212,-0.22240689396858215,-0.18759535253047943,-0.10625257343053818,-0.14491918683052063,-0.029670827090740204,-0.12304852157831192,-0.14859262108802795,0.059174638241529465,0.29948678612709045,-0.035188913345336914,-0.030676130205392838,-0.11841656267642975,-0.05322049930691719,-0.08163607865571976,-0.08515140414237976,-0.06662927567958832,0.053336430341005325,-0.1459473967552185,-0.1666916310787201,0.07657761126756668,0.4155171513557434,-0.269773930311203,-0.3177509903907776,-0.3138583302497864,-0.2628004550933838,-0.1674937605857849,-0.17208944261074066,-0.10998652875423431,-0.2225213348865509,-0.08481014519929886,-0.026428548619151115,-0.035068362951278687,-0.3482329845428467,-0.22399142384529114,-0.25319206714630127,-0.2610737383365631,-0.12098222970962524,0.08954501152038574,0.5024038553237915,0.29247909784317017,0.08329588919878006,0.22519046068191528,0.19868643581867218,0.0844888985157013,-0.10755406320095062,0.25673022866249084,0.1179816722869873,0.25437670946121216,0.09790121763944626,0.24275629222393036,0.10083277523517609,-0.061830535531044006,0.023350024595856667,-0.1911402940750122,-0.16549152135849,-0.09541839361190796,0.3045770823955536,0.26275765895843506,0.2732751965522766,0.2472095489501953,0.19831134378910065,0.3106864094734192,0.6426027417182922,-0.1719544380903244,-0.06148252636194229,0.022874560207128525,0.02703871950507164,0.00923313107341528,0.4375360608100891,0.07262299209833145,0.06830243021249771,0.057204265147447586,0.16929548978805542,-0.05567733570933342,-0.02573871985077858,0.15823201835155487,0.27123963832855225,0.33132532238960266,0.2795504033565521,0.32921403646469116,0.06420381367206573,-0.2300240397453308,-0.05232980474829674,-0.3229176998138428,-0.22726990282535553,-0.23327669501304626,0.07012674957513809,0.03018251806497574,-0.0959354043006897,-0.05006479099392891,-0.19593656063079834,-0.09612700343132019,-0.4628656804561615,-0.22123458981513977,-0.24646934866905212,-0.2160145342350006,-0.267852246761322,-0.1020621508359909,-0.16038154065608978,-0.01320142112672329,0.10842933505773544,0.4527389407157898,0.3949839770793915,0.6953005790710449,-0.2063789963722229,0.621987521648407,-0.22519007325172424,0.014633750542998314,0.059170521795749664,-0.0700107216835022,-0.037472017109394073,-0.07203572988510132,-0.008394972421228886,-0.01503718551248312,0.01053111907094717,-0.05423479527235031,-0.19285976886749268,0.11973419785499573,0.25093600153923035,0.1572311818599701,0.8650696277618408,0.04085421562194824,-0.9630928635597229,-0.0317155122756958,-0.0932239294052124,0.16900484263896942,0.025689508765935898,0.1212729886174202,0.06637843698263168,-0.13934332132339478,-0.2453007996082306,-0.32853323221206665,-0.11507563292980194,0.21716248989105225,0.03594980761408806,0.052821990102529526,0.5373001098632812,0.08954694867134094,-0.6344137787818909,-0.06269659847021103,0.005195576697587967,0.08112388849258423,0.09447377175092697,0.18919990956783295,0.3099915385246277,0.1689257174730301,-0.66041499376297,0.14198696613311768,0.07951107621192932,-0.10535483807325363,0.07874120771884918,-0.12180841714143753,-0.20817352831363678,-0.1896309107542038,0.7009251713752747,-0.22703175246715546,-0.0016669640317559242,-0.009957563132047653,0.04691002145409584,0.17444977164268494,0.22037887573242188,0.29758158326148987,-0.7575507760047913,0.10152948647737503,0.05790434032678604,-0.15352213382720947,-0.017946893349289894,-0.03968833386898041,-0.2959086000919342,-0.06523447483778,0.2489101141691208,-0.038035985082387924,0.0030853338539600372,0.005007700063288212,-0.16979002952575684,-0.2255949229001999,-0.4236010015010834,0.10986810177564621,0.305998831987381,-0.006023837253451347,-0.35741108655929565,0.19230151176452637,0.18401922285556793,0.06247542425990105,0.39837974309921265,0.5748119354248047,-0.16799025237560272,0.08194679021835327,-0.032173898071050644,0.19165094196796417,0.15424899756908417,0.043818000704050064,-0.16064457595348358,0.12040257453918457,0.1359890252351761,0.3318023979663849,0.10568542778491974,0.19022715091705322,0.1218167319893837,-0.06907615810632706,0.06795244663953781,0.060886356979608536,-0.0544254370033741,-0.0326186828315258,-0.3201775550842285,0.13885636627674103,0.12568943202495575,-0.038623154163360596,0.021664533764123917,0.03484940901398659,-0.2912299931049347,-0.21820425987243652,0.10592222958803177,0.09581737220287323,0.12406758219003677,0.22999821603298187,0.43869301676750183,-0.22920213639736176,-0.01017176266759634,-0.03188891336321831,-0.08519842475652695,0.007547576911747456,-0.38965895771980286,-0.026200350373983383,-0.20857813954353333,-0.34813597798347473,-0.242944598197937,-0.324593722820282,-0.0448397658765316,0.16456741094589233,0.11294008046388626,0.11036866903305054,-0.12300865352153778,-0.029544459655880928,-0.08136327564716339,-0.09135972708463669,0.0627472996711731,0.07759935408830643,0.16341373324394226,-0.01332235150039196,-0.3293304145336151,0.0892891213297844,0.060074083507061005,0.10770215094089508,-0.0679187923669815,-0.18197496235370636,-0.4902520775794983,0.11250539124011993,0.18347550928592682,0.2777538597583771,0.052357226610183716,0.09970404952764511,-0.269299179315567,0.06463870406150818,-0.009840424172580242,0.04512406513094902,0.05673963204026222,0.027492118999361992,-0.15856210887432098,-0.11756066977977753,-0.048370301723480225,-0.23779918253421783,-0.22486858069896698,-0.17788554728031158,-0.03735784441232681,-0.05472046881914139,0.1578146368265152,0.1884235441684723,0.19881793856620789,0.18796643614768982,-0.022862007841467857,-0.015113458037376404,0.05959393456578255,-0.04505225643515587,0.057691819965839386,0.023325130343437195,0.4153476655483246,-0.06572360545396805,-0.1871308833360672,-0.10620366036891937,-0.04358409345149994,-0.01751069538295269,0.5373783707618713,-0.09333451092243195,-0.06549209356307983,-0.009468764066696167,-0.08779877424240112,-0.047741495072841644,-0.05994049832224846,0.07431323081254959,0.16365976631641388,-0.02486054040491581,-0.03400612995028496,-0.15560844540596008,0.2841836214065552,0.012149401009082794,-0.1250404417514801,-0.19375275075435638,-0.032083094120025635,0.0216290894895792,0.24564972519874573,-0.030304795131087303,0.036127593368291855,-0.048325102776288986,-0.04500790312886238,0.05561702325940132,0.25873228907585144,0.048571474850177765,0.10259533673524857,0.20403780043125153,0.1206158772110939,0.0975053608417511,0.2322809100151062,-0.05579054355621338,-0.1066475436091423,-0.12159382551908493,-0.10879265516996384,0.05566083639860153,0.1738562136888504,-0.04380550980567932,-0.10642104595899582,-0.09993258118629456,-0.11641488969326019,0.04982395097613335,-0.44014492630958557,-0.122153140604496,0.12078601121902466,0.12327821552753448,-0.05991591885685921,0.035442303866147995,-0.1428258866071701,0.018234901130199432,0.08050469309091568,-0.13096287846565247,-0.11407405138015747,-0.007895577698946,0.24258598685264587,-0.17487941682338715,-0.025602752342820168,-0.0687287226319313,-0.0018298584036529064,0.0910947173833847,0.42770785093307495,-0.04935072362422943,-0.1231977716088295,-0.026668008416891098,0.013213175348937511,0.035648565739393234,0.17424938082695007,-0.16658718883991241,-0.1361786425113678,0.02396462671458721,-0.04693162441253662,0.00802476517856121,0.3541109561920166,0.12428895384073257,0.09173914045095444,0.40583091974258423,0.040222443640232086,-0.035553861409425735,-0.7451128363609314,0.10587111860513687,-0.0801781713962555,-0.11658114939928055,-0.22625568509101868,-0.21155507862567902,0.19151367247104645,-0.015406333841383457,-0.04840351641178131,-0.14678871631622314,-0.0004949041176587343,0.12791460752487183,-0.12281139194965363,0.01925063319504261,0.0984073355793953,0.13541516661643982,-0.17085625231266022,-0.16864724457263947,-0.24900710582733154,0.13166862726211548,0.0787811428308487,0.2948931157588959,-0.00954621471464634,-0.047144416719675064,-0.2393449991941452,0.0649947002530098,0.0723089650273323,0.051278289407491684,-0.20113617181777954,-0.11602573841810226,-0.2528025209903717,0.16406306624412537,0.04725010320544243,0.2735790014266968,0.18692459166049957,0.1156727522611618,-0.28132739663124084,-0.03269106149673462,0.112502820789814,0.05758150666952133,-0.08008868992328644,-0.09775864332914352,0.12383599579334259,0.06710638105869293,-0.039742037653923035,0.014274459332227707,-0.14933238923549652,0.08344703912734985,-0.09778271615505219,0.18283940851688385,0.15711192786693573,0.22086361050605774,0.028879793360829353,0.197246715426445,-0.047810815274715424,0.10607655346393585,0.04933913052082062,-0.022306134924292564,0.1241234615445137,0.13660605251789093,0.5102462768554688,0.03593127802014351,-0.04471328854560852,-0.12972944974899292,-0.10407374799251556,0.047475770115852356,0.43756020069122314,-0.05618362873792648,-0.03808266669511795,0.03803841024637222,-0.0035093261394649744,-0.07224804162979126,-0.22315293550491333,0.1900920569896698,-0.003082401119172573,0.02885248325765133,0.15278466045856476,0.36575040221214294,-0.13269536197185516,0.1169489175081253,0.12555156648159027,0.02419252321124077,0.22746291756629944,-0.10983733832836151,-0.24631987512111664,0.07422502338886261,0.09195446223020554,0.08378519117832184,0.07864469289779663,0.03125232458114624,-0.5998311638832092,-0.0009301219834014773,0.03744383528828621,-0.226213738322258,0.293849915266037,0.13004513084888458,0.4516128599643707,-0.08990614116191864,0.016611222177743912,0.030492622405290604,0.11125925183296204,-0.08023162931203842,-0.20272418856620789,-0.10410475730895996,-0.19132156670093536,-0.0913911908864975,-0.31876206398010254,-0.3936159610748291,0.10750332474708557,-0.1227751299738884,-0.09726139158010483,-0.2924771308898926,-0.15442168712615967,-0.155722975730896,0.2924976944923401,0.036436256021261215,-0.14466053247451782,-0.09899887442588806,-0.15650606155395508,-0.1786065250635147,0.3053898215293884,-0.11551991105079651,-0.11140412837266922,-0.0343056358397007,-0.00827808864414692,-0.08295897394418716,-0.09717109054327011,0.048749662935733795,0.02336006984114647,-0.17520999908447266,-0.16247190535068512,-0.001820078701712191,0.2633364498615265,-0.08598823100328445,-0.06081945076584816,-0.07649059593677521,-0.14854422211647034,0.053106639534235,-0.010677504353225231,0.06242021918296814,0.017305713146924973,0.10061480104923248,-0.002394505310803652,-0.07454576343297958,-0.041507743299007416,0.11233427375555038,0.062186360359191895,0.0407496839761734,-0.018528226763010025,0.058179087936878204,0.3467269837856293,0.2991553246974945,0.22134777903556824,0.12623317539691925,0.04405365511775017,0.20355229079723358,0.03541595861315727,-0.09248901158571243,-0.12800507247447968,-0.09417217969894409,-0.13159283995628357,-0.06638875603675842,-0.38952839374542236,-0.19790516793727875,-0.12973041832447052,-0.1577315628528595,-0.08172480016946793,-0.0019253105856478214,0.2713366746902466,-0.015515964478254318,-0.11203840374946594,-0.2550540864467621,-0.03513152897357941,0.07241638004779816,0.005096062086522579,-0.009654318913817406,-0.015791287645697594,-0.18796449899673462,-0.003491481766104698,-0.008008765988051891,0.38988038897514343,0.0052758329547941685,-0.03984346240758896,-0.13091611862182617,-0.029041698202490807,0.006880967877805233,0.12458272278308868,-0.04634417966008186,0.07587932050228119,0.09385796636343002,-0.025250045582652092,-0.03750090301036835,-0.16444118320941925,-0.012129670940339565,0.1161600798368454,0.022600863128900528,0.02674800716340542,0.006461798679083586,0.06334073096513748,0.17513670027256012,0.2601955235004425,0.1634513884782791,-0.01108645275235176,-0.012202237732708454,-0.1682787388563156,-0.1349308043718338,0.05563832074403763,0.13014338910579681,0.03246746584773064,0.0827149897813797,-0.07375665009021759,-0.3038337528705597,0.2046562284231186,-0.04998974874615669,-0.3485407531261444,0.21583221852779388,-0.35758307576179504,0.05313927307724953,0.23015883564949036,0.00011507719318615273,-0.061589956283569336,0.002226410899311304,0.016756348311901093,0.004939364735037088,-0.019355861470103264,0.026231175288558006,0.014340910129249096,0.28210458159446716,-0.09444170445203781,-0.1879999041557312,-0.5454409718513489,-0.22711655497550964,0.4735738933086395,0.0581386499106884,0.3174546957015991,-0.193427175283432,0.0956888273358345,0.1284525841474533,-0.4388526380062103,0.037055376917123795,0.10336948186159134,0.2667851746082306,0.0029580085538327694,0.21716248989105225,-0.17570041120052338,0.1100340336561203,-0.6857739090919495,-0.18555907905101776,0.1588304042816162,0.21325328946113586,0.16400372982025146,0.37686261534690857,-0.24374397099018097,-0.07349191606044769,-0.6191832423210144,-0.263775497674942,0.49545300006866455,0.10645946860313416,0.426715224981308,-0.4112084209918976,0.3659021556377411,-0.23976744711399078,0.6942735910415649,0.09568195790052414,-0.27098628878593445,-0.24622945487499237,-0.221267431974411,0.5563507676124573,-0.3256637454032898,0.33766165375709534,-0.7483258843421936,-0.34353306889533997,0.3976057469844818,-0.12829846143722534,0.2691837549209595,-0.09887374937534332,0.022340817376971245,0.3745107352733612,0.34502238035202026,0.14422254264354706,-0.2643985152244568,-0.1839752197265625,-0.2744569778442383,0.15691041946411133,-0.1832534372806549,0.06474107503890991,-0.0718095600605011,0.005693038459867239,-0.06706009805202484,0.376595139503479,-0.0559631884098053,-0.13033737242221832,-0.13140302896499634,0.006679171696305275,0.11528252065181732,0.053792692720890045,-0.2907305359840393,0.0514681302011013,-0.1495189666748047,0.007025953847914934,-0.15918739140033722,-0.017375320196151733,0.04204719141125679,0.33723577857017517,-0.23663553595542908,0.02285005711019039,0.15617746114730835,-0.13351653516292572,-0.01741759292781353,0.06321452558040619,-0.1677190214395523,0.0954328253865242,0.05606509745121002,0.1465636044740677,0.06477803736925125,-0.015210279263556004,0.17622603476047516,0.05041142553091049,0.20083142817020416,0.06489318609237671,0.02290218695998192,0.0213320292532444,-0.1347857266664505,-0.047419119626283646,-0.169278085231781,-0.007506577298045158,-0.13697586953639984,0.13524508476257324,0.07485124468803406,-0.07826335728168488,-0.02675185725092888,0.155037984251976,0.14573945105075836,0.1282040774822235,0.21227459609508514,-0.0742734968662262,-0.02973320707678795,-0.026037272065877914,-0.015775859355926514,-0.06765000522136688,0.08304882049560547,-0.11930611729621887,-0.012511701323091984,-0.0868249237537384,-0.1235518604516983,0.06029798090457916,0.06174301728606224,-0.02441941201686859,-0.0070658219046890736,-0.11245495826005936,-0.08620767295360565,-0.12097180634737015,0.21957184374332428,-0.05657259747385979,-0.13215957581996918,-0.08554455637931824,-0.04096689820289612,0.13982751965522766,0.0219044778496027,-0.05452952906489372,0.015894820913672447,-0.03959369659423828,-0.180611252784729,-0.22676979005336761,-0.14163564145565033,0.01873101107776165,-0.06750001758337021,-0.07994558662176132,-0.14785590767860413,-0.08500269800424576,0.0456862673163414,0.009765940718352795,0.2143215537071228,0.051591552793979645,-0.03231131285429001,0.09943059086799622,-0.14082962274551392,-0.061565060168504715,0.009713815525174141,-0.05509305000305176,-0.07720649242401123,-0.09388542175292969,-0.09707740694284439,0.05653965100646019,0.04937645047903061,-0.015929346904158592,0.01148467417806387,0.055030398070812225,-0.00024351157480850816,0.1255004107952118,-0.032454829663038254,-0.0017483595293015242,0.28425291180610657,0.2443941831588745,-0.11506572365760803,0.06247013062238693,-0.018237685784697533,0.04504797235131264,0.002050406066700816,-0.21545088291168213,0.16065232455730438,0.0025214299093931913,-0.016665108501911163,0.014331340789794922,-0.021450404077768326,0.062118422240018845,-0.08846725523471832,-0.05939400941133499,0.05604982748627663,0.013588392175734043,0.04539275914430618,0.06740326434373856,-0.03241744637489319,-0.08140700310468674,0.006375180557370186,0.0032219900749623775,0.007131476420909166,0.12974156439304352,0.051177382469177246,-0.007190248463302851,0.009515457786619663,0.04747563600540161,0.07247018069028854,-0.12625905871391296,0.02421562932431698,0.061997976154088974,-0.020667651668190956,0.020977303385734558,0.09905681759119034,-0.13243815302848816,0.1028057113289833,-0.015042911283671856,-0.014623122289776802,0.08638422191143036,0.2010868638753891,-0.005943324416875839,-0.11012975871562958,0.03314953297376633,-0.04189499840140343,-0.007141769398003817,0.10869292914867401,-0.0011993825901299715,0.12153402715921402,-0.061384886503219604,-0.010722409002482891,0.10404864698648453,0.053925588726997375,0.028218219056725502,-0.07579799741506577,0.019076289609074593,-0.013282140716910362,-0.028354685753583908,-0.028839221224188805,0.04990147054195404,-0.147812619805336,0.06657802313566208,0.0003056835848838091,-0.04290890321135521,0.01736362650990486,-0.19183985888957977,0.062261465936899185,0.0328756682574749,-0.019823620095849037,-0.12202277779579163,-0.057239264249801636,0.09714321047067642,-0.05948017165064812,0.039143044501543045,-0.016087384894490242,0.07943180948495865,-0.05285840108990669,-0.1391242891550064,0.007426280528306961,-0.04650304093956947,-0.04138624295592308,0.11295617371797562,0.04538513347506523,-0.05050046369433403,-0.18340755999088287,-0.0935896560549736,-0.12796209752559662,-0.057315584272146225,-0.008455940522253513,0.04385548084974289,0.09184125810861588,-0.039274413138628006,0.00045732103171758354,0.06331110000610352,-0.11267471313476562,0.1258488893508911,-0.04582132026553154,-0.03234170377254486,-0.016976799815893173,-0.03640910983085632,0.006612082943320274,-0.04828955978155136,0.06824005395174026,0.04820014163851738,0.0747700035572052,-0.009819270111620426,0.0381283164024353,0.005410557147115469,-0.061605364084243774,0.028279414400458336,-0.009744659997522831,0.05214580148458481,-0.13930286467075348,-0.052651189267635345,-0.34126269817352295,0.03147409111261368,0.08926457911729813,0.03468257933855057,0.01123768836259842,-0.08989474177360535,0.1953020989894867,-0.037202075123786926,-0.04304676875472069,-0.11695443093776703,0.032534535974264145,-0.034952256828546524,0.3724764883518219,-0.03121659904718399,-0.0018477526027709246,0.001170072820968926,0.14671199023723602,0.14841480553150177,-0.25213587284088135,0.03621174022555351,0.16645999252796173,0.0908278375864029,-0.13201864063739777,-0.2824941873550415,-0.6064572334289551,-0.08116503804922104,0.08596327155828476,-0.01170272845774889,-0.0481233075261116,-0.1659667044878006,0.46089765429496765,-1.3622036021843087e-05,0.1110520213842392,0.018894638866186142,-0.005497868172824383,0.11222011595964432,0.09295377135276794,-0.030404645949602127,-0.03914038464426994,-0.20651690661907196,-0.08637633174657822,-0.19883987307548523,-0.25129371881484985,0.04286552593111992,-0.0008682823390699923,-0.0032434226013720036,-0.029168909415602684,-0.056343741714954376,0.07062044739723206,0.04662671312689781,-0.009344485588371754,-0.043740302324295044,0.04682066664099693,-0.020755799487233162,-0.1640426218509674,-0.13253039121627808,0.0434718057513237,0.04408074915409088,-0.021960623562335968,-0.10877163708209991,-0.21961605548858643,-0.18379738926887512,-0.076421357691288,-0.08878772705793381,-0.056403763592243195,-0.1692465990781784,-0.28081923723220825,0.11641084402799606,0.13481329381465912,0.1450868844985962,0.09823273867368698,0.2124875783920288,0.20471510291099548,-0.06230783462524414,-0.12323363870382309,-0.003038685070350766,-0.06748854368925095,-0.02617163211107254,-0.11844296008348465,0.028582561761140823,-0.010473092086613178,-0.00605419185012579,-0.06383688002824783,0.012632583267986774,0.020746944472193718,-0.03977596014738083,0.05479451268911362,0.012917515821754932,-0.18752428889274597,0.2686184346675873,-0.06921377032995224,-0.025861568748950958,0.020253248512744904,-0.0098055275157094,-0.0159573033452034,-0.03416015952825546,0.0885484516620636,-0.018681401386857033,0.055517975240945816,0.01030912809073925,-0.06784049421548843,-0.15019667148590088,0.21431225538253784,0.05592179298400879,0.008008774369955063,0.05962783470749855,-0.19114981591701508,0.16586923599243164,-0.238616481423378,0.01911035366356373,-0.1115911602973938,-0.011411978863179684,-0.08515144139528275,0.10802223533391953,0.11766790598630905,-0.02168917842209339,-0.017911070957779884,0.021299779415130615,-0.05124874785542488,-0.03323853388428688,0.09842139482498169,0.08599924296140671,-0.0026334773283451796,0.028042787685990334,0.03085150755941868,0.026869477704167366,-0.11302496492862701,-0.06687715649604797,-0.06933959573507309,0.050960078835487366,-0.12976832687854767,0.38091766834259033,-0.31211981177330017,-0.0170715544372797,-0.03738662600517273,-0.08448229730129242,0.012302709743380547,-0.062258459627628326,-0.05590762197971344,0.056772734969854355,0.03061457723379135,0.08494735509157181,-0.052908167243003845,0.11349917948246002,-0.027840593829751015,0.0396234504878521,0.07284123450517654,0.02388530597090721,-0.03905060142278671,-0.13380388915538788,-0.21397250890731812,-0.04317248612642288,-0.04431135579943657,-0.04225089028477669,-0.03486388921737671,0.13348011672496796,0.15064458549022675,-0.08758740872144699,-0.09261799603700638,-0.11703135818243027,0.11579421162605286,-0.035906337201595306,0.024863403290510178,-0.019657116383314133,-0.007701225113123655,0.04974464699625969,-0.14867337048053741,0.059702686965465546,0.2984209656715393,-0.06286285817623138,0.07074680179357529,0.005628621205687523,-0.09988897293806076,-0.4346697926521301,-0.06802612543106079,0.02040153555572033,0.04754117131233215,0.16122031211853027,-0.11297154426574707,-0.3883948028087616,0.08501318842172623,-0.3067285716533661,0.250941663980484,-0.013638843782246113,0.007760323584079742,0.003179137362167239,0.007825122214853764,-0.0116721261292696,-0.002832070691511035,0.013093514367938042,0.01844138093292713,-0.13087394833564758,0.1950693279504776,0.22863969206809998,0.5127187371253967,0.2589712142944336,0.2502945065498352,-0.4314125180244446,-0.2944084405899048,-0.08637874573469162,0.043679263442754745,0.4472332298755646,0.2592291235923767,0.3757554888725281,0.2627354562282562,-0.3571302890777588,-0.4287523925304413,-0.25035908818244934,0.09759044647216797,0.22561058402061462,0.12439856678247452,0.46962329745292664,0.22005832195281982,-0.10640563070774078,-0.4425627291202545,0.015315931290388107,0.036418575793504715,0.14066685736179352,0.0690356194972992,-0.044639308005571365,0.26702994108200073,-0.16969548165798187,0.04886826127767563,-0.026911571621894836,0.010727426037192345,-0.3430499732494354,-0.1939534842967987,-0.39386624097824097,0.21824423968791962,0.3878070116043091,0.27455201745033264,-0.4391505718231201,0.3930683434009552,0.06306895613670349,0.19703859090805054,0.25538119673728943,0.3790866732597351,-0.37547942996025085,-0.10299092531204224,0.1887616664171219,-0.13820376992225647,0.018283961340785027,-0.07930869609117508,-0.021432600915431976,-0.20196644961833954,-0.1745777726173401,-0.20647981762886047,0.14997540414333344,-0.23110559582710266,-0.2956782579421997,-0.3050895929336548,0.007953623309731483,-0.09934287518262863,0.5629640817642212,0.16634728014469147,0.19236138463020325,-0.22002707421779633,0.04119996726512909,-0.24099349975585938,-0.07514870166778564,-0.12997587025165558,-0.10112384706735611,0.014845329336822033,0.008744340389966965,-0.024401627480983734,0.01900717429816723,-0.022005895152688026,0.05514824762940407,-0.08415617793798447,-0.05029171705245972,0.0002252367848996073,-0.021399229764938354,-0.009932124055922031,-0.14954116940498352,0.27578306198120117,-0.0014422941021621227,0.010084472596645355,0.005086841527372599,-0.013145762495696545,0.11990178376436234,-0.040207527577877045,-0.02208733558654785,0.007451355457305908,-0.06941765546798706,-0.016766492277383804,0.06400050222873688,-0.17901195585727692,-0.05011166259646416,0.002132999710738659,-0.10474719107151031,0.032328613102436066,-0.0636104941368103,0.19682157039642334,-0.016577936708927155,0.016367075964808464,-0.007398767862468958,0.039669957011938095,-0.1366344690322876,-0.18182331323623657,-0.020222654566168785,-0.033366478979587555,0.05603397637605667,-0.025783346965909004,0.021498195827007294,0.1153067797422409,-0.008180920034646988,-0.02300034463405609,-0.17778030037879944,0.05180706828832626,-0.017184708267450333,-0.5118432641029358,-0.048023685812950134,-0.05113757401704788,-0.07853111624717712,-0.07880312204360962,-0.11931449174880981,-0.20576834678649902,-0.013863682746887207,-0.0685267522931099,-0.1008634939789772,-0.06460139900445938,0.021164491772651672,-0.0007625548169016838,0.011197119019925594,0.037344444543123245,0.08385130763053894,0.04539636895060539,-0.00029333579004742205,0.16040995717048645,-0.011746673844754696,0.003853959497064352,0.01502234023064375,0.029881324619054794,-0.13737091422080994,-0.13428537547588348,-0.016198275610804558,0.08795860409736633,0.0870092362165451,0.016846422106027603,0.07958540320396423,-0.03522895649075508,-0.008579019457101822,0.030308837071061134,-0.0070983655750751495,-0.03009817562997341,0.10578098148107529,-0.18188993632793427,-0.09809774905443192,-0.06568200886249542,-0.13963335752487183,-0.23707225918769836,-0.27827802300453186,-0.3262288272380829,-0.051651306450366974,-0.014291539788246155,0.004044475965201855,-0.028007924556732178,-0.09019660204648972,-0.44548338651657104,-0.017107533290982246,-0.04330621287226677,0.003304742742329836,-0.0461871512234211,-0.07287359237670898,0.049745891243219376,-0.06186145171523094,-0.042620375752449036,-0.007351219654083252,-0.04590117931365967,0.08034192025661469,-0.14652091264724731,0.051548849791288376,0.08211152255535126,0.05019073933362961,0.07715461403131485,-0.014368711039423943,0.019206620752811432,0.011273576878011227,0.03492814302444458,-0.017934486269950867,0.014607846736907959,0.01698736846446991,-0.04997257888317108,-0.05753524973988533,0.000531407305970788,-0.004474616143852472,-0.03631965443491936,-0.14543046057224274,-0.1128753125667572,-0.028340425342321396,-0.014226360246539116,-0.011280229315161705,-0.007867933250963688,-0.012379481457173824,0.029306810349225998,0.13290631771087646,0.04308217018842697,0.10234980285167694,0.12593188881874084,0.10841824859380722,0.16466359794139862,-0.016092825680971146,0.05469289422035217,-0.014563368633389473,-0.019117359071969986,-0.10224857926368713,-0.13684691488742828,-0.06466776877641678,-0.009476632811129093,-0.08500799536705017,-0.01528766006231308,0.08474668860435486,0.06536702811717987,0.008415719494223595,-0.05371478199958801,0.037668999284505844,-0.07430015504360199,0.007916893810033798,0.001075924839824438,0.02234540320932865,0.09198703616857529,0.07056814432144165,0.08020325005054474,0.05061505362391472,0.010641640983521938,0.056004785001277924,0.055586088448762894,-0.008826646953821182,-0.03640672191977501,0.0346166156232357,0.10240422934293747,-0.04055466502904892,-0.048325277864933014,-0.13291451334953308,-0.059589557349681854,-0.07378237694501877,0.17437636852264404,-0.10988591611385345,-0.08156568557024002,-0.015599239617586136,-0.03273081034421921,-0.03887272998690605,0.16077443957328796,-0.07120896875858307,0.13980868458747864,0.14015591144561768,0.15790283679962158,0.15763980150222778,0.05501686781644821,0.010429766960442066,0.010840877890586853,-0.0226572435349226,0.09624642133712769,-0.042290352284908295,0.019735081121325493,0.05619707703590393,0.03082984685897827,-0.04599237069487572,0.0929151400923729,0.3028407096862793,-0.015680549666285515,0.050996191799640656,0.033233918249607086,-0.0018063351744785905,0.06539776921272278,0.027347447350621223,0.2506176233291626,-0.015603912994265556,-0.061835575848817825,-0.034876152873039246,-0.08417439460754395,-0.10391709953546524,0.06608198583126068,0.0127512002363801,-0.035727743059396744,-0.011877059936523438,-0.05592663958668709,0.07129358500242233,0.14248910546302795,0.06881833076477051,-0.013527484610676765,0.03249800577759743,0.07192923873662949,0.13744470477104187,-0.45082423090934753,0.028515029698610306,0.036893244832754135,0.07520914077758789,0.010121848434209824,-0.04867998883128166,-0.19719401001930237,0.03547443449497223,-0.01947128027677536,-0.06789013743400574,-0.08334628492593765,-0.17605523765087128,0.042408622801303864,0.05176430195569992,-0.023330695927143097,-0.007275823503732681,0.11603395640850067,0.06866360455751419,-0.1731940656900406,0.0005016013747081161,-0.08455415070056915,-0.03319690003991127,-0.09769084304571152,-0.0916108787059784,-0.0861240029335022,-0.04184747859835625,0.007547968998551369,-0.04208219796419144,-0.14837560057640076,-0.1894749253988266,-0.0958641916513443,0.039739638566970825,-0.01436708029359579,-0.02481236308813095,0.09360162168741226,-0.01968710869550705,0.03917441889643669,-0.03260594233870506,-0.0592002235352993,-0.027230899780988693,-0.09786715358495712,-0.021963119506835938,-0.0814492255449295,-0.00107852416113019,0.06599138677120209,0.07525448501110077,0.14911167323589325,0.015793021768331528,-0.21981389820575714,-0.05333986133337021,0.12394323199987411,0.06902123242616653,0.038912948220968246,0.09145898371934891,-0.15999025106430054,-0.0929320678114891,-0.13984890282154083,-0.13437135517597198,-0.09153439104557037,-0.18429461121559143,-0.1021227091550827,-0.0863233357667923,-0.06979810446500778,-0.009278246201574802,-0.13034678995609283,-0.11545699834823608,-0.06932295113801956,0.004847820848226547,0.02418309636414051,-0.03191744536161423,-0.0068310643546283245,0.058022622019052505,-0.03709013760089874,0.0018069047946482897,-0.02384154684841633,-0.03496168553829193,0.05572224035859108,0.03469724953174591,-0.07413475960493088,-0.027222171425819397,-0.025448301807045937,0.04290162771940231,-0.02367519773542881,-0.14921286702156067,-0.011779079213738441,-0.034082602709531784,-0.01949171908199787,0.016565153375267982,-0.0074156103655695915,-0.08963148295879364,-0.1368142068386078,0.009765183553099632,0.05623326078057289,0.07628080248832703,0.0041184937581419945,0.10159090906381607,-0.2898677885532379,0.055132586508989334,0.03721911832690239,-0.0024802328553050756,-0.038220662623643875,0.07818657159805298,-0.11862587928771973,-0.02692907676100731,-0.04830951988697052,-0.07232798635959625,-0.22183123230934143,-0.24372433125972748,0.40442490577697754,-0.018426112830638885,0.04943408817052841,0.043869297951459885,-0.015494117513298988,0.13871458172798157,-0.06446463614702225,-0.059225406497716904,-0.06063853204250336,0.06837301701307297,0.053861528635025024,0.045358628034591675,-0.03956985101103783,-0.10604752600193024,-0.051725681871175766,-0.06517744064331055,-0.03349539265036583,-0.061919067054986954,-0.13305909931659698,0.13815484941005707,0.03650374710559845,-0.0015361617552116513,-0.08939751237630844,0.15601854026317596,0.11129157990217209,0.043223850429058075,-0.039495691657066345,-0.03255767375230789,-0.023041879758238792,0.2402493953704834,-0.2975081205368042,-0.029505636543035507,-0.07587815821170807,-0.001822266960516572,-0.13344788551330566,-0.01345810666680336,-0.008932520635426044,-0.1317145675420761,-0.02928103134036064,-0.08508756011724472,-0.008103287778794765,-0.23815251886844635,0.052577387541532516,0.005114870611578226,-0.07684000581502914,-0.07082324475049973,0.06411619484424591,0.07575781643390656,0.2829039990901947,-0.07656791806221008,-0.10559016466140747,0.06799990683794022,0.06837761402130127,-0.03147820010781288,-0.38156837224960327,0.025763459503650665,0.1258409023284912,-0.016353361308574677,0.02495608851313591,-0.2065494954586029,0.07657673209905624,-0.052377041429281235,0.08680926263332367,-0.01171045657247305,0.04758001118898392,-0.017317278310656548,-0.0160683486610651,0.0042655435390770435,0.010592268779873848,-0.02587774023413658,-0.013767140917479992,0.0792945995926857,0.16231003403663635,0.28849345445632935,-0.08378072828054428,-0.01547220442444086,0.1767759621143341,0.3337649703025818,0.07804951816797256,-0.292711466550827,-0.01240552682429552,-0.18934959173202515,-0.058810073882341385,-0.10407759249210358,0.16981899738311768,0.2586514353752136,-0.011269334703683853,-0.2298915535211563,-0.07719817757606506,0.017822159454226494,-0.1688336580991745,-0.26720258593559265,0.10128555446863174,0.44953933358192444,-0.15477202832698822,-0.10884278267621994,0.18395762145519257,0.18430940806865692,-0.3291853666305542,0.02131819911301136,0.29769429564476013,0.2317066192626953,0.0014955941587686539,0.1018197312951088,0.1355455070734024,0.13282571732997894,0.02918914705514908,0.19792993366718292,0.15345768630504608,0.21994489431381226,0.2612314224243164,0.27245014905929565,0.38219359517097473,-0.20879893004894257,-0.24723893404006958,0.06468547880649567,0.19681884348392487,0.2705921232700348,-0.1740483194589615,-0.030322503298521042,0.26646557450294495,0.2558012008666992,0.08787859231233597,0.007539440877735615,0.10981631278991699,-0.24850265681743622,-0.049774169921875,0.22194215655326843,0.29906943440437317,-0.12306468188762665,-0.023129943758249283,-0.2388651967048645,0.01955128088593483,0.003214573720470071,0.04941818118095398,-0.22081449627876282,0.22371335327625275,-0.22911103069782257,0.04126032441854477,-0.30570048093795776,-0.17303849756717682,0.34479716420173645,0.13371258974075317,0.0009782272391021252,-0.015263287350535393,0.027625512331724167,0.10897491872310638,0.020261527970433235,-0.007878358475863934,-0.038911592215299606,0.00800336617976427,0.000261734239757061,0.01747472770512104,0.028429625555872917,-0.07781296968460083,0.047107961028814316,0.03162981569766998,-0.0036526320036500692,-0.05643772706389427,0.029054543003439903,0.4572462737560272,0.04333076998591423,0.03940693661570549,0.021792832762002945,0.054487742483615875,0.11953648924827576,-0.33493590354919434,0.05757899582386017,0.0212253425270319,0.02687879279255867,0.099137082695961,0.1470584124326706,-0.03205162659287453,-0.0022951913997530937,-0.041526105254888535,0.03787705674767494,0.05137421190738678,0.08193401247262955,-0.044891756027936935,0.03902832418680191,0.01050120871514082,0.08764347434043884,0.08091229200363159,0.1374482810497284,0.19746649265289307,0.0037873024120926857,-0.03224090859293938,0.03630528599023819,0.17564688622951508,0.12718603014945984,-0.09339367598295212,0.03826060891151428,0.014998748898506165,-0.018552426248788834,-0.0370388925075531,-0.08569183200597763,0.006804229691624641,-0.03385640308260918,-0.08595822751522064,-0.1158008947968483,-0.06117771193385124,-0.19453585147857666,0.04455997794866562,-0.0017994474619626999,0.07084553688764572,0.062367234379053116,-0.042446304112672806,0.1073266938328743,-0.08117864280939102,-0.10495259612798691,0.008321596309542656,-0.06880645453929901,-0.09727942198514938,-0.1107538491487503,-0.06808865070343018,-0.05386164039373398,-0.0121486010029912,-0.13403448462486267,-0.14650624990463257,-0.17491677403450012,0.16344240307807922,0.0955752581357956,-0.03908803313970566,-0.11179076880216599,0.03705676645040512,-0.03230100870132446,0.019057556986808777,0.12035980820655823,0.06976006925106049,0.004877353552728891,0.021450165659189224,0.10517842322587967,0.08448722958564758,0.0024722726084291935,-0.06210782378911972,-0.05214839056134224,-0.12366410344839096,-0.1494685560464859,-0.04968448355793953,0.008980518206954002,0.059719763696193695,-0.012592212297022343,-0.017291342839598656,0.0604817233979702,0.2343704253435135,0.021684205159544945,0.0389133058488369,-0.04724247381091118,-0.15089978277683258,-0.08709583431482315,0.03829117491841316,-0.01384358573704958,-0.025440486147999763,0.08653320372104645,0.07326297461986542,-0.03163868933916092,0.02315210923552513,-0.07012872397899628,-0.08656981587409973,-0.03907983750104904,-0.108488067984581,-0.16191832721233368,0.03946187347173691,-0.044470448046922684,-0.10819409787654877,-0.0670165941119194,-0.1902768462896347,-0.1721019148826599,0.08900093287229538,0.038288962095975876,-0.08732893317937851,-0.13282375037670135,-0.08682393282651901,-0.055281862616539,0.012166275642812252,0.04733370244503021,0.012112954631447792,0.0368238240480423,0.053256817162036896,-0.03652488440275192,0.3899284899234772,-0.0023687102366238832,-0.016961080953478813,-0.12492392212152481,-0.0785524994134903,-0.09266456216573715,0.16412055492401123,0.008639894425868988,0.01418315153568983,0.043246012181043625,0.08286027610301971,-0.010632767342031002,-0.2538031339645386,0.0065629975870251656,0.02048310823738575,-0.023742390796542168,0.02248479798436165,0.04806867986917496,0.08949965983629227,-0.0038663623854517937,-0.0029085827991366386,-0.013684061355888844,-0.05541243776679039,0.01788828894495964,-0.07756483554840088,0.03580472245812416,0.04652941972017288,0.033079445362091064,0.04759710282087326,0.14073029160499573,-0.05774874985218048,0.04218638315796852,0.07038293033838272,0.06294900178909302,0.12326833605766296,0.18916970491409302,-0.1662019044160843,0.03775519132614136,0.056533753871917725,0.08967504650354385,0.16443218290805817,0.1145678386092186,-0.21257096529006958,0.04476143419742584,0.05130955949425697,0.09488864988088608,0.14571517705917358,0.09007528424263,-0.7243198156356812,0.03706572204828262,0.07313976436853409,0.1199900209903717,0.20394577085971832,0.1502932757139206,0.06875589489936829,0.0008553546504117548,0.02723805420100689,-0.03495034575462341,-0.040644995868206024,0.1736721694469452,-0.1978563368320465,-0.07854247838258743,-0.0018197435420006514,-0.02989080734550953,-0.08258243650197983,-0.01408175565302372,0.20095568895339966,0.009400419890880585,0.046296700835227966,0.04301879182457924,0.10626596957445145,-0.05625160411000252,0.22652675211429596,-0.056617219001054764,0.053578801453113556,-0.05415031313896179,-0.12682172656059265,-0.08204534649848938,-0.057372428476810455,-0.09308202564716339,0.02423432096838951,-0.08296327292919159,-0.05661724507808685,-0.09293004125356674,-0.34658417105674744,-0.02299203909933567,-0.08132275193929672,-0.09038808196783066,-0.010220816358923912,-0.03762608766555786,0.09763339161872864,0.00790536217391491,0.06631289422512054,-0.029634660109877586,0.02569108083844185,0.18621227145195007,0.13333435356616974,-0.06363921612501144,0.004923404660075903,-0.15170831978321075,-0.09501008689403534,-0.023186739534139633,0.035707250237464905,-0.012036241590976715,-0.002454293891787529,0.0033739765640348196,0.03043454885482788,-0.016133788973093033,0.08230408281087875,-0.0006254747277125716,0.03251396492123604,0.013047060929238796,0.010743938386440277,0.045977767556905746,-0.5315179824829102,-0.003657678375020623,-0.009572125971317291,-0.003595118410885334,-0.030950581654906273,-0.017834972590208054,0.18373343348503113,-0.005652380641549826,0.018759554252028465,0.010135973803699017,0.013407263904809952,0.03541075810790062,-0.009998299181461334,-0.0031437005382031202,0.022590408101677895,0.023379003629088402,0.04060675576329231,0.010067926719784737,-0.34580862522125244,0.009106222540140152,0.01308317482471466,0.012182407081127167,0.04960303381085396,0.01256984006613493,0.3031386733055115,-0.019643273204565048,-0.0009212856530211866,-0.0015559748280793428,0.017061173915863037,-0.01387209165841341,0.23987369239330292,-0.007026029285043478,0.0228089839220047,0.023536693304777145,0.08554981648921967,0.012766529805958271,0.13697561621665955,-0.013511364348232746,-0.07470142096281052,-0.09979689121246338,-0.12284913659095764,-0.10952398926019669,0.02501654624938965,-0.07845208793878555,-0.15479274094104767,-0.0892496109008789,0.056495048105716705,0.002185106510296464,0.1376906782388687,0.032192375510931015,0.04832983762025833,0.08404503762722015,0.008612247183918953,0.07185500115156174,0.005273357965052128,-0.05419240891933441,0.01289969403296709,-0.042709577828645706,-0.05894549563527107,-0.024094097316265106,-0.01032011304050684,-0.041402772068977356,-0.039450451731681824,-0.0716499537229538,-0.14164747297763824,-0.13518889248371124,0.033239442855119705,0.023048581555485725,0.01937292516231537,0.023027824237942696,-0.007626872509717941,-0.1166403666138649,0.08435986191034317,0.01790284924209118,-0.053428757935762405,0.05184861645102501,-0.02602350525557995,-0.010212608613073826,0.13234926760196686,-0.06757421791553497,-0.06613650918006897,-0.05329680070281029,-0.10560855269432068,-0.12274323403835297,-0.3016853928565979,0.011185781098902225,-0.0028417997527867556,0.003647075966000557,0.06598049402236938,0.11290178447961807,-0.08232488483190536,0.0188215970993042,-0.006638336461037397,-0.047855526208877563,0.012736924923956394,-0.11635816842317581,-0.136606827378273,-0.015411891974508762,-0.048774924129247665,-0.013105581514537334,0.04300903528928757,0.04903748258948326,0.23049163818359375,0.012926885858178139,-0.026501130312681198,-0.03729093074798584,-0.0009332244517281651,-0.020441919565200806,-0.21431168913841248,0.009557178243994713,-0.017443470656871796,0.009974523447453976,0.07641848176717758,0.0389309898018837,-0.4673173129558563,0.04134533554315567,0.08830565959215164,0.10433198511600494,0.012952524237334728,0.07859715819358826,0.009467804804444313,0.06015292927622795,0.015503899194300175,0.030128421261906624,0.060294222086668015,0.20086629688739777,0.36667919158935547,0.06852731108665466,0.04556506127119064,0.04682263731956482,0.11699594557285309,0.12353221327066422,-0.15908898413181305,0.10376004874706268,0.24453885853290558,-0.006239669397473335,0.2286485731601715,0.041666530072689056,-0.9709106087684631,-0.05944129079580307,0.10772939026355743,0.016523078083992004,0.01698117144405842,-0.017407575622200966,0.03669081628322601,-0.002700388664379716,-0.04532788693904877,-0.005274136085063219,-0.009503348730504513,0.018764199689030647,-0.26917052268981934,-0.27189505100250244,0.33162686228752136,0.19676333665847778,-0.14583899080753326,