{"version":"0.7.0","architecture":"SlimmableContainer","config":{"submodels":[{"max_value":0.5,"model":{"version":"0.7.0","metadata":{"date":{"year":2026,"month":5,"day":14,"hour":18,"minute":24,"second":26},"loudness":-15.461666107177734,"gain":0.7934003270944454},"architecture":"WaveNet","config":{"layers":[{"input_size":1,"condition_size":1,"head":{"out_channels":1,"kernel_size":16,"bias":true},"channels":3,"kernel_sizes":[6,6,6,6,6,6,6,6,6,6,6,6,6,6,15,15,6,6,6,6,6,6,6],"dilations":[1,3,7,17,41,101,239,1,3,7,17,41,101,239,1,13,1,3,7,17,41,101,239],"activation":[{"type":"LeakyReLU","negative_slope":0.01},{"type":"LeakyReLU","negative_slope":0.01},{"type":"LeakyReLU","negative_slope":0.01},{"type":"LeakyReLU","negative_slope":0.01},{"type":"LeakyReLU","negative_slope":0.01},{"type":"LeakyReLU","negative_slope":0.01},{"type":"LeakyReLU","negative_slope":0.01},{"type":"LeakyReLU","negative_slope":0.01},{"type":"LeakyReLU","negative_slope":0.01},{"type":"LeakyReLU","negative_slope":0.01},{"type":"LeakyReLU","negative_slope":0.01},{"type":"LeakyReLU","negative_slope":0.01},{"type":"LeakyReLU","negative_slope":0.01},{"type":"LeakyReLU","negative_slope":0.01},{"type":"LeakyReLU","negative_slope":0.01},{"type":"LeakyReLU","negative_slope":0.01},{"type":"LeakyReLU","negative_slope":0.01},{"type":"LeakyReLU","negative_slope":0.01},{"type":"LeakyReLU","negative_slope":0.01},{"type":"LeakyReLU","negative_slope":0.01},{"type":"LeakyReLU","negative_slope":0.01},{"type":"LeakyReLU","negative_slope":0.01},{"type":"LeakyReLU","negative_slope":0.01}],"bottleneck":3,"head1x1":{"active":false,"out_channels":1,"groups":1},"layer1x1":{"active":true,"groups":1},"groups_input":1,"groups_input_mixin":1,"conv_pre_film":{"active":false,"shift":true,"groups":1},"conv_post_film":{"active":false,"shift":true,"groups":1},"input_mixin_pre_film":{"active":false,"shift":true,"groups":1},"input_mixin_post_film":{"active":false,"shift":true,"groups":1},"activation_pre_film":{"active":false,"shift":true,"groups":1},"activation_post_film":{"active":false,"shift":true,"groups":1},"layer1x1_post_film":{"active":false,"shift":true,"groups":1},"head1x1_post_film":{"active":false,"shift":true,"groups":1},"gating_mode":["none","none","none","none","none","none","none","none","none","none","none","none","none","none","none","none","none","none","none","none","none","none","none"],"secondary_activation":[null,null,null,null,null,null,null,null,null,null,null,null,null,null,null,null,null,null,null,null,null,null,null],"slimmable":null}],"head":null,"head_scale":0.014346090979482218},"weights":[3.953279495239258,-4.869754314422607,-3.459808349609375,0.20794428884983063,-0.24285805225372314,-0.6375077962875366,-1.5892689228057861,-1.6029502153396606,-1.3302202224731445,-0.24467875063419342,0.21322420239448547,0.7427252531051636,1.7971611022949219,1.8035366535186768,1.5091676712036133,-0.16155515611171722,0.17490322887897491,0.6081643104553223,1.4691240787506104,1.5023365020751953,1.2130799293518066,-0.5592199563980103,-0.11030837893486023,0.453681617975235,0.8048722147941589,0.9317519664764404,0.8514485955238342,0.777260959148407,0.10825977474451065,-0.4666542410850525,-0.9768704175949097,-1.081237554550171,-0.940865695476532,0.40843474864959717,0.06217493116855621,-0.4280514419078827,-0.6854986548423767,-0.7946177124977112,-0.6845365762710571,-0.3742183446884155,0.28478050231933594,0.8858709931373596,2.1864407062530518,2.193575143814087,1.5473504066467285,0.49482375383377075,-0.2418789118528366,-1.004232406616211,-2.4843201637268066,-2.5836267471313477,-1.970624566078186,0.2788580358028412,-0.13056962192058563,-0.8257861733436584,-1.8926496505737305,-1.950958490371704,-1.4019811153411865,-0.504328191280365,2.0373504161834717,0.6545893549919128,-0.5111021995544434,0.2620061933994293,0.6271894574165344,1.1097129583358765,-0.14478471875190735,-0.8428688049316406,1.839901328086853,-0.7041240930557251,-1.6116600036621094,-0.4537159502506256,0.8555285334587097,0.6640002131462097,0.9003477692604065,-1.1783004999160767,2.256398916244507,0.15490247309207916,-0.0164507944136858,0.061207737773656845,-0.2099015712738037,0.14534251391887665,0.33033016324043274,0.020180098712444305,-0.0035175469238311052,-0.03292648866772652,0.0690130814909935,-0.278805136680603,-0.11684443056583405,0.19538754224777222,0.18039463460445404,0.17946289479732513,0.13940711319446564,0.03631984442472458,0.15719187259674072,0.2784643769264221,0.04249051213264465,0.2568182945251465,0.3899795413017273,0.054995957762002945,-0.44904622435569763,0.05607090890407562,0.2969491183757782,0.15261328220367432,0.2728620767593384,-0.06497348099946976,-0.6303940415382385,-0.08306175470352173,0.2805294990539551,-0.0026664393953979015,0.19221580028533936,0.1935424655675888,0.44653505086898804,0.2255319058895111,0.359122633934021,0.305676132440567,0.43614763021469116,0.038108330219984055,-0.45862120389938354,0.21468695998191833,-0.0013429457321763039,0.2702960669994354,0.19354382157325745,-0.305565744638443,-0.5665262341499329,0.07037130743265152,0.15008540451526642,-0.25891566276550293,-0.3001433312892914,0.09441593289375305,0.5271114706993103,0.4724918603897095,0.43382352590560913,0.35577869415283203,-0.03841978684067726,0.7683678865432739,1.0943329334259033,0.21302248537540436,-0.41327840089797974,-0.5019998550415039,-0.06186599284410477,-0.881032407283783,-1.1758227348327637,-0.30378708243370056,-0.1183239072561264,-0.36651375889778137,0.47862714529037476,-1.428138017654419,0.40200936794281006,0.23168185353279114,0.38322487473487854,0.34823691844940186,0.30704808235168457,0.2203565537929535,0.5553273558616638,-0.09833479672670364,-0.2203485071659088,-0.32130324840545654,-0.23875708878040314,-0.22260664403438568,0.1816301941871643,0.11349064111709595,0.32913148403167725,0.6146461367607117,0.29289841651916504,0.37737640738487244,-0.24815139174461365,-0.011017424054443836,-0.1690632402896881,-0.2449960857629776,-0.2794858515262604,-0.204408198595047,-0.24581283330917358,-0.0047267284244298935,0.06629326194524765,0.11314989626407623,0.12968182563781738,0.06355571001768112,-0.14411196112632751,0.029930783435702324,0.01855696551501751,-0.06338851153850555,-0.20992611348628998,0.011771699413657188,-0.5884370803833008,0.1628788560628891,-0.055767592042684555,0.18417449295520782,0.13208261132240295,-0.1683851182460785,0.17215140163898468,-0.08067931979894638,-0.002524765208363533,-0.1801939755678177,-0.14146044850349426,0.0033771980088204145,0.5857594013214111,0.09737072885036469,0.22342021763324738,0.3278319835662842,0.3276137709617615,-0.03836464509367943,0.14038853347301483,0.20306392014026642,-1.9839811325073242,-0.25021904706954956,0.047736771404743195,0.15467455983161926,-0.3391250669956207,0.14755159616470337,0.7331398129463196,-0.3159462809562683,0.4625824987888336,2.0998904705047607,-1.1184329986572266,0.3402519226074219,0.7945870757102966,-0.8339300751686096,0.2950942814350128,-0.9471227526664734,-0.05855710804462433,0.2544376850128174,-0.06475619971752167,0.0859297588467598,-0.16096298396587372,-0.15133215487003326,0.15003365278244019,-0.08596497029066086,-0.009431078098714352,-0.15528038144111633,-0.054376211017370224,0.009477537125349045,0.07761194556951523,0.15519846975803375,0.011175453662872314,0.15381623804569244,0.1867925524711609,0.308279424905777,0.08559932559728622,0.12724442780017853,-0.05305199325084686,-0.12266736477613449,0.15047743916511536,0.2758897840976715,1.136777639389038,-0.10462389141321182,-0.06183197349309921,0.010912468656897545,-0.20428407192230225,-0.3110805153846741,-0.298129677772522,-0.03329332917928696,-0.08519811928272247,0.040175311267375946,0.04002097621560097,0.28546208143234253,0.6981157064437866,0.03262312337756157,-0.11628742516040802,-0.10951574891805649,0.018584206700325012,-0.01344695221632719,-0.19884495437145233,-0.016569307073950768,0.025873571634292603,0.03469732031226158,-0.05221699923276901,-0.02136441506445408,0.42500412464141846,0.04833030328154564,-0.015279622748494148,-0.021094411611557007,-0.008594430051743984,0.050369586795568466,-0.21399275958538055,0.051457665860652924,-0.367397278547287,-1.117208480834961,-0.19173957407474518,-0.06377693265676498,0.08166034519672394,0.10110219568014145,0.10833869874477386,-0.5414437651634216,0.5329462885856628,0.4059048891067505,0.3362174928188324,-0.18621119856834412,-0.5926923155784607,-0.0917535275220871,-0.10667019337415695,-0.46088165044784546,0.5002769231796265,-0.12154172360897064,-0.03524462878704071,-0.05992170423269272,0.023419003933668137,-0.04785865917801857,0.030416082590818405,0.020471248775720596,-0.013078967109322548,-0.01268787868320942,-0.053052868694067,-0.0582737922668457,0.26114824414253235,-0.0736415758728981,-0.046625927090644836,-0.09032993763685226,-0.0809611827135086,-0.17740832269191742,0.11897822469472885,0.04188139736652374,-0.0010562174720689654,0.027664942666888237,-0.00351605168543756,-0.033684100955724716,0.4490742087364197,-0.00950121320784092,0.011179149150848389,0.005551785230636597,0.01711914874613285,0.04082363098859787,-0.5638516545295715,0.017322037369012833,0.02010013908147812,0.03575604781508446,0.0313526913523674,0.0685701072216034,-0.7425032258033752,-0.08920762687921524,-0.1305595338344574,-0.10038489103317261,-0.058404453098773956,0.02599763497710228,0.09325111657381058,0.03499568998813629,0.032711729407310486,0.004403058439493179,-0.036052606999874115,-0.0828198790550232,0.1883867233991623,-0.013999407179653645,-0.06057664379477501,-0.08917094022035599,-0.10525137931108475,-0.11477874219417572,-0.02521338127553463,0.00546570960432291,0.23185506463050842,-0.18948443233966827,-0.08986448496580124,-0.008682148531079292,0.32957756519317627,0.10256125032901764,0.11705943942070007,-0.02744801715016365,0.2107812613248825,0.275778204202652,0.39332273602485657,0.1203891709446907,0.7483574151992798,-0.06373351812362671,-0.2831585705280304,-0.8651620149612427,0.7463927865028381,0.05999680608510971,0.03762729838490486,0.11573119461536407,-0.06294815987348557,0.06786996126174927,0.10701105743646622,0.0017049632733687758,0.0007220807019621134,0.011058058589696884,0.10929332673549652,0.08470187336206436,0.13706301152706146,0.05449452996253967,0.02020152285695076,0.13862694799900055,0.20409715175628662,0.2788185477256775,0.275765985250473,0.02704172395169735,0.1164744570851326,0.15936671197414398,0.11832328140735626,0.27312931418418884,-0.16550575196743011,-0.014445916749536991,-0.046263307332992554,-0.0036523153539747,0.019562939181923866,0.014932617545127869,-0.03221439942717552,-0.018272660672664642,-0.015789015218615532,0.13776174187660217,0.1473233550786972,0.284976989030838,0.5969955921173096,-0.034244947135448456,-0.035641927272081375,-0.013210061006247997,-0.022678975015878677,-0.037832748144865036,-0.6546275615692139,0.019987797364592552,0.024791019037365913,0.01084874663501978,0.018826225772500038,0.020187105983495712,0.1592482328414917,0.013199789449572563,0.02144244872033596,0.007802019827067852,0.018940923735499382,0.006112386006861925,0.044741708785295486,-0.01065906509757042,0.08619605004787445,-0.9843238592147827,-0.606011688709259,0.3462367653846741,-0.8094785809516907,0.24631813168525696,0.067573182284832,0.7088074684143066,-0.3107037842273712,-0.49879691004753113,0.12371473759412766,0.08497403562068939,-0.11386831104755402,1.512927532196045,-0.12205466628074646,-0.101227767765522,0.43225038051605225,-0.002121067838743329,-0.08200456947088242,-0.07879810780286789,0.005664591211825609,0.026381762698292732,0.11359617859125137,0.0052947658114135265,0.021163642406463623,0.03061455860733986,0.016602210700511932,0.017508970573544502,-0.4998716413974762,0.01089522521942854,-0.019156064838171005,0.008637561462819576,0.031844545155763626,0.04622841998934746,1.0156155824661255,-0.029285969212651253,-0.019284795969724655,0.00881907343864441,0.07993407547473907,0.1442863941192627,0.20987004041671753,-0.0031376967672258615,0.0033073858357965946,0.009708056226372719,-0.017587998881936073,-0.0025098028127104044,-0.05370144173502922,-0.03921503946185112,-0.01476980745792389,0.026659736409783363,0.015240640379488468,0.0984770804643631,0.06524425745010376,0.024653535336256027,0.03662900626659393,-0.014926326461136341,0.031298208981752396,0.031662262976169586,0.10312332212924957,-0.0067098080180585384,-0.0041334605775773525,0.01554948091506958,-0.007892786525189877,-0.003349793143570423,0.4540618658065796,0.0058173383586108685,0.02003544196486473,0.02875690534710884,0.011111501604318619,0.011084371246397495,-0.44203075766563416,0.2106090486049652,0.08798849582672119,0.04873177036643028,-0.17360831797122955,-0.8349285125732422,0.4251623749732971,0.228385329246521,0.33342233300209045,0.028991376981139183,0.7321224212646484,-0.15213102102279663,0.18202252686023712,-0.495074599981308,-0.3194546401500702,0.26644590497016907,-0.18517591059207916,-0.661224901676178,-0.010002218186855316,0.11746982485055923,0.1260005384683609,-0.02937762252986431,-0.013276136480271816,0.04263691231608391,-0.22619937360286713,-0.005938314367085695,0.05279701575636864,-0.014452428556978703,0.09676563739776611,-0.1928352266550064,-0.6824360489845276,0.34875503182411194,-0.08678063005208969,0.05085849389433861,0.12354955822229385,0.09236476570367813,0.49587929248809814,-0.2655942738056183,-0.09928363561630249,0.01165317464619875,0.09392984211444855,0.011050202883780003,0.1847013682126999,0.0101912971585989,-0.10701379179954529,-0.002108048414811492,-0.00868082232773304,0.1782768964767456,0.8916024565696716,-0.22080039978027344,-0.17649149894714355,0.1315373182296753,0.05260705202817917,-0.47325488924980164,-0.5476267337799072,-0.00694943405687809,0.07042726129293442,0.30873772501945496,0.1593519002199173,0.32308846712112427,-0.6908954977989197,0.022031057626008987,-0.1078343465924263,-0.03468788042664528,0.0798904299736023,-0.0647968053817749,0.06590913981199265,0.07640422880649567,-0.1474480926990509,-0.1226654052734375,0.15865400433540344,0.17113971710205078,-0.09739574044942856,-0.08860370516777039,0.23669320344924927,-1.3099441528320312,-0.7208187580108643,0.5042065382003784,-0.2550088167190552,0.15174180269241333,-0.1609489619731903,-0.09760924428701401,0.9275624752044678,-0.7011513710021973,-0.6179676055908203,-0.3513530492782593,0.23925064504146576,-1.0749856233596802,0.1416815221309662,-0.576874852180481,0.49668702483177185,-0.07666891068220139,0.19073113799095154,-0.013159513473510742,-0.18779999017715454,-0.005514741875231266,0.0010442712809890509,0.2362770289182663,-0.13164159655570984,-0.012125578708946705,0.02836393564939499,-0.07481183856725693,-0.43439367413520813,-0.04279054328799248,0.2765105664730072,0.3108336925506592,0.3106989860534668,0.2075267732143402,0.2502419650554657,0.257650762796402,0.3093545138835907,0.15179283916950226,0.12375260889530182,0.14114002883434296,0.19220010936260223,0.09170721471309662,0.024976065382361412,-0.2770444452762604,-0.11235208809375763,-0.10144691914319992,-0.6912878155708313,0.043524134904146194,0.3062881529331207,-0.03083287738263607,-0.3575872778892517,0.14038120210170746,0.3412722051143646,0.17401869595050812,0.1295493096113205,0.0666871964931488,0.011729812249541283,-0.07903167605400085,0.4480365812778473,0.21725702285766602,0.0081403199583292,-0.05466737970709801,-0.16330884397029877,0.0258821789175272,-0.5268251895904541,-0.1644708514213562,0.11184687167406082,0.35357561707496643,0.2767224907875061,-0.2528408467769623,-0.6648985147476196,0.2375531643629074,0.18237029016017914,0.5097452998161316,0.7575229406356812,-0.5301827192306519,-0.6103684306144714,-0.5482308268547058,-0.09581366926431656,-0.10936590284109116,0.2978692650794983,0.5468071699142456,0.503357470035553,0.376738041639328,-0.6568745374679565,0.6638709306716919,-0.7575516104698181,-0.39130955934524536,-0.37713631987571716,-0.035058941692113876,0.020847145467996597,-0.08703036606311798,-0.5687288045883179,0.42864614725112915,-0.299640417098999,0.28660857677459717,0.1638738512992859,0.1999719738960266,-0.4232155680656433,0.060507070273160934,-0.025397513061761856,-0.10259472578763962,-0.11178562045097351,-0.08522964268922806,-0.42491739988327026,-0.7626329660415649,-0.6448001861572266,-0.035498492419719696,0.017482172697782516,0.004707700572907925,-0.5716330409049988,0.3439590334892273,-0.18892446160316467,0.12903881072998047,0.09800449013710022,0.15150173008441925,0.03475512936711311,-0.1378742903470993,0.0637521967291832,0.09454499930143356,-0.0001460770727135241,0.1252763718366623,-0.023369532078504562,-0.35888367891311646,0.1636260449886322,0.05413705110549927,-0.15599015355110168,-0.30134496092796326,0.4587763547897339,-0.5405399203300476,0.061346545815467834,-0.22592952847480774,-0.2297913134098053,-0.19867008924484253,0.6276317238807678,0.2901597023010254,0.1335296332836151,-0.1337149739265442,-0.1343742311000824,-0.10391119122505188,0.3444500267505646,0.5762966275215149,-0.2577674686908722,0.10853207856416702,0.05386411026120186,0.3769932687282562,0.07548421621322632,-0.5992475748062134,-0.01554423663765192,0.5590882301330566,0.538610577583313,-0.471632182598114,-0.24030283093452454,-0.013215534389019012,0.07578851282596588,0.4207768440246582,0.20664934813976288,-0.63242506980896,0.46442028880119324,0.32122141122817993,0.10826929658651352,0.12406817823648453,0.23611538112163544,0.27262213826179504,0.30108219385147095,-0.09609782695770264,-0.009543797001242638,0.03290148079395294,0.07899841666221619,0.28109362721443176,0.09191762655973434,-0.40027135610580444,-0.25388839840888977,-0.13127774000167847,-0.14474426209926605,-0.040227923542261124,-0.11281145364046097,-0.07131348550319672,0.6096340417861938,0.1467622071504593,0.18110814690589905,0.18430502712726593,-0.033401984721422195,0.1773575097322464,0.3883010149002075,-0.1750650554895401,-0.17521677911281586,-0.2855711281299591,-0.08499113470315933,-0.07143082469701767,0.30289459228515625,-0.15305835008621216,-0.2331436276435852,-0.1163114532828331,0.02951313741505146,-0.13017667829990387,0.022464189678430557,0.0929795354604721,0.096359483897686,0.09458369761705399,0.09785439819097519,0.1145523339509964,0.14215348660945892,-0.09431884437799454,-0.09353752434253693,-0.08498364686965942,0.05904312804341316,0.03873955458402634,-0.34377217292785645,-0.12777943909168243,-0.12552709877490997,-0.07979755103588104,-0.07631134241819382,-0.16198596358299255,-0.5332478284835815,-0.1933271437883377,0.024617202579975128,0.5843237638473511,-0.28394216299057007,-1.2095491886138916,0.8051475286483765,0.23270921409130096,-0.6504404544830322,0.008163715712726116,-0.45260336995124817,-0.40388885140419006,0.8256025910377502,-0.18837691843509674,-0.30136701464653015,0.18700949847698212,0.07489233464002609,0.5992373824119568,0.5510269403457642,0.11774107068777084,0.03254518657922745,0.0624345988035202,0.1906040757894516,0.14319147169589996,0.3275678753852844,0.14863857626914978,0.09417611360549927,0.19010601937770844,0.14932399988174438,0.15873855352401733,-0.19689705967903137,0.07913367450237274,0.07625021040439606,0.09692283719778061,0.003652650397270918,-0.13215714693069458,0.02749760076403618,0.08099611103534698,0.04687175154685974,0.055317364633083344,0.06699644029140472,0.09665200859308243,0.7277504205703735,-0.028672344982624054,-0.11268969625234604,-0.14793798327445984,-0.09671041369438171,-0.02310577966272831,0.47121214866638184,-0.12835972011089325,-0.2181810885667801,-0.28826117515563965,-0.21192437410354614,-0.17750167846679688,0.05978662520647049,-0.0440802201628685,-0.046035055071115494,-0.047540370374917984,0.002444792538881302,0.029176432639360428,0.2838551700115204,-0.01962309516966343,-0.028872044757008553,-0.05060999467968941,-0.043508682399988174,-0.0028422148898243904,-0.4678267538547516,0.05882975831627846,0.05142685025930405,0.014882090501487255,-0.06737703084945679,-0.0542595274746418,-0.17916004359722137,0.023978782817721367,0.2533009350299835,-0.3636595904827118,0.3128221929073334,-0.7620113492012024,-0.22001390159130096,0.20058242976665497,-0.7848876714706421,-0.4663410484790802,-0.25914865732192993,-0.5468486547470093,0.43798741698265076,0.15835954248905182,0.020970748737454414,0.05792078748345375,-0.2052725851535797,0.6624977588653564,0.08336339145898819,0.16524191200733185,0.1247197762131691,0.26142972707748413,0.012655389495193958,0.15020719170570374,0.20622795820236206,0.07492329180240631,0.07856994867324829,0.16531582176685333,0.05412443354725838,0.1470964103937149,-0.30896657705307007,-0.08435659855604172,-0.06302497535943985,0.012148425914347172,0.0563625693321228,0.10822924226522446,0.06512787193059921,0.07810670137405396,-0.012587422505021095,0.047765351831912994,0.13015906512737274,-0.017682526260614395,0.44444045424461365,0.15578177571296692,0.023761512711644173,0.12064826488494873,0.12379992753267288,-0.015632228925824165,-0.14097562432289124,0.1738346666097641,0.09863001853227615,0.13029280304908752,0.08557355403900146,-0.06039506196975708,0.1925736516714096,-0.17866143584251404,0.08283523470163345,0.03220429643988609,-0.16472694277763367,0.026928147301077843,-0.18809595704078674,-0.05378780514001846,0.11266592890024185,0.07563063502311707,-0.10328511148691177,0.14390522241592407,-0.17417551577091217,0.12119941413402557,0.12025699764490128,0.06353521347045898,0.0013660256518051028,0.1934959888458252,-0.14667823910713196,0.27253472805023193,-0.07600709795951843,0.46858569979667664,0.2948777377605438,-0.1830155849456787,0.3618898093700409,0.40716028213500977,0.1272449940443039,0.5466200709342957,-0.17931915819644928,-0.30353084206581116,0.30203986167907715,0.09638968110084534,-0.18846173584461212,0.44382163882255554,-0.07967167347669601,0.05539552494883537,0.363045871257782,0.09766567498445511,0.17267201840877533,0.27239301800727844,0.245712548494339,0.3855690658092499,0.46568945050239563,0.0889768972992897,0.18092197179794312,0.25269854068756104,0.24143551290035248,0.333326518535614,-0.5372526049613953,0.04291350021958351,0.12283551692962646,0.1439148187637329,0.12950481474399567,0.15765632688999176,0.0738595500588417,0.17586758732795715,-0.08236026763916016,-0.10085315257310867,-0.09356170147657394,-0.08988739550113678,-0.22211864590644836,0.14074577391147614,-0.08488576114177704,-0.11050291359424591,-0.07196281105279922,-0.07068926095962524,1.0597378015518188,0.05744675546884537,-0.05940529704093933,-0.09051885455846786,-0.019440727308392525,-0.05616449564695358,-0.5610804557800293,0.7131644487380981,-0.07121744751930237,0.059766851365566254,0.3121819496154785,0.2754741609096527,1.4866427183151245,0.5677597522735596,-0.08416154235601425,0.061939798295497894,0.26098179817199707,0.26586756110191345,-0.23177731037139893,0.25853484869003296,-0.08920276165008545,-0.04734271392226219,0.10855643451213837,0.10393135249614716,-0.05469995364546776,-0.3409743010997772,-0.4997357428073883,0.2977118492126465,-0.17004117369651794,0.06973117589950562,-0.1466502845287323,0.3914335370063782,-0.5670654773712158,-0.35108011960983276,-0.5628499388694763,-0.7104533910751343,-0.4533649682998657,-0.3949040472507477,0.29103201627731323,0.2722008526325226,-0.3947112560272217,-0.25862279534339905,1.0308301448822021,-0.11665210872888565,-0.16589172184467316,0.4913063943386078,0.6293507814407349,0.1590757817029953,0.12496660649776459,-0.14373457431793213,0.05220361426472664,0.010780825279653072,-0.04650968313217163,0.14587697386741638,0.10310609638690948,-0.11324973404407501,0.010683964937925339,-0.031065594404935837,-0.11487289518117905,-0.27453798055648804,-0.3488805890083313,-0.13807165622711182,-0.20197175443172455,-0.3279602825641632,-0.08716590702533722,-0.11231003701686859,0.011970425955951214,0.012742932885885239,-0.1459827870130539,0.09197208285331726,-0.09539546817541122,-0.0011887754080817103,0.01216028816998005,-0.2933804392814636,-0.2485235035419464,0.08878756314516068,0.15034198760986328,0.16958452761173248,0.1327458620071411,0.06682600826025009,-0.009571567177772522,-0.012640532106161118,-0.05786420404911041,-0.20156855881214142,0.010348341427743435,-0.12240758538246155,-0.03775886818766594,-0.10093218833208084,0.05588013306260109,-0.06338614225387573,-0.10906557738780975,0.10973089933395386,0.07960835844278336,-0.015500474721193314,-0.15224529802799225,0.12242823094129562,-0.07509886473417282,0.042445458471775055,0.030321169644594193,0.012478445656597614,0.07544714957475662,-0.09732382744550705,-0.3957343101501465,0.06361257284879684,-0.11839325726032257,-0.03556462377309799,0.08079168945550919,0.16328106820583344,-0.08358996361494064,-0.01971224509179592,-0.035497210919857025,-0.006888931151479483,0.03263121470808983,-0.07196557521820068,0.021952150389552116,0.02610747516155243,-0.040193941444158554,-0.57388836145401,0.11668062210083008,-0.07892853021621704,-0.062033165246248245,0.03642381727695465,-0.02935340441763401,0.07847084850072861,0.0028627384454011917,-0.08845686912536621,0.10848571360111237,-0.0007225270383059978,-0.029026249423623085,0.12275493890047073,0.027700599282979965,-0.1969074159860611,-0.21713358163833618,0.07900165766477585,0.013270803727209568,0.39769625663757324,0.8357910513877869,0.4488161504268646,0.21974344551563263,0.37214967608451843,0.1807834506034851,0.03528771176934242,-0.07629763334989548,0.08014703541994095,0.055382147431373596,-0.024660911411046982,0.05473118647933006,0.026037652045488358,-0.5094464421272278,-0.4631885886192322,-0.23799116909503937,-0.07587293535470963,-0.22147266566753387,-0.3146175146102905,-0.22899872064590454,-0.17718887329101562,-0.1337972730398178,0.040746498852968216,0.015741124749183655,0.09931351989507675,-0.06742783635854721,-0.04666004702448845,-0.0055565848015248775,-0.3597300946712494,-0.3182520568370819,0.05795837566256523,-0.06391004472970963,0.06948506832122803,0.12368925660848618,0.0432700552046299,-0.14190541207790375,-0.05252615362405777,-0.2333194464445114,-0.015121928416192532,0.007584819104522467,-0.09500051289796829,-0.0629386380314827,-0.11822289973497391,-0.16742613911628723,1.4639445543289185,-0.22207129001617432,0.6456499099731445,-0.15154655277729034,0.6472820043563843,-0.38896411657333374,0.3252372145652771,-0.19651511311531067,-0.5005929470062256,1.3370356559753418,-0.4943447411060333,-0.3796548545360565,0.21687614917755127,-0.42494988441467285,0.7992404699325562,0.9441795349121094,1.0756323337554932,-0.09875476360321045,-0.02731022611260414,-0.014051906764507294,-0.0076103536412119865,-0.0068431030958890915,-0.006376736797392368,-0.0018757733050733805,-0.0008808223064988852,0.0036847591400146484,0.003388999029994011,0.09396056830883026,0.08955129981040955,-0.04179585352540016,-0.09708285331726074,-0.8527772426605225,-0.10558464378118515,-0.07856608182191849,-0.06711991876363754,0.054185882210731506,0.006032325327396393,-0.04209678992629051,0.04941381886601448,0.029414722695946693,0.015694133937358856,0.014092592522501945,0.040418922901153564,0.14991693198680878,-0.04423607513308525,0.18152500689029694,0.036805540323257446,0.1804787665605545,0.14401914179325104,0.13213644921779633,-0.04529416561126709,-0.010579962283372879,0.07897112518548965,-0.03015495091676712,-0.060962215065956116,-0.006077528931200504,-0.026437057182192802,-0.09580487757921219,-0.2574884295463562,0.04353783279657364,-0.12853620946407318,0.33040863275527954,0.17498987913131714,-0.0386006198823452,0.17910176515579224,-0.010176345705986023,-0.04128723964095116,0.08698953688144684,0.07214847952127457,0.04734788462519646,0.10336505621671677,0.15262280404567719,0.19007746875286102,0.24887292087078094,0.06212726607918739,-0.18332411348819733,0.025040607899427414,0.013579160906374454,0.12387391924858093,0.041097939014434814,0.0250321663916111,0.024180108681321144,-0.0197039395570755,0.0019972282461822033,0.02933984249830246,-0.061349499970674515,-0.11996423453092575,0.05192118510603905,0.008270508609712124,-0.100095234811306,-0.023174244910478592,-0.017261765897274017,-0.09055360406637192,-0.1418519914150238,-0.19209285080432892,-0.01222731452435255,-0.0397961363196373,-0.020914269611239433,-0.020582007244229317,-0.08294238895177841,0.03777221962809563,0.1274024099111557,-0.027255922555923462,0.3681946396827698,0.2212495058774948,0.12450414150953293,0.059769175946712494,-0.02476247400045395,0.061175983399152756,0.050822146236896515,0.06705958396196365,0.09524855762720108,0.0028704910073429346,-0.049139559268951416,-0.04034365341067314,-0.0633886530995369,-0.05361726135015488,0.000520792615134269,0.03246123343706131,0.04266935586929321,0.5761838555335999,0.1293494552373886,0.031022079288959503,-0.02143118716776371,-0.0071343607269227505,0.0022903820499777794,0.10683528333902359,0.04144810140132904,0.04944746196269989,0.03628579527139664,0.03347736597061157,0.03794896602630615,-0.02080416865646839,0.12669521570205688,0.12289214134216309,0.3366844356060028,0.10452070087194443,0.0016309795901179314,0.029792502522468567,0.035236988216638565,0.06306641548871994,0.025064043700695038,0.03910741209983826,0.030613921582698822,0.02027733437716961,0.02528584562242031,0.015683382749557495,0.06550928950309753,-0.06065542250871658,-0.1746111512184143,0.1836930215358734,-0.1344049721956253,-0.4833648204803467,0.2145930528640747,-0.3579673171043396,0.07278339564800262,-0.007089825812727213,-0.07533228397369385,0.3945539593696594,-0.6157958507537842,0.5172044634819031,-0.17427244782447815,0.310299813747406,-0.2696303725242615,-0.20510341227054596,0.207848459482193,-0.09298785030841827,0.22382217645645142,0.7145428657531738,1.5164505243301392,-0.11693680286407471,-0.005254894495010376,-0.17200542986392975,0.2064901441335678,0.44877690076828003,0.689595639705658,0.32936254143714905,-0.05993311479687691,0.15386250615119934,0.05339379981160164,0.6092290878295898,1.0275514125823975,-0.26421859860420227,-0.0896526351571083,-0.04062502086162567,0.09531296044588089,0.4412388205528259,0.19182810187339783,-0.07898415625095367,-0.046806517988443375,0.018135331571102142,0.006331223528832197,-0.004211844876408577,-0.1606462150812149,0.10119382292032242,-0.20029129087924957,0.13014928996562958,0.08063840121030807,-0.2386884093284607,-0.36509522795677185,-0.09730914980173111,0.042849257588386536,0.1554935872554779,0.2023964375257492,-0.3749902546405792,-0.4598630368709564,0.029704248532652855,0.11821870505809784,-0.0550457239151001,0.17693164944648743,0.40694501996040344,0.4187265932559967,-0.02626684121787548,0.13074064254760742,0.18782348930835724,-0.03423531726002693,0.42270347476005554,0.6032963395118713,-0.10462737828493118,0.06832395493984222,-0.10337626188993454,0.2733452022075653,0.16211961209774017,0.3596784174442291,0.15046028792858124,-0.9231279492378235,0.5257408618927002,0.18388348817825317,-0.7538825869560242,-0.1403941810131073,0.7571137547492981,0.4417843222618103,0.8010907173156738,0.8604109883308411,1.045491337776184,0.8340570330619812,0.5435303449630737,0.7596741914749146,0.22268888354301453,-0.21009783446788788,0.9614647030830383,2.3224294185638428,-0.23562760651111603,0.13492470979690552,0.18850183486938477,-0.46190741658210754,0.12944428622722626,-0.33035287261009216,0.13246843218803406,-0.01694726198911667,0.15788385272026062,-0.25642210245132446,0.21642079949378967,0.20656980574131012,-0.1243819147348404,-0.018265435472130775,0.17027804255485535,0.005136540159583092,-0.00033818892552517354,-0.20399779081344604,-0.36591005325317383,-0.20256836712360382,-0.21509981155395508,-0.08824919164180756,0.08774229139089584,0.12511350214481354,-0.024024084210395813,-0.13123629987239838,-0.24022096395492554,-0.174496129155159,-0.06118961423635483,0.03545580059289932,-0.1074795350432396,0.29968318343162537,-0.18664442002773285,0.11716429144144058,-0.1253301352262497,-0.08012464642524719,0.5109565258026123,-0.18550896644592285,0.47672465443611145,0.18454696238040924,-0.002631045412272215,-0.20738151669502258,0.17621289193630219,0.09984944760799408,0.39902225136756897,0.44842585921287537,0.1489385962486267,0.04523269459605217,-0.2614792287349701,0.33327382802963257,0.25439414381980896,0.0922558531165123,0.20776225626468658,0.21266445517539978,0.0899658128619194,0.2957673668861389,0.14376318454742432,0.07747291028499603,-0.18527427315711975,-0.27093932032585144,0.2193106710910797,-0.22549067437648773,0.8577563166618347,-0.02221476286649704,-0.12901471555233002,-0.07651955634355545,0.05798395723104477,0.44977033138275146,-0.3193909227848053,0.04807368293404579,0.3498339354991913,2.0775599479675293,-0.04313596710562706,0.30373305082321167,0.3506612479686737,0.7321780323982239,0.17877617478370667,-0.4052762985229492,-0.21296527981758118,-0.4556313455104828,0.3716389834880829,1.2274553775787354,0.08346504718065262,0.22379370033740997,0.14566920697689056,0.07805144786834717,0.5856775641441345,1.9286932945251465,0.07371357828378677,-0.19407276809215546,0.05919352546334267,-0.1426631212234497,0.2639985978603363,0.25126340985298157,-0.5843235850334167,0.03496270999312401,-0.0029634416569024324,-0.03766410052776337,0.20728322863578796,0.5864803791046143,-0.18398651480674744,-0.06991439312696457,0.1195867657661438,0.04277374967932701,0.36594483256340027,0.5835719704627991,0.8384946584701538,0.17521266639232635,0.18173621594905853,0.1847209632396698,0.15101346373558044,0.1811394989490509,-0.028885770589113235,-0.014516944997012615,0.02109960839152336,0.19892840087413788,0.6588518619537354,-0.27924734354019165,0.4675428569316864,-0.14215512573719025,0.3583995997905731,0.08716879785060883,0.806850016117096,-0.31256118416786194,0.7409571409225464,0.11718501150608063,0.4176875054836273,0.6112195253372192,0.831001341342926,0.04612701013684273,-0.02239387109875679,-0.4345689117908478,0.32666295766830444,-0.7714576125144958,-0.034961480647325516,-0.19906581938266754,0.30597835779190063,1.1982395648956299,0.8526166677474976,0.8770458698272705,-0.17930781841278076,0.01044555939733982,0.03860512748360634,0.21005764603614807,-0.11063209921121597,-0.03119063749909401,-0.08142834901809692,-0.6018019914627075,0.03782503306865692,-0.018981073051691055,-0.18243421614170074,0.21123872697353363,0.23109948635101318,-0.018939819186925888,0.341228723526001,0.01585732027888298,0.057647284120321274,0.15885360538959503,0.09429647028446198,0.44607943296432495,-0.039332594722509384,0.25858697295188904,-0.09140350669622421,0.16036108136177063,0.1611405611038208,0.2026171237230301,0.015707407146692276,0.006215978413820267,0.10420692712068558,0.24855226278305054,0.3058808445930481,0.11249348521232605,0.09431142359972,-0.07186297327280045,0.11704094707965851,-0.08487210422754288,0.11483585834503174,0.09692163020372391,0.24916476011276245,0.37022414803504944,0.23257090151309967,-0.023080335929989815,0.0985192283987999,-0.2377866804599762,0.2001282274723053,0.2108486145734787,0.056388553231954575,0.11624747514724731,-0.10761226713657379,0.07498398423194885,0.23356691002845764,-0.04347604885697365,0.13543786108493805,0.010582362301647663,0.09691406041383743,0.3793444335460663,0.073189377784729,-0.5434274673461914,0.008080655708909035,0.20149724185466766,0.30199483036994934,-0.02633368782699108,0.03209665045142174,-0.2143753618001938,-0.4793300926685333,-0.41422322392463684,-0.20006951689720154,-0.01203843206167221,0.07168871909379959,0.7536234855651855,-0.32988134026527405,0.34440216422080994,0.6742587089538574,-0.12648476660251617,0.2823789119720459,0.4656152129173279,-0.23623856902122498,-0.16862395405769348,0.01775749772787094,-0.2980315685272217,0.03264082968235016,-0.4682888984680176,0.06218523904681206,0.10522940009832382,-0.07330841571092606,0.05524592846632004,-0.528836727142334,0.06675608456134796,0.02951442264020443,0.2692652642726898,0.1694517731666565,-0.09043014049530029,-0.23690614104270935,0.4384092390537262,0.009812694042921066,0.07069732248783112,0.09635892510414124,0.03282797709107399,-0.06195492297410965,-0.08369903266429901,0.010784417390823364,0.028817148879170418,-0.014569660648703575,-0.04472249746322632,-0.03643637150526047,0.009793998673558235,-0.0017493055202066898,0.043538302183151245,0.045487191528081894,-0.0880470871925354,-0.02188749425113201,0.06825194507837296,-0.02225891314446926,0.10579769313335419,0.027778353542089462,-0.2018066644668579,-0.20168690383434296,-0.03927899897098541,0.09248178452253342,0.26054254174232483,0.2067769318819046,0.14677467942237854,-0.11860352009534836,0.6411241888999939,0.019833246245980263,0.293384850025177,0.1466590166091919,0.13658608496189117,-0.19798122346401215,-0.4534752070903778,0.02603713981807232,-0.020720185711979866,-0.1057228147983551,-0.0231678057461977,-0.023641986772418022,-0.11937442421913147,-0.252248078584671,-0.36407214403152466,0.2210863083600998,0.026327747851610184,-0.3649492859840393,-1.2299416065216064,-0.2416093349456787,-0.7355453968048096,0.21248625218868256,0.02187124267220497,0.05888289213180542,0.48816147446632385,0.0693335235118866,-0.020533142611384392,0.06936797499656677,0.28865712881088257,-0.3920498788356781,0.16832076013088226,0.05448489636182785,-0.1947648674249649,-0.19833073019981384,0.11141577363014221,0.4716511368751526,-0.07115377485752106,-0.08978323638439178,-0.015364735387265682,-0.2770727574825287,-0.02822571061551571,-0.31550538539886475,-0.11697786301374435,-0.09350046515464783,0.018816513940691948,-0.08661138266324997,-0.29489588737487793,0.46752703189849854,-0.23861971497535706,-0.050119224935770035,0.26877856254577637,0.2778267562389374,-0.04769955575466156,-0.4566367268562317,-0.023186979815363884,0.20588012039661407,0.005792574025690556,0.3656754493713379,0.08491937071084976,0.0530012808740139,0.27891355752944946,0.0011186434421688318,-0.05318225547671318,-0.07297157496213913,0.15596678853034973,0.11874299496412277,-0.05185197293758392,0.07602735608816147,0.014948817901313305,-0.11923668533563614,0.09610307216644287,-0.0015391294145956635,-0.002740501658990979,-0.0012000277638435364,0.0017343603540211916,0.1689024120569229,0.26276272535324097,-0.026033079251646996,0.03094005584716797,-0.017553914338350296,0.11512628942728043,0.24201291799545288,0.0022267396561801434,0.10930945724248886,-0.24511198699474335,-1.0516724586486816,0.5643455386161804,-0.5724170804023743,-0.006873834412544966,-0.043747060000896454,-1.3197386264801025,-0.8968634605407715,0.09863008558750153,-0.25648078322410583,0.03773575648665428,0.07043032348155975,0.13789568841457367,-0.010456562973558903,-0.040378935635089874,0.08533892035484314,-0.12686431407928467,0.04835578426718712,-0.2203102856874466,-0.008595593273639679,-0.05432272329926491,0.1712402105331421,-0.27619296312332153,0.12181911617517471,-0.044743187725543976,0.020841937512159348,-0.04253541678190231,-0.09736387431621552,0.17015960812568665,-0.030362779274582863,-0.3001423478126526,0.004771960433572531,0.04260961338877678,-0.12571997940540314,0.18058817088603973,-0.0715729221701622,0.29247304797172546,0.018735714256763458,0.07614113390445709,-0.2307707965373993,0.37257707118988037,-0.15537330508232117,0.06896520406007767,-0.02005556784570217,0.07302229851484299,0.11352202296257019,-0.22070564329624176,0.04342101141810417,0.4370494782924652,-0.012535984627902508,-0.033734213560819626,0.10813983529806137,-0.1639656126499176,0.06656806915998459,-0.27316519618034363,-0.015041129663586617,-0.06263016164302826,0.20337526500225067,-0.32718631625175476,0.1413363814353943,-0.058202631771564484,0.009265038184821606,-0.07770761847496033,-0.09048564732074738,0.1883534938097,-0.022496970370411873,-0.36526405811309814,0.018157847225666046,0.04636238142848015,0.04108337685465813,0.002379037206992507,0.07469569891691208,-0.007202741224318743,-7.496470342659901e-40,1.357747789611759e-38,7.432718269025443e-39,-1.8518481504699252e-39,-1.4817614425358874e-38,-6.775956303467224e-39,-1.5600858991605516e-38,-7.293439010760807e-39,-6.074069724760816e-39,1.0569000795790889e-38,-7.347403014621956e-39,-1.3713724744505427e-38,-0.005856265779584646,-0.014128362759947777,-0.022596722468733788,-0.023617304861545563,-0.013975157402455807,0.0014927838928997517,0.01877366192638874,0.028352128341794014,0.028880517929792404,0.023904060944914818,0.01581149362027645,0.009426047094166279,0.002502844436094165,0.0005677004810422659,0.0023104865103960037,0.003934670239686966,-0.0017546424642205238,-0.004277895204722881,-0.008770185522735119,-0.013007513247430325,-0.015314190648496151,-0.015898464247584343,-0.014110667631030083,-0.011902636848390102,-0.010241929441690445,-0.008555074222385883,-0.007669553626328707,-0.007202495355159044,-0.00762631930410862,-0.0068747540935873985,-0.004187047015875578,-0.0009321365505456924,0.004837292246520519,0.014063278213143349,0.026295103132724762,0.03479289636015892,0.03382427990436554,0.02348414808511734,0.007187539245933294,-0.007229425944387913,-0.01431074645370245,-0.015052779577672482,-0.009925265796482563,-0.003376755630597472,0.004864799790084362,0.008370011113584042,0.0047229742631316185,-0.00011895365605596453,-0.2875518798828125,0.014346091076731682],"sample_rate":48000.0}},{"max_value":1.0,"model":{"version":"0.7.0","metadata":{"date":{"year":2026,"month":5,"day":15,"hour":18,"minute":45,"second":2},"loudness":-15.440455436706543,"gain":0.7970027598711171},"architecture":"WaveNet","config":{"layers":[{"input_size":1,"condition_size":1,"head":{"out_channels":1,"kernel_size":16,"bias":true},"channels":8,"kernel_sizes":[6,6,6,6,6,6,6,6,6,6,6,6,6,6,15,15,6,6,6,6,6,6,6],"dilations":[1,3,7,17,41,101,239,1,3,7,17,41,101,239,1,13,1,3,7,17,41,101,239],"activation":[{"type":"LeakyReLU","negative_slope":0.01},{"type":"LeakyReLU","negative_slope":0.01},{"type":"LeakyReLU","negative_slope":0.01},{"type":"LeakyReLU","negative_slope":0.01},{"type":"LeakyReLU","negative_slope":0.01},{"type":"LeakyReLU","negative_slope":0.01},{"type":"LeakyReLU","negative_slope":0.01},{"type":"LeakyReLU","negative_slope":0.01},{"type":"LeakyReLU","negative_slope":0.01},{"type":"LeakyReLU","negative_slope":0.01},{"type":"LeakyReLU","negative_slope":0.01},{"type":"LeakyReLU","negative_slope":0.01},{"type":"LeakyReLU","negative_slope":0.01},{"type":"LeakyReLU","negative_slope":0.01},{"type":"LeakyReLU","negative_slope":0.01},{"type":"LeakyReLU","negative_slope":0.01},{"type":"LeakyReLU","negative_slope":0.01},{"type":"LeakyReLU","negative_slope":0.01},{"type":"LeakyReLU","negative_slope":0.01},{"type":"LeakyReLU","negative_slope":0.01},{"type":"LeakyReLU","negative_slope":0.01},{"type":"LeakyReLU","negative_slope":0.01},{"type":"LeakyReLU","negative_slope":0.01}],"bottleneck":8,"head1x1":{"active":false,"out_channels":1,"groups":1},"layer1x1":{"active":true,"groups":1},"groups_input":1,"groups_input_mixin":1,"conv_pre_film":{"active":false,"shift":true,"groups":1},"conv_post_film":{"active":false,"shift":true,"groups":1},"input_mixin_pre_film":{"active":false,"shift":true,"groups":1},"input_mixin_post_film":{"active":false,"shift":true,"groups":1},"activation_pre_film":{"active":false,"shift":true,"groups":1},"activation_post_film":{"active":false,"shift":true,"groups":1},"layer1x1_post_film":{"active":false,"shift":true,"groups":1},"head1x1_post_film":{"active":false,"shift":true,"groups":1},"gating_mode":["none","none","none","none","none","none","none","none","none","none","none","none","none","none","none","none","none","none","none","none","none","none","none"],"secondary_activation":[null,null,null,null,null,null,null,null,null,null,null,null,null,null,null,null,null,null,null,null,null,null,null],"slimmable":null}],"head":null,"head_scale":0.014346090979482218},"weights":[2.1101415157318115,-2.2313785552978516,-1.5982444286346436,2.1610536575317383,-2.0666162967681885,2.221590518951416,-0.8511991500854492,1.8882620334625244,-0.07286655902862549,0.24306932091712952,0.5251721739768982,0.8187770247459412,0.6513620018959045,0.28518640995025635,0.08481192588806152,-0.24937482178211212,-0.5237835049629211,-0.8378282785415649,-0.6406475305557251,-0.29017266631126404,0.05453042685985565,-0.2168855518102646,-0.4313666820526123,-0.6769784092903137,-0.5334017872810364,-0.24623672664165497,-0.06459278613328934,0.26171380281448364,0.49797728657722473,0.8436447381973267,0.6579371690750122,0.3088145852088928,0.10190163552761078,-0.2793840765953064,-0.553539514541626,-0.8380789160728455,-0.6294052004814148,-0.3000858426094055,-0.06985089182853699,0.23154588043689728,0.5472664833068848,0.8181492686271667,0.6662173867225647,0.2922787368297577,0.024734677746891975,-0.12517958879470825,-0.25180038809776306,-0.38504114747047424,-0.30519190430641174,-0.14480386674404144,-0.09753625839948654,0.2164241373538971,0.4880787134170532,0.7465019226074219,0.6076005101203918,0.2797413468360901,0.005684915464371443,-0.1589769572019577,0.02620791085064411,0.12686972320079803,0.08351261168718338,0.2617158889770508,0.008612901903688908,0.1674026995897293,-0.024635836482048035,-0.12485923618078232,-0.10880810022354126,-0.23981891572475433,-0.021017445251345634,0.10562367737293243,-0.008173048496246338,-0.10068901628255844,-0.07666503638029099,-0.19394944608211517,0.016260720789432526,-0.13639618456363678,0.02068719081580639,0.13647732138633728,0.07822734862565994,0.262216180562973,-0.02566213719546795,0.11980566382408142,-0.0016215275973081589,-0.12495223432779312,-0.08510398119688034,-0.2741108238697052,-0.016429217532277107,-0.12063740938901901,0.004631021525710821,0.13657031953334808,0.11846143752336502,0.21684153378009796,-0.013320239260792732,0.06842658668756485,-0.0190957710146904,-0.06354811787605286,-0.044466424733400345,-0.11546109616756439,-0.002141715958714485,-0.13900217413902283,0.03317920118570328,0.10401058942079544,0.11430252343416214,0.23714981973171234,-0.1441667675971985,0.05347827076911926,0.3262511193752289,0.3286319971084595,0.1230340525507927,0.02753584459424019,0.1519823968410492,-0.05025636777281761,-0.31683045625686646,-0.3404415249824524,-0.11601952463388443,-0.01688225194811821,0.10358628630638123,-0.05136072635650635,-0.2509334981441498,-0.254718542098999,-0.09282974898815155,-0.025861309841275215,-0.1346813142299652,0.05235397070646286,0.32726892828941345,0.3291054666042328,0.11032061278820038,0.021801289170980453,0.14917431771755219,-0.05111369490623474,-0.33603134751319885,-0.3379700779914856,-0.11616329103708267,-0.020420536398887634,-0.13886702060699463,0.06568653881549835,0.32873407006263733,0.3350449204444885,0.1117139533162117,0.01674187369644642,0.04866417869925499,-0.03456631675362587,-0.14045463502407074,-0.13756008446216583,-0.04962119832634926,-0.015318209305405617,-0.12040295451879501,0.058382876217365265,0.29177987575531006,0.2987631857395172,0.1030440554022789,0.02903064340353012,0.05581687018275261,-0.25523248314857483,-0.5785719752311707,-0.8846924304962158,-0.7610424160957336,-0.3196638524532318,-0.05939484387636185,0.25010937452316284,0.5782651305198669,0.9033399224281311,0.7744118571281433,0.3174533247947693,-0.03795007988810539,0.21044683456420898,0.4578797519207001,0.6966232657432556,0.6012983918190002,0.2631802260875702,0.057871248573064804,-0.2544398903846741,-0.5836971998214722,-0.9003854990005493,-0.7715859413146973,-0.3191753923892975,-0.048957083374261856,0.26145485043525696,0.5814206600189209,0.9052240252494812,0.773086428642273,0.3261793255805969,0.05648777261376381,-0.2537686228752136,-0.5834631323814392,-0.8926804661750793,-0.7734649181365967,-0.318863183259964,-0.01544116623699665,0.12201466411352158,0.2564757168292999,0.3848867416381836,0.33187973499298096,0.1470067948102951,0.056962113827466965,-0.23592747747898102,-0.5171833634376526,-0.7945775389671326,-0.682370662689209,-0.2899874448776245,-0.21557839214801788,-0.0663139745593071,0.21777914464473724,0.34112751483917236,0.19997504353523254,0.12283018231391907,0.2316204309463501,0.06773876398801804,-0.21097983419895172,-0.34927991032600403,-0.19335642457008362,-0.1178259328007698,0.1572718471288681,0.04394422098994255,-0.1601576805114746,-0.2603740096092224,-0.1495235711336136,-0.10691531747579575,-0.23036475479602814,-0.056883279234170914,0.20552346110343933,0.3624795079231262,0.18620450794696808,0.11364328861236572,0.2289445996284485,0.05085252225399017,-0.22215336561203003,-0.34717509150505066,-0.18799832463264465,-0.1076015904545784,-0.23042772710323334,-0.07301313430070877,0.22134646773338318,0.34849658608436584,0.18905360996723175,0.1242082342505455,0.07707057893276215,0.01798957958817482,-0.09213531017303467,-0.1389925479888916,-0.08530352264642715,-0.06188671290874481,-0.19144591689109802,-0.053980451077222824,0.1853666603565216,0.3096892535686493,0.16610844433307648,0.10521124303340912,0.02541804313659668,-0.008235667832195759,-0.17172278463840485,-0.27191320061683655,-0.18515141308307648,-0.1266765147447586,-0.03711375594139099,0.008205177262425423,0.19690780341625214,0.2831816077232361,0.18846063315868378,0.13322779536247253,-0.018380675464868546,0.023404235020279884,0.1402144432067871,0.21547304093837738,0.14594224095344543,0.10608668625354767,0.0430612713098526,-0.027632731944322586,-0.1730973869562149,-0.2816488444805145,-0.184437096118927,-0.131078839302063,-0.03173361346125603,0.03462788462638855,0.18535268306732178,0.267278790473938,0.1739727258682251,0.13547705113887787,0.03236624598503113,-0.015972990542650223,-0.19127705693244934,-0.26670554280281067,-0.1718180924654007,-0.12824811041355133,-0.008866789750754833,0.015235784463584423,0.07608437538146973,0.11441569775342941,0.07528478652238846,0.06476306170225143,0.02960343472659588,-0.025808867067098618,-0.16038116812705994,-0.23489153385162354,-0.16712810099124908,-0.1330873817205429,-0.428659051656723,-0.16811956465244293,0.13708867132663727,0.3650323152542114,0.3270842134952545,0.016346991062164307,0.44520288705825806,0.1758277863264084,-0.14570359885692596,-0.38240543007850647,-0.3432955741882324,-0.002021544612944126,0.3255157470703125,0.13487042486667633,-0.11278165876865387,-0.2957232594490051,-0.2708428204059601,-0.032063569873571396,-0.4249061644077301,-0.1933097392320633,0.14072054624557495,0.3860396146774292,0.3399167060852051,0.01864519715309143,0.42301127314567566,0.16716331243515015,-0.1547781378030777,-0.38528430461883545,-0.3275694251060486,-0.023791521787643433,-0.44163978099823,-0.17154841125011444,0.13160686194896698,0.36985909938812256,0.3353557586669922,0.016815345734357834,0.16703444719314575,0.06768447905778885,-0.055424466729164124,-0.16056492924690247,-0.1500677764415741,-0.02484944835305214,-0.37690412998199463,-0.15174762904644012,0.12304198741912842,0.32875192165374756,0.2916885018348694,0.028500555083155632,0.07585722208023071,-0.03391442820429802,-0.2464633733034134,-0.30590444803237915,-0.15470477938652039,-0.09413810819387436,-0.08010776340961456,0.029920771718025208,0.24876059591770172,0.3107762336730957,0.15561719238758087,0.09432607889175415,-0.04942067712545395,0.03354094550013542,0.19650518894195557,0.23958958685398102,0.12065394967794418,0.07823165506124496,0.08654285222291946,-0.03163960203528404,-0.24666129052639008,-0.3095778524875641,-0.15709157288074493,-0.09439040720462799,-0.07627345621585846,0.03131523355841637,0.24117256700992584,0.3090490698814392,0.15393395721912384,0.09123208373785019,0.08692041039466858,-0.028309548273682594,-0.2521131932735443,-0.30741849541664124,-0.15086688101291656,-0.09132898598909378,-0.021682029590010643,0.024542219936847687,0.11012406647205353,0.13217025995254517,0.06700728833675385,0.0453573577105999,0.06930484622716904,-0.02987288497388363,-0.22235067188739777,-0.2746792435646057,-0.1351964920759201,-0.0823640301823616,0.0015045383479446173,-0.5922722220420837,0.4328370988368988,-0.000142984208650887,0.7157952189445496,0.278369665145874,0.7034443020820618,0.554841935634613,0.16227197647094727,0.26326122879981995,0.022137006744742393,-0.18622814118862152,0.07154250144958496,-0.1144552081823349,0.020681509748101234,-0.05758159980177879,0.5723215341567993,-0.04648435860872269,-0.017106737941503525,-0.5121777057647705,0.03093595616519451,-0.1468784660100937,0.05928486958146095,0.086724653840065,-0.732650101184845,-0.10434070229530334,-0.4583977460861206,0.6073316931724548,-0.4039982855319977,0.18591554462909698,-0.05681764706969261,0.22657111287117004,0.7082148790359497,-0.7205401062965393,0.09147866815328598,-0.670750081539154,0.005202363710850477,0.04555263742804527,-0.04829778894782066,-0.13674595952033997,0.001484143314883113,-0.44855964183807373,-0.20433932542800903,-0.06109434738755226,-0.03779420256614685,0.061750877648591995,0.1426030993461609,0.131912961602211,-0.8238188028335571,0.10757763683795929,-0.3213660717010498,0.6349954605102539,0.11622121930122375,0.07851933687925339,-0.5528765916824341,0.22990916669368744,0.08417007327079773,-0.40279528498649597,0.0942344069480896,-0.020038124173879623,0.20688298344612122,-0.12833088636398315,0.3187982738018036,-0.003758783685043454,0.4326505959033966,-0.3530513346195221,0.22863370180130005,-0.42657920718193054,0.20475736260414124,-0.32773908972740173,0.2310420572757721,-0.09748129546642303,0.29342859983444214,-0.06003886088728905,0.0012643011286854744,-0.3459874391555786,0.0936007872223854,-0.043100692331790924,0.1793184131383896,-0.095443956553936,0.5101829171180725,0.3782700300216675,0.5401053428649902,0.38932421803474426,-0.6065917611122131,0.10892428457736969,-0.025859488174319267,-0.3725036680698395,0.1513201743364334,0.004424604587256908,0.1170065626502037,0.11532967537641525,0.06862293183803558,-0.21944430470466614,-0.20416729152202606,0.04126175493001938,-0.08454085886478424,-0.024237466976046562,0.19357162714004517,0.2955687642097473,0.18226829171180725,-0.04461662471294403,0.13518068194389343,0.14953653514385223,0.06282579898834229,-0.2691004276275635,-0.07564276456832886,0.04446150362491608,-0.08954188227653503,-0.10627593100070953,-0.2064124345779419,-0.10992797464132309,-0.14287911355495453,-0.1817893236875534,-0.19118548929691315,-0.1952572613954544,0.15505093336105347,0.12494363635778427,-0.09411472082138062,0.034366264939308167,-0.0666426345705986,0.08807709813117981,-0.03769339621067047,-0.31640857458114624,0.004474594257771969,0.007472400087863207,0.10890106856822968,0.1795254945755005,-0.1979091465473175,-0.4878774583339691,0.07446539402008057,-0.021529676392674446,0.013589935377240181,-0.08700408786535263,-0.06822068989276886,-0.19085857272148132,-0.10652101784944534,-0.04965408146381378,0.029972631484270096,-0.011187687516212463,0.05459655821323395,-0.01674923673272133,0.10799325257539749,0.010258683934807777,-0.09014272689819336,-0.037896182388067245,-0.20797666907310486,-0.011162884533405304,-0.04383360967040062,-0.002842474961653352,0.11515781283378601,-0.04371220991015434,0.04072454944252968,0.06095335632562637,-0.01371277216821909,0.03452461212873459,-0.020984569564461708,-0.01452438160777092,-0.052001506090164185,-0.028818801045417786,0.2062244862318039,0.09025675058364868,-0.03806844353675842,0.07878977805376053,-0.03055834211409092,0.01875985413789749,-0.10724537819623947,-0.06576564162969589,-0.03585444390773773,-0.08712504059076309,-0.05154367536306381,-0.06681820750236511,-0.027935877442359924,0.01772773638367653,0.14475546777248383,-0.04754888266324997,0.06006096675992012,0.04922502487897873,0.03837735950946808,0.07861441373825073,0.12521694600582123,0.05183859169483185,0.08483614772558212,0.05536170303821564,-0.1462215930223465,-0.11244548112154007,-0.16643399000167847,-0.2193158119916916,0.008789725601673126,0.11903263628482819,-0.0754355788230896,0.002405579201877117,-0.022153114899992943,-0.10988544672727585,-0.2885758876800537,-0.5326709151268005,-0.0973852202296257,-0.0018971475074067712,-0.17548449337482452,-0.22485892474651337,-0.2300271838903427,0.025136662647128105,-0.12233784794807434,-0.07782793790102005,-0.18768422305583954,-0.09116791933774948,-0.05757533386349678,-0.3504292666912079,0.20803432166576385,0.11742934584617615,0.27497512102127075,0.25066959857940674,0.0179219301789999,-0.31848254799842834,0.012936446815729141,0.043784111738204956,-0.06995076686143875,-0.07891539484262466,-0.10222640633583069,0.09593433141708374,-0.01833571493625641,0.04814889281988144,0.013093412853777409,-0.09497293084859848,-0.19197483360767365,0.15065397322177887,0.19349335134029388,0.20334173738956451,0.08608661592006683,0.012993396259844303,0.2552703022956848,0.34354570508003235,0.0909479558467865,0.10582803189754486,-0.03037731908261776,0.013526738621294498,0.028410272672772408,0.0869603380560875,0.04511105641722679,-0.016695786267518997,-0.07658679038286209,-0.015552353113889694,-0.14620666205883026,0.097103551030159,0.09269112348556519,-0.06645162403583527,-0.05529892072081566,-0.13419348001480103,0.03705504909157753,-0.08146116882562637,-0.021047474816441536,0.060413166880607605,-0.009464372880756855,0.01585894264280796,-0.08081204444169998,0.07861845940351486,-0.11787661910057068,-0.037049662321805954,-0.1256127804517746,0.0789894163608551,-0.19166146218776703,-0.07965113967657089,-0.13143548369407654,-0.02685951441526413,0.01479264348745346,0.08232224732637405,0.018284829333424568,-0.09633558988571167,-0.09836000949144363,-0.03489141911268234,0.03796625882387161,-0.1293046623468399,0.12994104623794556,-0.16144368052482605,-0.032734110951423645,-0.10342983901500702,-0.11397849768400192,-0.11317663639783859,0.0807737186551094,-0.02055366337299347,0.05169360339641571,0.13919125497341156,0.1915842890739441,0.2776675522327423,-0.002196995774284005,-0.23022261261940002,0.044197097420692444,-0.09764327853918076,-0.08691702783107758,-0.015508322045207024,0.08199118822813034,0.45998743176460266,0.21376581490039825,-0.05813992768526077,0.26370683312416077,0.17399084568023682,0.04325796291232109,-0.33001425862312317,0.1510639190673828,0.2031145691871643,0.14035238325595856,0.31869664788246155,0.054496776312589645,0.11851292103528976,-0.04432813823223114,-0.13972260057926178,-0.11528389900922775,-0.07240676134824753,-0.10187377035617828,0.0704646036028862,-0.10729403048753738,0.12252645939588547,0.10481857508420944,0.06276430934667587,0.07015269994735718,-0.031567174941301346,0.12081388384103775,-0.1609809249639511,0.09329386055469513,0.09513334929943085,0.030880318954586983,-0.6020649671554565,-0.12018612772226334,-0.025350533425807953,0.03312760218977928,0.10991036146879196,-0.1362769454717636,-0.3767283260822296,0.16172954440116882,0.13865356147289276,0.12528541684150696,0.031495265662670135,0.015070601366460323,-0.04900990426540375,0.039980027824640274,-0.07986745983362198,-0.09317682683467865,-0.17627781629562378,0.320323646068573,0.468162477016449,0.06958665698766708,-0.018106617033481598,0.2267589420080185,0.2680179178714752,0.058809198439121246,-0.3109876215457916,0.11878981441259384,0.0632358267903328,0.02561170980334282,0.09175064414739609,0.013429885730147362,0.03381647914648056,-0.17611852288246155,0.0019089658744633198,-0.023529047146439552,-0.03903421014547348,0.14056727290153503,0.06476909667253494,0.025543196126818657,0.131745383143425,0.11037442833185196,-0.001341191353276372,-0.11275213211774826,0.04358639940619469,0.1704673320055008,0.17020359635353088,0.12190108746290207,0.21125224232673645,-0.17813214659690857,-0.4417862892150879,0.0913211777806282,-0.07021550089120865,0.05638043209910393,0.14857539534568787,-0.2097797691822052,-0.19477827847003937,-0.08287017792463303,-0.10471716523170471,-0.027556296437978745,0.027722330763936043,0.022882182151079178,-0.04209524020552635,0.002716049551963806,0.046424444764852524,-0.05952993407845497,-0.05215548723936081,-0.08091805130243301,0.12110093235969543,-0.013665596954524517,-0.07440710812807083,0.08883024007081985,0.07933326065540314,0.10537155717611313,0.03600599989295006,-0.21419356763362885,-0.0837487131357193,-0.03688177838921547,0.02046789973974228,0.011756888590753078,0.014409216120839119,0.026562651619315147,0.14736424386501312,0.006650532595813274,-0.024602841585874557,-0.019661225378513336,0.06884101033210754,-0.04582773894071579,-0.0022592698223888874,0.07547744363546371,0.039047665894031525,0.018564514815807343,-0.03198494762182236,0.004180221818387508,-0.09895347058773041,0.0902886688709259,0.08363015949726105,0.09148607403039932,0.03074362874031067,-0.03629917651414871,-0.09813565760850906,0.033986419439315796,0.075165756046772,0.08901836723089218,0.03896540403366089,0.007177884690463543,0.03935682773590088,-0.04561315104365349,-0.1627204716205597,0.22941213846206665,0.37329062819480896,0.10646744817495346,0.2707994878292084,0.29128244519233704,0.19786661863327026,-0.15839269757270813,-0.3822970688343048,-0.18893985450267792,-0.10547719895839691,-0.10699968785047531,-0.06501636654138565,0.15396519005298615,0.3564399182796478,0.1295301765203476,-0.0751669630408287,0.120271697640419,-0.15501992404460907,0.3626209795475006,0.23209448158740997,0.08404625207185745,-0.012702716514468193,0.0027473103255033493,0.14550355076789856,0.0025627033319324255,-0.21109823882579803,0.06952536851167679,0.025033654645085335,-0.008393573574721813,0.06515514105558395,0.07340943068265915,0.1284804493188858,-0.134954571723938,-0.06361544132232666,-0.24070154130458832,-0.16849476099014282,0.09229416400194168,0.5467467308044434,-0.16897495090961456,-0.2702869772911072,-0.0952410027384758,-0.19587497413158417,0.10253851115703583,0.3923454284667969,0.009853720664978027,-0.08451549708843231,-0.4891793429851532,-0.08799655735492706,0.3952910602092743,0.21051068603992462,-0.16828837990760803,0.16868402063846588,-0.11589266359806061,-0.010747174732387066,-0.024808015674352646,0.02455289661884308,-0.2632330060005188,-0.10840809345245361,0.006017899140715599,-0.09444913268089294,-0.26228731870651245,-0.06290183216333389,-0.1771952509880066,0.12063045054674149,0.03100435808300972,-0.34574568271636963,-0.13719792664051056,0.4032588601112366,-0.02991607040166855,0.19670987129211426,0.276524156332016,-0.05480222404003143,-0.13888832926750183,0.11405731737613678,-0.10991067439317703,-0.21213336288928986,-0.18271717429161072,-0.27870410680770874,-0.43461549282073975,-0.09812451899051666,-0.13318976759910583,-0.10363864153623581,0.009914892725646496,0.046908605843782425,0.27444714307785034,-0.0679936483502388,-0.5095869302749634,-0.17493614554405212,-0.2657846212387085,0.09523383527994156,-0.0318761020898819,-0.03230050578713417,0.26160570979118347,0.07164135575294495,0.6132597923278809,0.3072337508201599,0.43811923265457153,0.24784673750400543,0.3270632028579712,-0.5127222537994385,0.07963896542787552,-0.12728677690029144,-0.15425878763198853,0.2705064117908478,0.02444550208747387,-0.37005436420440674,-0.10065805166959763,0.09677333384752274,0.18408674001693726,0.015943750739097595,0.22143976390361786,-0.3303830623626709,-0.05541280284523964,0.33149299025535583,0.26470834016799927,-0.28043439984321594,-0.1345926970243454,-0.17880401015281677,-0.06385668367147446,-0.05033934488892555,-0.18483592569828033,0.10255197435617447,-0.05254855379462242,0.23785866796970367,0.2974046468734741,-0.10896552354097366,-0.04497726261615753,0.0879344567656517,-0.2269626408815384,0.07910551875829697,0.19500911235809326,-0.14344166219234467,-0.04988027364015579,-0.017284777015447617,-0.16644255816936493,-0.10244548320770264,0.007390636019408703,0.13808080554008484,-0.09522221237421036,-0.03642398864030838,-0.04920840263366699,0.012003584764897823,-0.2380065619945526,-0.028652038425207138,0.010815051384270191,-0.05332412198185921,-0.009175194427371025,0.04762788489460945,-0.2149607539176941,0.17862240970134735,-0.07141026109457016,-0.002408527536317706,0.0069315326400101185,0.11793949455022812,0.085506871342659,-0.20522859692573547,0.07746662944555283,0.08454065024852753,0.09123121947050095,0.04902270436286926,0.14571335911750793,0.18352434039115906,0.04460842162370682,-0.005873779766261578,-0.020888827741146088,0.05103203281760216,-0.044015705585479736,-0.10844848304986954,0.017956163734197617,-0.10067995637655258,-0.040028296411037445,-0.14782224595546722,0.10919925570487976,-0.044615987688302994,0.08150897920131683,0.10534948110580444,0.0775323435664177,0.035459209233522415,0.33832934498786926,0.19092094898223877,-0.12779353559017181,-0.1538478434085846,-0.16847361624240875,-0.15557076036930084,-0.008042360655963421,-0.3348618149757385,-0.036568280309438705,-0.09670744836330414,-0.13941620290279388,-0.01152521651238203,-0.12018529325723648,0.074551522731781,0.10995172709226608,0.09661184996366501,0.08992068469524384,0.12746170163154602,-0.030588945373892784,-0.195543572306633,-0.07471850514411926,-0.09754619747400284,-0.1988770067691803,-0.29816800355911255,-0.4118926227092743,-0.2492317408323288,0.038292452692985535,0.030832963064312935,-0.0032564732246100903,-0.02098068781197071,-0.023641381412744522,0.2872151732444763,-0.08356589078903198,-0.014116100035607815,-0.012753484770655632,0.0037088391836732626,0.033733271062374115,-0.1759221851825714,-0.055393677204847336,-0.07078429311513901,-0.020495900884270668,0.007007294800132513,-0.057092852890491486,0.09919276833534241,0.21079660952091217,0.2151099443435669,0.2321738749742508,0.19400006532669067,0.32685568928718567,0.028357302770018578,-0.013458590023219585,-0.04553123936057091,-0.0898917019367218,-0.057736411690711975,0.05358161777257919,-0.16833613812923431,-0.021581590175628662,-0.0913885086774826,-0.11792904138565063,-0.14058727025985718,-0.1326202154159546,0.3289230167865753,0.016704125329852104,0.108501136302948,0.008142071776092052,0.014157993718981743,0.07542591542005539,-0.18400683999061584,0.059260278940200806,0.022799285128712654,0.00913032703101635,-0.028294004499912262,0.11259956657886505,-0.09477866441011429,0.004180757328867912,0.04677366465330124,-0.08580188453197479,-0.001332877785898745,-0.029423341155052185,0.5011367201805115,0.012246290221810341,0.025544460862874985,0.07563454657793045,0.009492249228060246,0.0968102365732193,-0.1319563388824463,0.04098982736468315,0.07540854811668396,0.04878224432468414,-0.06238057464361191,0.11652462929487228,0.21066077053546906,0.036627136170864105,0.0754280686378479,0.06789832562208176,0.09741134941577911,0.14790616929531097,-0.20109015703201294,-0.055730607360601425,0.10701227188110352,0.1315266191959381,0.1323317140340805,0.1331530511379242,0.0808405801653862,-0.3013054132461548,-0.2338094413280487,-0.422014057636261,-0.0979488268494606,-0.04285140708088875,0.3637334704399109,0.14618133008480072,0.21336181461811066,0.0891093984246254,0.13161566853523254,0.01890597678720951,-0.11253400146961212,-0.0035646359901875257,0.12245223671197891,0.04919155314564705,-0.24367408454418182,-0.12371131032705307,-0.0009742599213495851,0.012624938040971756,-0.07615692168474197,-0.2670452296733856,-0.07726982235908508,-0.20490430295467377,0.07574266940355301,-0.03115653619170189,0.1381056159734726,0.09326578676700592,0.13933482766151428,0.12940916419029236,0.04711703211069107,0.057345714420080185,0.21503719687461853,0.04650271311402321,0.11060979217290878,0.21230055391788483,0.046135175973176956,-0.08178198337554932,0.11259801685810089,0.0029545617289841175,0.14483477175235748,0.10184059292078018,-0.1723926067352295,-0.042159710079431534,-0.11563296616077423,-0.04031110182404518,-0.08163032680749893,-0.015164460986852646,-0.03509366139769554,-0.12207195907831192,0.004972787573933601,-0.006171317771077156,0.05841165781021118,0.07079485803842545,0.025340966880321503,0.058649249374866486,-0.04229449853301048,0.09177926927804947,0.0692286342382431,0.11851534247398376,0.12611018121242523,-0.04165276885032654,-0.03879634663462639,-0.011290239170193672,0.0751434862613678,-0.04794483631849289,-0.045783594250679016,0.07833060622215271,0.10627666860818863,-0.004311759956181049,-0.030402477830648422,0.0639759749174118,0.0359882190823555,0.05731188878417015,-0.03680943325161934,0.008048593066632748,-0.035835329443216324,-0.016065500676631927,-0.03741086274385452,0.028182005509734154,0.007170827127993107,-0.07441216707229614,0.041778817772865295,-0.02508166804909706,-0.024426762014627457,0.09407871961593628,0.0433589406311512,0.09611586481332779,0.11808575689792633,0.052054263651371,0.04534119367599487,-0.04186421260237694,-0.17026594281196594,-0.17863929271697998,-0.11370609700679779,-0.04255897179245949,-0.07508478313684464,0.05412501096725464,0.15978482365608215,0.17113344371318817,0.16652485728263855,0.17893271148204803,0.03761208802461624,-0.030439553782343864,-0.1681886911392212,-0.06526655703783035,-0.0584857240319252,-0.07444896548986435,0.08743094652891159,-0.007885735481977463,-0.11535073071718216,-0.08135528862476349,0.13385465741157532,0.0828564465045929,0.09484801441431046,0.10201935470104218,0.07636159658432007,0.2367044985294342,0.04366813972592354,0.11358638107776642,-0.2534480094909668,-0.037690985947847366,-0.15284161269664764,-0.1986953765153885,-0.15514029562473297,-0.044025979936122894,0.014898079447448254,-0.3290277123451233,-0.28536590933799744,-0.11087042093276978,0.06508997082710266,-0.05348522588610649,-0.04853498563170433,0.09860164672136307,-0.08062954246997833,-0.09248073399066925,-0.04810582101345062,-0.053395066410303116,0.014531146734952927,0.027931179851293564,0.0016161940293386579,0.030715931206941605,-0.0032918115612119436,0.06473377346992493,0.06826469302177429,0.09546202421188354,0.12739796936511993,-0.0683998391032219,-0.0593888983130455,-0.152632474899292,-0.14737239480018616,-0.11362414062023163,-0.19524310529232025,-0.06504583358764648,-0.07479139417409897,-0.19278475642204285,-0.07565734535455704,0.022815464064478874,0.042698200792074203,0.14611387252807617,-0.04138563200831413,-0.28806865215301514,-0.15511243045330048,0.007543318439275026,-0.01208528783172369,0.17132556438446045,0.14305250346660614,0.08490066230297089,0.15193557739257812,-0.029933415353298187,0.002046147594228387,0.09207718819379807,0.08476419001817703,0.010920199565589428,0.0030323166865855455,-0.05210036411881447,-0.08746661990880966,0.1547359675168991,0.10994729399681091,0.23960496485233307,0.11964908987283707,0.012513856403529644,-0.015058018267154694,0.08454913645982742,0.13299769163131714,0.2695378363132477,0.24846701323986053,-0.1435357928276062,-0.15502730011940002,-0.05826994404196739,-0.02125675231218338,-0.3018878400325775,-0.17798814177513123,-0.08536959439516068,-0.07658166438341141,-0.0552247017621994,-0.1759960949420929,0.15287573635578156,-0.04566167667508125,0.018185211345553398,0.09136135131120682,0.02294456772506237,-0.0799964964389801,-0.0802927017211914,0.13170890510082245,-0.08046005666255951,-0.09250863641500473,-0.047330595552921295,-0.03933929651975632,-0.087227001786232,-0.0884992778301239,-0.05398279055953026,-0.06127603352069855,-0.10780885815620422,-0.07382392883300781,0.16347992420196533,-0.10849014669656754,-0.04481710493564606,-0.0745660737156868,0.005075454246252775,0.022754305973649025,-0.2302362620830536,-0.04730390012264252,-0.03138531744480133,0.12630781531333923,-0.09299232065677643,0.005758653860539198,0.00906426552683115,-0.03273598104715347,0.04467678815126419,0.08496440201997757,-0.014903330244123936,0.15414145588874817,-0.1659739464521408,-0.007950255647301674,-0.14221319556236267,-0.44841063022613525,-0.21186839044094086,0.0656256228685379,-0.12562648952007294,0.040774859488010406,0.012191012501716614,-0.1963057965040207,-0.010287053883075714,-0.05037626251578331,-0.06062658503651619,-0.1354469507932663,0.02201104909181595,0.004244087729603052,0.05862206593155861,-0.04738529771566391,-0.2962094843387604,0.16150909662246704,0.6035792231559753,-0.21917304396629333,-0.08583349734544754,0.2393673211336136,-0.06657285988330841,0.2133234441280365,0.1414988785982132,0.017148183658719063,-0.4357626438140869,0.38181018829345703,0.24880509078502655,-0.3837698996067047,0.43380963802337646,-0.3118079900741577,0.01868627965450287,0.5835782289505005,0.3363766372203827,-0.19177353382110596,-0.04491851106286049,0.18428674340248108,-0.5523300170898438,0.21897763013839722,0.2099519968032837,0.14272643625736237,-0.33613187074661255,0.17416337132453918,0.08514200150966644,-0.13967697322368622,-0.036425042897462845,0.030333464965224266,0.32219555974006653,-0.4465911388397217,-0.4633464515209198,0.2938433587551117,0.3719741404056549,-0.3378566801548004,0.1590019017457962,-0.21341899037361145,0.1117219552397728,0.16041037440299988,0.10629568994045258,-0.023426320403814316,0.0850580483675003,0.009754662401974201,-0.04765121638774872,0.0188168715685606,-0.12142772227525711,-0.21821177005767822,-0.23980408906936646,-0.16613171994686127,-0.09486022591590881,0.18730446696281433,-0.02298588678240776,-0.10515398532152176,0.06569856405258179,0.18950015306472778,0.07213491946458817,0.039355549961328506,0.15848839282989502,-0.04882194474339485,-0.03997814655303955,0.06855472177267075,-0.06813042610883713,0.10420628637075424,0.24043698608875275,-0.12953400611877441,0.09053414314985275,-0.24628545343875885,0.0195161122828722,0.08805030584335327,0.02915799804031849,0.06892998516559601,0.11004623770713806,0.1351974606513977,0.026361357420682907,0.08220112323760986,-0.013553271070122719,-0.01720120757818222,0.08516217023134232,0.024044964462518692,0.08476804941892624,-0.09776859730482101,0.047209810465574265,-0.05828468129038811,-0.03246002644300461,-0.16102948784828186,0.11633342504501343,0.659169614315033,-0.01334505993872881,0.016968227922916412,-0.08323299139738083,-0.03593233600258827,-0.16073347628116608,0.24621880054473877,-0.002113895956426859,0.034673284739255905,0.03270264342427254,-0.045378826558589935,-0.09064619243144989,-0.16251680254936218,-0.020016217604279518,0.11402133852243423,-0.015967976301908493,-0.18805378675460815,-0.1776462197303772,0.16048994660377502,0.0476720929145813,0.024015337228775024,0.11923001706600189,0.004249523859471083,-0.16401652991771698,0.11679431051015854,-0.0630645900964737,-0.03302399814128876,0.006325541064143181,-0.2050536572933197,-0.2383861243724823,0.2060474008321762,0.13844230771064758,0.050302211195230484,0.1616259068250656,-0.006750549655407667,0.1356159895658493,-0.06946887075901031,-0.1256048083305359,-0.07625912129878998,-0.09024267643690109,-0.006899035070091486,-0.08146287500858307,-0.15861624479293823,0.1657402217388153,0.20970354974269867,0.15402735769748688,0.19791683554649353,0.1263853758573532,-0.04560218006372452,0.13549505174160004,0.11406292766332626,0.07913857698440552,0.07235601544380188,-0.03424612432718277,-0.09903033822774887,0.11068832129240036,-0.1085859164595604,-0.11268820613622665,-0.2414771467447281,-0.31294873356819153,-0.05256514996290207,0.07384275645017624,0.05592098832130432,0.1286698430776596,0.0895831286907196,0.02473446913063526,0.050057124346494675,-0.009093016386032104,-0.04660050570964813,0.04268283396959305,-0.04622950032353401,-0.11226914077997208,0.2164476215839386,0.019061032682657242,-0.12813714146614075,-0.020635569468140602,-0.049436304718256,-0.20043906569480896,-0.4721524119377136,-0.09409335255622864,-0.10345504432916641,-0.11142639815807343,-0.2010257989168167,-0.21799714863300323,0.05405155196785927,-0.00821438618004322,0.02935655787587166,0.07271375507116318,-0.031383413821458817,-0.13238605856895447,-0.36107879877090454,-0.0036423990968614817,-0.036821573972702026,0.029146650806069374,-0.0938085988163948,-0.06716977804899216,-0.058831389993429184,-0.05256477743387222,0.0007964515825733542,-0.10182666778564453,-0.05790456384420395,-0.12074227631092072,-0.25101184844970703,-0.0604134276509285,-0.07527366280555725,-0.09218087792396545,-0.0988069549202919,-0.1114840880036354,-0.11600902676582336,-0.0816640704870224,-0.01585903763771057,-0.07734458893537521,0.047132328152656555,-0.05151261016726494,-0.049407392740249634,-0.05938013643026352,-0.05443354323506355,-0.013475656509399414,-0.0719090923666954,-0.12270426750183105,-0.009802266024053097,0.07965684682130814,0.11167489737272263,0.0837879553437233,0.1002904400229454,-0.04316003620624542,0.2045045793056488,0.005782036576420069,-0.08069007843732834,-0.12597498297691345,-0.0660121887922287,0.007207612041383982,-0.027096303179860115,-0.07181952148675919,-0.025771839544177055,-0.14057041704654694,-0.07965917140245438,0.03874945640563965,-0.03918670862913132,-0.008233399130403996,0.016685128211975098,0.009909648448228836,0.023036694154143333,-0.004315447062253952,-0.15067844092845917,-0.026802940294146538,-0.07680800557136536,-0.110706627368927,0.048692844808101654,-0.10398098081350327,-0.17911270260810852,0.04273463040590286,-0.06763706356287003,-0.024324903264641762,-0.02986544743180275,0.03947143629193306,0.052054356783628464,0.032963886857032776,0.039338063448667526,-0.0599541962146759,-0.07951298356056213,0.08688133209943771,0.1714717149734497,-0.007941024377942085,-0.08267398178577423,0.010685323737561703,-0.026055913418531418,-0.14955124258995056,-0.11317654699087143,0.036017876118421555,-0.06287994235754013,0.0033638121094554663,0.0763845294713974,0.0057323165237903595,0.26388686895370483,-0.013759821653366089,-0.03568713739514351,-0.061422254890203476,-0.1326291412115097,-0.010973034426569939,-0.08127954602241516,0.022570254281163216,-0.029012281447649002,-0.0972985252737999,-0.1517365425825119,-0.09045562893152237,-0.026372188702225685,0.09259162843227386,0.058192625641822815,-0.029299743473529816,0.018147198483347893,-0.13568685948848724,-0.11925596743822098,-0.05381195619702339,-0.06789993494749069,-0.13613097369670868,-0.09361515939235687,-0.2427998185157776,0.0939333587884903,0.006300066132098436,0.017118478193879128,0.0029990430921316147,-0.10762747377157211,-0.06471135467290878,-0.03137221559882164,-0.04891941696405411,-0.016428202390670776,0.06906908005475998,-0.10361895710229874,-0.054592035710811615,0.09858931601047516,0.03632093220949173,0.038852471858263016,0.011620422825217247,-0.09080847352743149,-0.04970018193125725,-0.12128639966249466,0.07024477422237396,0.07748809456825256,0.03653499111533165,-0.025574050843715668,0.12359713017940521,0.19700393080711365,-0.05710120126605034,-0.020981865003705025,-0.04611276090145111,-0.12617430090904236,0.0641583725810051,-0.07911184430122375,-0.07120919227600098,0.00430345581844449,-0.032409921288490295,-0.030934810638427734,-0.09851454943418503,-0.023646842688322067,0.12160246074199677,-0.020857660099864006,-0.0649644061923027,0.007661590818315744,0.14844243228435516,-0.2301955372095108,0.02103748545050621,-0.0004316034319344908,-0.0017102970741689205,0.01081667561084032,-0.13357555866241455,-0.2296658307313919,0.02076350525021553,-0.0602288581430912,-0.10310292989015579,-0.13558384776115417,0.044170815497636795,-0.0351957306265831,-0.012536460533738136,0.015402532182633877,0.09499514847993851,0.08239653706550598,-0.05101529881358147,-0.014106747694313526,0.015672853216528893,-0.07887257635593414,-0.045806482434272766,-0.1469709426164627,-0.09045437723398209,-0.07300223410129547,0.11403223127126694,0.06402213871479034,0.08068206161260605,-0.00362509791739285,0.028707105666399002,-0.03411179035902023,0.07047103345394135,0.08680617064237595,-0.022181004285812378,-0.03652269020676613,0.1475200653076172,0.05182848498225212,0.06062383949756622,0.11245162785053253,0.014554704539477825,0.10234513878822327,0.13197189569473267,0.009807538241147995,-0.0011759678600355983,-0.043510593473911285,-0.13549533486366272,-0.1416911482810974,-0.15826664865016937,0.14184655249118805,0.01823119819164276,0.10186057537794113,-0.067045196890831,-0.15532976388931274,0.018931234255433083,0.19409038126468658,0.0125806899741292,0.002162377815693617,-0.025399096310138702,-0.04888800159096718,0.010436306707561016,0.057539891451597214,-0.06619121134281158,0.045700110495090485,-0.11279095709323883,-0.09743165224790573,-0.015393192879855633,0.3565634489059448,0.0710889920592308,0.1088133156299591,0.007059675175696611,0.054701294749975204,-0.09932875633239746,-0.18365585803985596,-0.019894123077392578,-0.06538069248199463,-0.08192703127861023,-0.08956926316022873,-0.17315641045570374,0.34357950091362,-0.052607472985982895,-0.06699910014867783,-0.1147446483373642,0.02049214206635952,-0.11719932407140732,-0.2224724441766739,-0.09488367289304733,-0.10109645873308182,-0.08613785356283188,-0.003949340432882309,0.047225598245859146,-0.06689679622650146,0.07292602956295013,0.08912357687950134,-0.02656467631459236,-0.07626309245824814,-0.2340036928653717,0.014042829163372517,0.011581827886402607,-0.09298336505889893,0.049642208963632584,0.010066653601825237,-0.20121179521083832,0.07624415308237076,0.0745384618639946,0.009920784272253513,-0.09492532163858414,-0.007127930410206318,0.22052745521068573,-0.09042883664369583,0.06431157886981964,0.06671790778636932,0.06616658717393875,0.1667763888835907,-0.08173374831676483,0.1602555364370346,0.1024470254778862,0.05654766410589218,0.11395303905010223,0.05388162285089493,-0.023673824965953827,0.14215047657489777,0.08751244097948074,-0.03015555627644062,-0.01742502860724926,0.09190663695335388,-0.08851025998592377,-0.03062501922249794,0.005380012094974518,0.09574780613183975,-0.6102036833763123,-0.13708265125751495,-0.1769641935825348,-0.20562557876110077,0.13203874230384827,-0.21398472785949707,-0.12852135300636292,0.01675458438694477,-0.01273510791361332,0.009497768245637417,0.00972013734281063,0.007572464179247618,-0.11042463779449463,-0.00778186833485961,0.14517799019813538,0.054190170019865036,-0.40933600068092346,0.024273250252008438,0.07448583841323853,-0.03431886062026024,0.1439220905303955,-0.02444138005375862,-0.25176751613616943,0.30932891368865967,0.14827117323875427,-0.09077721834182739,-0.13110893964767456,0.0805148184299469,-0.19316184520721436,-0.018283875659108162,0.09560581296682358,-0.38000884652137756,0.15477770566940308,0.12351985275745392,0.017283277586102486,0.2256348580121994,-0.09722104668617249,-0.21773873269557953,-0.36981722712516785,0.03064611367881298,0.1464451402425766,0.17737169563770294,-0.25148412585258484,0.36988791823387146,-0.15076497197151184,-0.11660768836736679,-0.06426561623811722,0.00713264150545001,0.6599915027618408,0.0020173501688987017,-0.13100698590278625,0.208977609872818,-0.38826999068260193,-0.12750162184238434,-0.003579700831323862,-0.1668466180562973,0.3090786635875702,-0.06745699048042297,0.07486294955015182,0.11364031583070755,-0.09227705746889114,-0.1645701676607132,-0.3273322582244873,-0.15384215116500854,0.11978759616613388,0.2831679582595825,0.1375766396522522,-0.03461262211203575,0.3932235836982727,-0.20917794108390808,0.4358329176902771,0.2184688150882721,-0.26082512736320496,-0.15982817113399506,-0.3070041835308075,0.06908262521028519,-0.2308298498392105,0.2232716828584671,-0.3168593943119049,-0.016123728826642036,0.041657786816358566,-0.08388246595859528,-0.10576992481946945,0.25010883808135986,0.01351564284414053,0.04676097258925438,-0.038127340376377106,-0.024087943136692047,-0.03548307716846466,0.05750494450330734,-0.020357826724648476,0.11057423800230026,0.03331588953733444,-0.003965395037084818,0.05037039890885353,0.06034749373793602,-0.12630034983158112,-0.025618933141231537,-0.03150802478194237,-0.008536949753761292,0.05019552633166313,0.028026914224028587,0.0796344205737114,-0.1837189495563507,-0.009058687835931778,-0.03174424543976784,-0.07984666526317596,-0.10560157895088196,-0.05529836192727089,0.1977861076593399,-0.049870725721120834,7.427826403727522e-06,-0.036519359797239304,0.03262686729431152,-0.04165267199277878,0.190466046333313,-0.009768596850335598,-0.03266223147511482,0.001344880904071033,-0.005136182066053152,-0.10984134674072266,0.0738426074385643,-0.025990258902311325,-0.0006244267569854856,-0.01421932503581047,0.10211116820573807,0.0005789069691672921,-0.3569040894508362,0.00388430361635983,-0.01068941317498684,-0.032707761973142624,-0.12454770505428314,-0.12287348508834839,0.35167691111564636,-0.06433939188718796,-0.011275024153292179,0.021871250122785568,-0.029189899563789368,0.16110287606716156,-0.12380797415971756,-0.04233020916581154,0.022778959944844246,0.05994938313961029,-0.0015989240491762757,0.06387091428041458,-0.16751019656658173,0.007069738581776619,-0.1639864444732666,-0.1772991418838501,-0.22476255893707275,-0.27011382579803467,0.10602793842554092,0.13079456984996796,0.021672656759619713,0.008116180077195168,-0.1731904000043869,-0.016847075894474983,-0.1417330801486969,-0.031106792390346527,-0.06191004067659378,-0.08629199117422104,-0.07981283217668533,-0.08323108404874802,0.021703310310840607,-0.0002992828958667815,-0.06394901126623154,-0.11450561136007309,-0.15559633076190948,-0.0802447721362114,-0.11673707515001297,-0.005987989716231823,-0.10652456432580948,-0.17928758263587952,-0.13117846846580505,-0.19260700047016144,0.05326936021447182,0.04746081680059433,0.16902987658977509,0.2066015750169754,0.10942219197750092,0.20117197930812836,-0.14501141011714935,0.02281493879854679,-0.04273639991879463,-0.0555095449090004,-0.02234022133052349,-0.08581264317035675,-0.06559602171182632,-0.1475725620985031,-0.046474676579236984,0.048504725098609924,0.0033335445914417505,-0.009149567224085331,0.13909412920475006,-0.028034286573529243,-0.042502712458372116,-0.04699818789958954,-0.11585462093353271,-0.20353198051452637,-0.36890652775764465,0.10161098092794418,0.02620534785091877,-0.02027217485010624,0.01599830947816372,-0.13320530951023102,-0.09595756232738495,0.0840778648853302,-0.00027049347409047186,-0.012967267073690891,0.009934716857969761,-0.0746781975030899,-0.31701549887657166,0.016381490975618362,-0.014849069528281689,0.10314162075519562,0.08314511179924011,-0.04036828875541687,-0.09273979067802429,-0.051853422075510025,-0.06609077751636505,-0.04834185913205147,-0.08551929891109467,-0.21914376318454742,0.16525685787200928,0.03252900019288063,0.10115111619234085,0.14102484285831451,0.17522825300693512,0.04888705536723137,-0.11652414500713348,-0.01845093071460724,-0.035329658538103104,-0.031029919162392616,-0.07094613462686539,-0.17609387636184692,0.02471582405269146,-0.03941906616091728,0.010859484784305096,0.020668527111411095,-0.04728560522198677,-0.09002262353897095,-0.05520195886492729,0.007959426380693913,0.05258038267493248,0.05068003386259079,0.057755157351493835,0.05445224046707153,-0.014040190726518631,-0.06036527454853058,-0.03162902221083641,-0.03952958807349205,-0.08217697590589523,-0.2016383707523346,-0.03048810176551342,0.01720869168639183,-0.03968963772058487,-0.034611187875270844,0.015378644689917564,0.014570080675184727,-0.21863991022109985,-0.09481895714998245,-0.05083702504634857,0.008190411143004894,-0.05869258940219879,-0.02460942603647709,0.15737172961235046,0.026830319315195084,0.014370692893862724,0.06483662128448486,0.10168050974607468,0.15314683318138123,-0.16858398914337158,0.013281594030559063,-0.03632545471191406,-0.061238184571266174,-0.057298146188259125,-0.2538881301879883,0.2425442934036255,0.029141930863261223,0.03930259495973587,0.01854092814028263,0.032034024596214294,-0.06113595888018608,-0.22414551675319672,0.028897397220134735,0.05881326273083687,0.021739386022090912,0.07135371118783951,0.0042824698612093925,-0.0321539044380188,0.04016227275133133,0.0458487793803215,-0.026616118848323822,0.02748890407383442,0.006896794307976961,-0.22550678253173828,-0.01492114644497633,-0.03218822181224823,-0.05550520867109299,-0.011140536516904831,-0.11677122116088867,0.11656544357538223,0.009620900265872478,0.0016444582724943757,0.01775633916258812,-0.016584869474172592,-0.04378139600157738,-0.05013832822442055,0.02261480502784252,-0.05255291610956192,0.02974316105246544,-0.09250204265117645,-0.08991352468729019,-0.03454401344060898,0.036646682769060135,0.03927437961101532,0.018737493082880974,0.04111823812127113,0.04698283225297928,0.3514999449253082,-0.03250868618488312,0.008102405816316605,-0.005812215153127909,0.03259171545505524,-0.10551030933856964,0.1717413365840912,0.021308688446879387,-0.0774732455611229,0.10587728768587112,-0.04293189197778702,-0.05083661153912544,0.17527078092098236,-0.017933879047632217,-0.12711367011070251,-0.06116705760359764,0.09568009525537491,-0.045787036418914795,0.1513756662607193,0.03718085587024689,0.0077711306512355804,0.042990244925022125,0.04915718361735344,0.0649901032447815,-0.08886579424142838,0.10065849125385284,0.17785151302814484,0.2935340702533722,0.06785830110311508,0.0353042297065258,-0.05423063039779663,0.029949845746159554,0.03216277435421944,0.025697758421301842,-0.04420597478747368,0.06945263594388962,-0.11903999000787735,0.011456887237727642,0.1506897360086441,-0.04225507378578186,-0.08246134966611862,-0.0542522557079792,0.1131468340754509,0.03700985386967659,0.04425773769617081,0.06841135025024414,0.12057257443666458,0.19290286302566528,-0.25085464119911194,-0.07188169658184052,-0.09588243812322617,-0.20427940785884857,-0.04451115429401398,-0.30190810561180115,0.2952219247817993,-0.04888997599482536,0.018308332189917564,-0.005342449527233839,-0.029625054448843002,-0.048421818763017654,-0.019560061395168304,-0.058756012469530106,-0.0773298442363739,-0.05047616735100746,-0.03329571709036827,-0.1391063928604126,0.014078683219850063,-0.003484115470200777,-0.027551285922527313,-0.017534596845507622,0.03186391666531563,-0.004402195569127798,0.2186148762702942,0.006418966222554445,0.03610888123512268,0.015308237634599209,-0.026102490723133087,-0.003697817912325263,-0.00045997422421351075,0.022008389234542847,0.05073583871126175,0.044211726635694504,-0.010749103501439095,0.03507426381111145,0.20557911694049835,-0.0030483754817396402,0.013969833962619305,0.020007329061627388,-0.05363516882061958,-0.024886619299650192,0.12357738614082336,0.0006151815759949386,0.01786603033542633,-0.0005858124350197613,0.00661225663498044,0.018499625846743584,-0.36051392555236816,0.02369621954858303,-0.030468959361314774,0.016430523246526718,-0.11201366037130356,-0.012359091080725193,0.15731334686279297,-0.057981617748737335,0.05449464172124863,0.005104509182274342,0.08968102186918259,0.17326505482196808,-0.13164520263671875,-0.034730471670627594,-0.060056667774915695,-0.015261276625096798,0.11622361838817596,0.10216562449932098,0.09939388185739517,-0.042515382170677185,-0.05423954874277115,-0.0410001277923584,-0.06420106440782547,-0.05194535478949547,-0.3468191921710968,0.037808701395988464,0.08192858844995499,0.0339592881500721,0.019991368055343628,0.3476560711860657,-0.033661819994449615,-0.026024334132671356,0.03428076580166817,0.024810630828142166,-0.053241368383169174,-0.06415987759828568,0.07391908019781113,-0.003625685116276145,0.011389895342290401,0.04716812074184418,0.09796622395515442,0.2284352034330368,-0.09506374597549438,-0.0712914913892746,-0.029586827382445335,-0.050956714898347855,-0.07788275927305222,-0.19245688617229462,0.1889355629682541,0.05574597418308258,0.01540006510913372,0.09343678504228592,0.05375919118523598,0.28607967495918274,-0.363544225692749,-0.10587373375892639,-0.031111057847738266,-0.12497638165950775,-0.19390584528446198,-0.08167406171560287,0.06589914858341217,-0.1746366024017334,0.08751317113637924,0.011567252688109875,0.030270425602793694,-0.02069277875125408,0.004529527388513088,-0.02102506160736084,0.0011863146210089326,-0.021128077059984207,-0.012778437696397305,-0.052832286804914474,0.16956909000873566,0.07910692691802979,-0.007519051432609558,0.18014642596244812,-0.11134077608585358,-0.002350244903936982,-0.24216730892658234,-0.1936158537864685,0.24980346858501434,0.002798181725665927,-0.3840539753437042,-0.03427153825759888,-0.19796797633171082,0.1470630019903183,0.28174445033073425,-0.015649339184165,-0.2671995460987091,0.18940888345241547,0.08955050259828568,0.06600561738014221,0.18362094461917877,-0.017173126339912415,0.1497233659029007,-0.20149169862270355,0.10354715585708618,0.11372637003660202,0.12341095507144928,-0.12421564757823944,0.07302016764879227,0.008576999418437481,0.22997958958148956,-0.09017375111579895,0.10746494680643082,0.08044886589050293,-0.2699158191680908,-0.29040056467056274,-0.09615053981542587,-0.23512333631515503,0.3279391825199127,0.1011965349316597,-0.12622617185115814,0.036964546889066696,-0.09504534304141998,-0.043263114988803864,0.15050093829631805,-0.16832782328128815,0.10329440236091614,0.31776922941207886,-0.09811405092477798,-0.06968317925930023,0.16306118667125702,-0.17187340557575226,0.07276958972215652,0.22676487267017365,-0.3225938081741333,-0.22350375354290009,0.3011065721511841,0.44713836908340454,-0.006308502051979303,0.17098793387413025,-0.20123732089996338,0.0556643046438694,0.08506383746862411,-0.15257611870765686,0.1721014827489853,0.14501415193080902,-0.10454591363668442,-0.09859570860862732,-0.1450567990541458,0.06891591101884842,0.08588746190071106,0.031058294698596,-0.09038129448890686,-0.05401678755879402,-0.06617468595504761,-0.07647031545639038,0.037178777158260345,0.057142846286296844,0.032669369131326675,0.007559883873909712,0.11144296079874039,0.06046531721949577,0.03289693593978882,0.16833636164665222,0.00353110465221107,0.16942735016345978,0.0918407142162323,0.17942918837070465,-0.09600363671779633,0.04296283796429634,0.05545442923903465,0.1295519471168518,0.11886190623044968,0.1130516454577446,-0.08575873076915741,-0.0033508336637169123,-0.09013164043426514,0.0072364648804068565,-0.07649847120046616,-0.0773264542222023,-0.023116732016205788,-0.04621218889951706,0.1454164832830429,0.06357954442501068,0.07589229196310043,-0.0067171743139624596,-0.0007827059598639607,-0.019555263221263885,-0.05878061056137085,0.00763200968503952,-0.02002612128853798,0.08802267163991928,-0.0718604102730751,0.003923988901078701,-0.03976951166987419,-0.047030042856931686,0.03969477117061615,-0.1837688684463501,0.004043468274176121,-0.0013872473500669003,0.05082625150680542,-0.13143765926361084,0.1022578626871109,0.1411638855934143,0.006238152272999287,-0.060574475675821304,0.11343242228031158,-0.10474832355976105,-0.012497318908572197,0.10150036960840225,-0.16172660887241364,-0.039554037153720856,0.06202103942632675,-0.06485724449157715,-0.12640349566936493,0.014199790544807911,0.06050483137369156,0.03709392994642258,0.009664353914558887,0.04380539804697037,0.06116238981485367,-0.012913726270198822,-0.3796178996562958,0.012134169228374958,-0.02640208601951599,-0.014029054902493954,0.04326065257191658,-0.0003107423835899681,-0.06917482614517212,-0.09930994361639023,0.017055541276931763,-0.08230176568031311,-0.10308016091585159,-0.11760137975215912,-0.028797606006264687,-0.02976611815392971,-0.052431732416152954,-0.0949162170290947,-0.06277007609605789,-0.087134949862957,0.1194017231464386,0.06664688140153885,0.04705851152539253,0.14488637447357178,0.16493633389472961,0.10677830129861832,0.04875583574175835,0.10006304085254669,0.06094319000840187,0.049587465822696686,0.008204475976526737,0.11417607963085175,-0.1550818532705307,0.06754475086927414,0.029757220298051834,0.10051006823778152,0.06483704596757889,0.1043228954076767,0.013971660286188126,-0.06898791342973709,-0.07664456963539124,-0.10396083444356918,-0.06358908861875534,-0.0633990690112114,0.37329453229904175,-0.007915526628494263,-0.04157624766230583,-0.14220242202281952,-0.15292254090309143,-0.09137850254774094,0.08520185947418213,-0.022914011031389236,-0.015471365302801132,-0.02403547801077366,-0.032010842114686966,-0.03268470987677574,-0.059694673866033554,0.057940199971199036,-0.02043301798403263,0.028021376579999924,-0.06561831384897232,-0.1074855774641037,0.10454737395048141,-0.03828153759241104,-0.04775003716349602,-0.0588202103972435,-0.026094911620020866,-0.12845735251903534,0.4488197863101959,-0.0049691577441990376,0.006180174648761749,0.06625135242938995,0.0018264884129166603,0.11293208599090576,-0.1152896136045456,-0.19378845393657684,-0.11428987234830856,-0.049367766827344894,-0.0900757759809494,0.02364819496870041,-0.12222384661436081,0.03457924723625183,0.04122466966509819,0.11693636327981949,0.060268476605415344,-0.016024485230445862,-0.06479347497224808,-0.00047397310845553875,0.04523621127009392,0.015484794974327087,0.050026729702949524,-0.04193565249443054,0.18603713810443878,-0.10492663830518723,0.0010817846050485969,0.030240565538406372,0.008866099640727043,0.04014919325709343,0.012433755211532116,-0.08945778012275696,-0.09009937942028046,-0.12707029283046722,-0.10104940086603165,-0.025956450030207634,0.0921621024608612,0.27068501710891724,0.02772105298936367,0.11512068659067154,0.0739554613828659,0.059752143919467926,0.2232726365327835,-0.008772659115493298,0.006982689257711172,0.07919145375490189,0.04751250147819519,0.040715768933296204,-0.059217631816864014,-0.04176681488752365,-0.04264289513230324,-0.1463281512260437,-0.10461002588272095,-0.14050482213497162,-0.0031929777469486,-0.04402376711368561,-0.007122495211660862,-0.030723674222826958,-0.0191794503480196,-0.05014092102646828,0.07247951626777649,-0.08044247329235077,-0.03553963825106621,-0.03333330899477005,-0.049296993762254715,0.01536734588444233,-0.2570165693759918,0.03334794566035271,0.034222688525915146,0.024604670703411102,0.016330568119883537,0.07403640449047089,0.055159661918878555,0.061341699212789536,0.02555353008210659,0.008485546335577965,0.04191301017999649,-0.06087880954146385,-0.18143056333065033,0.015067717991769314,0.023402880877256393,-0.007296229247003794,-0.011340196244418621,-0.04105359688401222,-0.10584081709384918,0.010063782334327698,-0.03335917368531227,-0.022899841889739037,-0.05451570451259613,-0.1295221894979477,0.04194224253296852,0.047214969992637634,0.024387065321207047,0.05480870231986046,0.030815672129392624,0.11966332048177719,0.15452930331230164,-0.06658361852169037,-0.010714002884924412,-0.06818252801895142,-0.0662228912115097,-0.07282489538192749,0.08582655340433121,0.04380273073911667,-0.01420290395617485,-0.022429052740335464,0.036664124578237534,0.09513802826404572,-0.22835516929626465,0.08097486197948456,0.07504991441965103,0.05670489743351936,0.06281941384077072,0.11474423855543137,0.09220371395349503,-0.034980349242687225,-0.006274923216551542,-0.03945569321513176,-0.027314726263284683,0.025230493396520615,0.0492931604385376,0.009603130631148815,-0.05980372428894043,-0.07537080347537994,-0.05959382280707359,-0.0661628469824791,-0.021514737978577614,-0.056224171072244644,-0.050694677978754044,-0.011498342268168926,-0.026742683723568916,0.006255686283111572,-0.06383004039525986,-0.11453452706336975,0.012638859450817108,-0.026377102360129356,-0.08539211750030518,-0.07259228825569153,-0.005593323148787022,0.05749195069074631,0.015223493799567223,-0.052229367196559906,-0.012738981284201145,-0.03701445087790489,0.10832275450229645,-0.004057226236909628,-0.022115565836429596,0.13457082211971283,0.07007903605699539,0.06962504982948303,-0.16124853491783142,-0.01270370278507471,-0.0642261877655983,0.034900419414043427,0.04588068276643753,0.0842956155538559,0.04710695892572403,0.0010930373100563884,0.04054616764187813,0.10479070991277695,-0.009569486603140831,0.08952950686216354,0.13671213388442993,-0.03521734103560448,0.023575110360980034,0.032360486686229706,-0.04000275582075119,0.10106039047241211,-0.17084620893001556,-0.012609824538230896,-0.04963275417685509,-0.020719638094305992,0.050912659615278244,0.013752685859799385,0.2084401547908783,-0.012002718634903431,-0.032900337129831314,-0.02456936612725258,0.010153088718652725,0.03936745971441269,0.21388112008571625,0.03566790372133255,0.058190956711769104,0.05164949595928192,0.05864579603075981,0.04973391816020012,-0.061929717659950256,-0.011135183274745941,-0.012521023862063885,-0.04104706272482872,-0.04621925577521324,-0.02852628193795681,0.13872765004634857,-0.01807422749698162,0.04203122481703758,0.0701417326927185,0.025264479219913483,0.0921749621629715,-0.13138407468795776,0.05293181538581848,-0.04619119316339493,0.035084471106529236,-0.005526343826204538,0.08833323419094086,0.0759306401014328,-0.035070937126874924,-0.07817664742469788,-0.0465565100312233,-0.043519891798496246,-0.10444808006286621,-0.37226974964141846,-0.043229661881923676,-0.034832362085580826,-0.05252537876367569,0.034836117178201675,-0.10745160281658173,-0.010253304615616798,0.045879680663347244,0.008181809447705746,0.017963288351893425,0.0016313603846356273,0.18395748734474182,0.022073859348893166,0.01749526523053646,0.01250376459211111,0.04430688917636871,0.029056193307042122,0.03007565811276436,0.022393815219402313,-0.0022667658049613237,-0.0021248147822916508,-0.06140074133872986,-0.06010344624519348,0.04855892062187195,-0.1997731477022171,-0.03436175733804703,-0.017014911398291588,0.0038503287360072136,0.03482389822602272,-0.14688004553318024,-0.19570308923721313,-0.030456839129328728,0.023050978779792786,0.013381419703364372,-0.02583959698677063,0.01865098811686039,-0.03292018547654152,-0.01722988486289978,-0.02616146206855774,0.07944443821907043,0.09255395084619522,-0.37358856201171875,0.05948557332158089,0.14024481177330017,-0.4772241711616516,-0.0022882558405399323,0.00019012436678167433,